<?xml version="1.0"?>
<MethodSetup Method="BDT::BDTG">
  <GeneralInfo>
    <Info name="TMVA Release" value="4.1.0 [262400]"/>
    <Info name="ROOT Release" value="5.28/00 [334848]"/>
    <Info name="Creator" value="mdjordje"/>
    <Info name="Date" value="Fri Sep  5 12:34:04 2014"/>
    <Info name="Host" value="Linux lxbuild148.cern.ch 2.6.18-194.26.1.el5 #1 SMP Wed Nov 10 09:45:46 CET 2010 x86_64 x86_64 x86_64 GNU/Linux"/>
    <Info name="Dir" value="/afs/cern.ch/user/m/mdjordje/CMSSW_7_0_6_patch1/src/CMGTools/TTHAnalysis/macros/leptons"/>
    <Info name="Training events" value="16280"/>
    <Info name="TrainingTime" value="24.5702"/>
    <Info name="AnalysisType" value="Classification"/>
  </GeneralInfo>
  <Options>
    <Option name="V" modified="Yes">False</Option>
    <Option name="VerbosityLevel" modified="No">Default</Option>
    <Option name="VarTransform" modified="No">None</Option>
    <Option name="H" modified="Yes">False</Option>
    <Option name="CreateMVAPdfs" modified="Yes">True</Option>
    <Option name="IgnoreNegWeightsInTraining" modified="No">False</Option>
    <Option name="NTrees" modified="Yes">500</Option>
    <Option name="RenormByClass" modified="No">False</Option>
    <Option name="BoostType" modified="Yes">Grad</Option>
    <Option name="AdaBoostR2Loss" modified="No">quadratic</Option>
    <Option name="UseBaggedGrad" modified="Yes">False</Option>
    <Option name="GradBaggingFraction" modified="No">6.000000e-01</Option>
    <Option name="Shrinkage" modified="Yes">1.000000e-01</Option>
    <Option name="AdaBoostBeta" modified="No">1.000000e+00</Option>
    <Option name="UseRandomisedTrees" modified="No">False</Option>
    <Option name="UseNvars" modified="Yes">9</Option>
    <Option name="UsePoissonNvars" modified="No">True</Option>
    <Option name="UseNTrainEvents" modified="No">16280</Option>
    <Option name="UseWeightedTrees" modified="No">True</Option>
    <Option name="UseYesNoLeaf" modified="No">True</Option>
    <Option name="NodePurityLimit" modified="No">5.000000e-01</Option>
    <Option name="SeparationType" modified="No">giniindex</Option>
    <Option name="nEventsMin" modified="Yes">100</Option>
    <Option name="nCuts" modified="Yes">2000</Option>
    <Option name="UseFisherCuts" modified="No">False</Option>
    <Option name="MinLinCorrForFisher" modified="No">8.000000e-01</Option>
    <Option name="UseExclusiveVars" modified="No">False</Option>
    <Option name="PruneStrength" modified="Yes">5.000000e+00</Option>
    <Option name="PruneMethod" modified="Yes">costcomplexity</Option>
    <Option name="PruneBeforeBoost" modified="No">False</Option>
    <Option name="PruningValFraction" modified="No">5.000000e-01</Option>
    <Option name="NNodesMax" modified="Yes">9</Option>
    <Option name="MaxDepth" modified="Yes">8</Option>
  </Options>
  <Variables NVar="9">
    <Variable VarIndex="0" Expression="relIso03-chargedHadRelIso03" Label="neuRelIso03" Title="neuRelIso03" Unit="" Internal="neuRelIso03" Type="D" Min="0" Max="0.399435"/>
    <Variable VarIndex="1" Expression="chargedHadRelIso03" Label="chRelIso03" Title="chRelIso03" Unit="" Internal="chRelIso03" Type="D" Min="0" Max="0.399917"/>
    <Variable VarIndex="2" Expression="min(jetDR,0.5)" Label="jetDR" Title="jetDR" Unit="" Internal="jetDR" Type="D" Min="0" Max="0.389076"/>
    <Variable VarIndex="3" Expression="min(jetPtRatio,1.5)" Label="jetPtRatio" Title="jetPtRatio" Unit="" Internal="jetPtRatio" Type="D" Min="0.0473216" Max="1.5"/>
    <Variable VarIndex="4" Expression="max(jetBTagCSV,0)" Label="jetBTagCSV" Title="jetBTagCSV" Unit="" Internal="jetBTagCSV" Type="D" Min="0" Max="1"/>
    <Variable VarIndex="5" Expression="sip3d" Label="sip3d" Title="sip3d" Unit="" Internal="sip3d" Type="D" Min="0.00419094" Max="587.909"/>
    <Variable VarIndex="6" Expression="log(abs(dxy))" Label="dxy" Title="dxy" Unit="" Internal="dxy" Type="D" Min="-15.5755" Max="-2.99644"/>
    <Variable VarIndex="7" Expression="log(abs(dz))" Label="dz" Title="dz" Unit="" Internal="dz" Type="D" Min="-14.3436" Max="-1.61489"/>
    <Variable VarIndex="8" Expression="mvaId" Label="mvaId" Title="mvaId" Unit="" Internal="mvaId" Type="D" Min="-0.649864" Max="0.999776"/>
  </Variables>
  <Spectators NSpec="0"/>
  <Transformations NTransformations="0"/>
  <MVAPdfs>
    <PDF Name="BDTG_PDFSig" MinNSmooth="0" MaxNSmooth="0" InterpolMethod="2" KDE_type="1" KDE_iter="1" KDE_border="1" KDE_finefactor="1.0000000000000000e+00">
      <Histogram Name="BDT_tr_S_original" NBins="325" XMin="-9.9916458129882812e-01" XMax="9.0247750282287598e-01" HasEquidistantBins="1">
        0 0.00010127 0.00209013 0.000132756 0.00596659 0.18608 0.00124732 0.00596659 0.00824081 0.00602351 0.0136972 0.114563 0.00606786 0.270552 0.223559 0.00596659 0.329313 0.0962861 0.0536363 0.0298838 0.0119332 0.00864797 0.00404469 0.0250976 0.195002 0.224343 0.0339053 0.0146146 0.251731 0.239094 0.00609935 0.00404469 0.274776 0.36016 0.0276625 0.0182783 0.0872498 0.0684353 0.00467024 0.0482652 0.101479 0.626289 0.118541 0.138633 0.154426 0.00633909 0.0338338 0.425106 0.252267 0.215018 0.0154149 0.127746 0.0119332 0.00198886 0.0107038 0.188049 0.15704 0.192098 0.302583 0.310877 0.0975824 0.00198886 0.0794978 0.329035 0.171312 0.48619 0.188867 0.0100922 0.355199 0.0855774 0.116552 0.0374312 0.015723 0.00963092 0.0077843 0.0820439 0.040834 0.0996143 0.0964434 0.182491 0.216369 0.18801 0.291412 0.205571 0.0975685 0.120625 0.143191 0.168939 0.325199 0.0180258 0.0119332 0.00795546 0.157999 0.116685 0.410354 0.200366 0.0277029 0.0591273 0.125632 0.198565 0.229472 0.207955 0.00596659 0.193085 0.325509 0.116009 0.355431 0.0185519 0.194205 0.13327 0.199811 0.473263 0.116465 0.281861 0.17955 0.00942791 0.165571 0.0761223 0.685155 0.0149937 0.210484 0.337572 0.24884 0.186969 0.389216 0.479825 0.229376 0.304661 0.216659 0.0158661 0.0211381 0.179821 0.0571996 0.33016 0.0104968 0.283707 0.170957 0.0100456 0.153582 0.24465 0.0725153 0.0122185 0.0159766 0.0648659 0.185959 0.397085 0.132234 0.00397773 0.196555 0.654056 0.206173 0.423323 0.662536 0.442792 0.237586 0.194328 0.00835944 0.0684353 0.0704242 0.190997 0.421046 0.501537 0.00450233 0.620101 0.500658 0.00611446 0.184663 0.0380827 0.391282 0.365921 0.234123 0.110601 0.0831798 0.36504 0.021219 0.00795546 0.563312 0.169901 0.249097 0.00922314 0.251788 0.761581 0.201407 0.465971 0.127619 0.369857 0.194661 0.313685 0.401682 0.545825 0.229575 0.20564 0.13826 0.0137414 0.409688 0.0267756 0.174868 0.27551 0.640344 0.18409 0.171698 0.445697 0.431915 0.0249859 0.0256831 0.234558 0.319934 0.345212 0.351569 0.430936 0.224847 0.23534 0.392975 0.844805 0.21036 0.117561 0.540887 0.323078 0.0702803 0.323373 0.64832 0.180323 0.224459 1.0878 0.376382 0.271779 0.206944 0.462843 0.3901 0.672623 0.946381 0.338307 0.548028 0.132052 0.675094 0.150426 0.320115 0.311978 0.480387 0.368705 0.259476 0.962267 0.336375 0.385187 0.200141 0.340445 0.31903 1.52676 0.627549 0.6019 0.167435 0.367643 0.293052 0.496275 0.725463 0.491708 0.374782 0.724368 1.18742 0.602502 1.10797 0.147375 0.527917 0.362942 0.341914 0.513531 0.640878 0.216399 0.289571 0.323281 0.79338 0.714629 0.456784 1.2582 0.457975 0.736023 0.704022 0.314488 1.37239 0.562986 1.05663 1.57262 1.1071 1.41613 1.23961 1.51241 0.879772 1.36027 1.73717 0.675578 1.04349 0.986581 1.71256 1.59461 2.0392 1.11819 1.4366 1.43194 2.13044 1.27342 0.628059 2.00704 0.78696 2.15614 1.51652 1.90523 2.22894 1.40731 1.69367 2.0047 1.07319 2.06672 1.93784 1.88802 2.11225 1.12441 4.6973 3.25974 4.14658 4.16425 6.882 7.12849 10.1437 3.59609 0.00795546 
      </Histogram>
    </PDF>
    <PDF Name="BDTG_PDFBkg" MinNSmooth="0" MaxNSmooth="0" InterpolMethod="2" KDE_type="1" KDE_iter="1" KDE_border="1" KDE_finefactor="1.0000000000000000e+00">
      <Histogram Name="BDT_tr_B_original" NBins="325" XMin="-9.9916458129882812e-01" XMax="9.0247750282287598e-01" HasEquidistantBins="1">
        7.89133 10.9809 10.2612 8.5498 6.3937 5.65603 5.7733 4.84441 4.993 4.66382 3.9562 3.64358 2.33172 3.11218 3.2229 2.72171 2.12543 2.52412 2.43657 2.1051 1.67892 1.33015 1.84234 2.08401 1.44543 1.96464 1.53782 1.45401 1.32734 1.19452 0.87177 1.1757 1.16773 1.16971 0.863092 0.906094 0.841976 0.788819 0.817114 0.712836 0.751919 0.924721 0.604408 0.966736 1.01755 0.785123 0.64981 0.825063 0.668416 0.646147 0.571406 0.651975 0.786165 0.272298 0.429661 0.438015 0.441909 0.56222 0.226964 0.370584 0.348824 0.262616 0.680361 0.837018 0.784017 0.220393 0.320597 0.407174 0.449692 0.335178 0.353767 0.448758 0.541428 0.38335 0.486657 0.435154 0.247792 0.425006 0.387704 0.330783 0.377832 0.401992 0.348175 0.301504 0.0854755 0.371325 0.492547 0.213495 0.471479 0.167445 0.124518 0.119407 0.364106 0.394936 0.158593 0.217675 0.426716 0.276346 0.176548 0.215082 0.229681 0.3287 0.262969 0.200855 0.200341 0.304614 0.300224 0.251487 0.127751 0.357292 0.202948 0.183189 0.387802 0.24289 0.206651 0.240891 0.233869 0.0359393 0.248402 0.233757 0.274411 0.182748 0.051874 0.158043 0.084923 0.0933834 0.160111 0.227091 0.318555 0.310412 0.0358923 0.338205 0.0282326 0.0187934 0.162191 0.0370276 0.165178 0.161552 0.0949524 0.0828244 0.085166 0.129898 0.196932 0.255688 0.0134439 0.0492334 0.0726682 0.0595233 0.0289325 0.205417 0.222108 0.0984835 0.101266 0.0873294 0.0295859 0.0598377 0.225052 0.0925124 0.0935827 0.112944 0.136896 0.0923644 0.121693 0.022053 0.124627 0.0121878 0.103534 0.0800882 0.00781114 0.062461 0.13831 0.170985 0.202435 0.182092 0.0164547 0.114125 0.00365635 0.105532 0.122024 0.00433952 0.401623 0.00263294 0.169325 0.230919 0.195004 0.135308 0.053465 0.0623414 0.00420276 0.0823143 0.00173581 0.120596 0.00507066 0.169298 0.0160857 0.00748848 0.0212231 0.0456969 0.161394 0.00176065 0.0233493 0.0982511 0.0041368 0.0118678 0.00529213 0.160529 0.159058 0.297949 0.144798 0.0612705 0.0431552 0.22558 0.00347162 0.00575267 0.00173581 0.0612692 0.0525972 0.000948235 0.0173178 0.0812118 0.0920858 0.0181489 0.0783524 0.00268404 0.0828244 0.0787551 0.000867905 0.0670525 0.052921 0.0828792 0.0923597 0.00181614 0.138205 0.161067 0.00177111 0.0295541 0.0680088 0 0.00352955 0.000948235 0.139266 0.00176503 0.0923902 0 0.224256 0.139072 0.0710788 0.0691838 0.00347162 0.137944 0.00246695 0.0158546 0.0808885 0.00333485 0.0049449 0.00350084 0 0.0700075 0.0072268 0.0719219 0.144886 0.050352 0.000867905 0.00194538 0.111881 0.122221 0.00278845 2.92206e-05 0.0254609 0.0758066 0.0281281 0.000867905 0.0192707 0.0822871 0.170614 0.0697517 0.160052 0.00805051 0 0.0746499 0.00475596 0.0345624 0.0811784 0.0862876 0.152209 0.0236705 0.0141558 0.000153663 0.0757487 0.112616 5.79323e-05 0.0718614 0.00333485 0.104938 0.00404608 0.0811765 0.0336944 0.000867905 0.129855 0.0820121 0.0517292 0 0 0.0895872 0.0726714 0.0811442 0.0409968 0 0.0926469 0.0201241 0.00173581 0.000867905 0.105801 0.066401 0 0.00260371 0.0328265 0.0796254 0.00401686 0.0744613 0.138342 0.00173581 0.00680647 0 0.000867905 
      </Histogram>
    </PDF>
  </MVAPdfs>
  <Weights NTrees="500" AnalysisType="1">
    <BinaryTree type="DecisionTree" boostWeight="1.0000000000000000e+00" itree="0">
      <Node pos="s" depth="0" NCoef="0" IVar="3" Cut="7.9289913177490234e-01" cType="0" res="-1.8202419579029083e-01" rms="4.6569001674652100e-01" purity="3.1797578930854797e-01" nType="0">
        <Node pos="l" depth="1" NCoef="0" IVar="-1" Cut="0.0000000000000000e+00" cType="1" res="1.0334250517189503e-02" rms="4.5000955462455750e-01" purity="7.1792519092559814e-01" nType="1"/>
        <Node pos="r" depth="1" NCoef="0" IVar="1" Cut="3.7173729389905930e-02" cType="1" res="-3.6145061254501343e-01" rms="3.4547567367553711e-01" purity="1.3854937255382538e-01" nType="0">
          <Node pos="l" depth="2" NCoef="0" IVar="-1" Cut="0.0000000000000000e+00" cType="1" res="-9.2195244506001472e-03" rms="4.6212616562843323e-01" purity="3.0910891294479370e-01" nType="-1"/>
          <Node pos="r" depth="2" NCoef="0" IVar="6" Cut="-5.6712713241577148e+00" cType="1" res="-4.2864766716957092e-01" rms="2.5741249322891235e-01" purity="7.1352332830429077e-02" nType="0">
            <Node pos="l" depth="3" NCoef="0" IVar="-1" Cut="0.0000000000000000e+00" cType="1" res="-1.7396563664078712e-02" rms="3.5071650147438049e-01" purity="1.4363230764865875e-01" nType="-1"/>
            <Node pos="r" depth="3" NCoef="0" IVar="2" Cut="1.8876673281192780e-01" cType="0" res="-4.7104203701019287e-01" rms="1.6768841445446014e-01" purity="2.8957966715097427e-02" nType="0">
              <Node pos="l" depth="4" NCoef="0" IVar="-1" Cut="0.0000000000000000e+00" cType="1" res="-9.7412532195448875e-03" rms="4.4972082972526550e-01" purity="2.8147959709167480e-01" nType="-1"/>
              <Node pos="r" depth="4" NCoef="0" IVar="-1" Cut="0.0000000000000000e+00" cType="1" res="-2.3425118997693062e-02" rms="1.5272396802902222e-01" purity="2.3895611986517906e-02" nType="-1"/>
            </Node>
          </Node>
        </Node>
      </Node>
    </BinaryTree>
    <BinaryTree type="DecisionTree" boostWeight="1.0000000000000000e+00" itree="1">
      <Node pos="s" depth="0" NCoef="0" IVar="3" Cut="7.9289913177490234e-01" cType="0" res="-1.7751945555210114e-01" rms="4.6146979928016663e-01" purity="3.1797578930854797e-01" nType="0">
        <Node pos="l" depth="1" NCoef="0" IVar="-1" Cut="0.0000000000000000e+00" cType="1" res="1.0090305469930172e-02" rms="4.5000955462455750e-01" purity="7.1792519092559814e-01" nType="1"/>
        <Node pos="r" depth="1" NCoef="0" IVar="1" Cut="3.7173729389905930e-02" cType="1" res="-3.5260695219039917e-01" rms="3.4445932507514954e-01" purity="1.3854937255382538e-01" nType="0">
          <Node pos="l" depth="2" NCoef="0" IVar="-1" Cut="0.0000000000000000e+00" cType="1" res="-8.9976554736495018e-03" rms="4.6212616562843323e-01" purity="3.0910891294479370e-01" nType="-1"/>
          <Node pos="r" depth="2" NCoef="0" IVar="6" Cut="-5.6712713241577148e+00" cType="1" res="-4.1813588142395020e-01" rms="2.5703510642051697e-01" purity="7.1352332830429077e-02" nType="0">
            <Node pos="l" depth="3" NCoef="0" IVar="-1" Cut="0.0000000000000000e+00" cType="1" res="-1.6977125778794289e-02" rms="3.5071650147438049e-01" purity="1.4363230764865875e-01" nType="-1"/>
            <Node pos="r" depth="3" NCoef="0" IVar="2" Cut="1.8876673281192780e-01" cType="0" res="-4.5946604013442993e-01" rms="1.6748854517936707e-01" purity="2.8957966715097427e-02" nType="0">
              <Node pos="l" depth="4" NCoef="0" IVar="-1" Cut="0.0000000000000000e+00" cType="1" res="-9.5250401645898819e-03" rms="4.4972082972526550e-01" purity="2.8147959709167480e-01" nType="-1"/>
              <Node pos="r" depth="4" NCoef="0" IVar="-1" Cut="0.0000000000000000e+00" cType="1" res="-2.2861488163471222e-02" rms="1.5272396802902222e-01" purity="2.3895611986517906e-02" nType="-1"/>
            </Node>
          </Node>
        </Node>
      </Node>
    </BinaryTree>
    <BinaryTree type="DecisionTree" boostWeight="1.0000000000000000e+00" itree="2">
      <Node pos="s" depth="0" NCoef="0" IVar="3" Cut="7.9289913177490234e-01" cType="0" res="-1.7312836647033691e-01" rms="4.5741727948188782e-01" purity="3.1797578930854797e-01" nType="0">
        <Node pos="l" depth="1" NCoef="0" IVar="-1" Cut="0.0000000000000000e+00" cType="1" res="9.8541490733623505e-03" rms="4.5000955462455750e-01" purity="7.1792519092559814e-01" nType="1"/>
        <Node pos="r" depth="1" NCoef="0" IVar="1" Cut="3.7173729389905930e-02" cType="1" res="-3.4398311376571655e-01" rms="3.4349098801612854e-01" purity="1.3854937255382538e-01" nType="0">
          <Node pos="l" depth="2" NCoef="0" IVar="-1" Cut="0.0000000000000000e+00" cType="1" res="-8.7825665250420570e-03" rms="4.6212616562843323e-01" purity="3.0910891294479370e-01" nType="-1"/>
          <Node pos="r" depth="2" NCoef="0" IVar="5" Cut="2.2577638626098633e+00" cType="1" res="-4.0788650512695312e-01" rms="2.5667655467987061e-01" purity="7.1352332830429077e-02" nType="0">
            <Node pos="l" depth="3" NCoef="0" IVar="-1" Cut="0.0000000000000000e+00" cType="1" res="-1.7261005938053131e-02" rms="3.3191889524459839e-01" purity="1.2658765912055969e-01" nType="-1"/>
            <Node pos="r" depth="3" NCoef="0" IVar="3" Cut="7.2471147775650024e-01" cType="0" res="-4.5997247099876404e-01" rms="1.3242578506469727e-01" purity="1.7937161028385162e-02" nType="0">
              <Node pos="l" depth="4" NCoef="0" IVar="-1" Cut="0.0000000000000000e+00" cType="1" res="-2.0187914371490479e-02" rms="2.4880407750606537e-01" purity="6.6413305699825287e-02" nType="-1"/>
              <Node pos="r" depth="4" NCoef="0" IVar="-1" Cut="0.0000000000000000e+00" cType="1" res="-2.3065425455570221e-02" rms="1.0599696636199951e-01" purity="1.1443685740232468e-02" nType="-1"/>
            </Node>
          </Node>
        </Node>
      </Node>
    </BinaryTree>
    <BinaryTree type="DecisionTree" boostWeight="1.0000000000000000e+00" itree="3">
      <Node pos="s" depth="0" NCoef="0" IVar="3" Cut="8.2266420125961304e-01" cType="0" res="-1.6884905099868774e-01" rms="4.5354089140892029e-01" purity="3.1797578930854797e-01" nType="0">
        <Node pos="l" depth="1" NCoef="0" IVar="-1" Cut="0.0000000000000000e+00" cType="1" res="1.1608299799263477e-02" rms="4.2638418078422546e-01" purity="7.6114469766616821e-01" nType="1"/>
        <Node pos="r" depth="1" NCoef="0" IVar="1" Cut="3.7173729389905930e-02" cType="1" res="-3.1858512759208679e-01" rms="3.6025527119636536e-01" purity="1.5802177786827087e-01" nType="0">
          <Node pos="l" depth="2" NCoef="0" IVar="-1" Cut="0.0000000000000000e+00" cType="1" res="-7.2467606514692307e-03" rms="4.7209915518760681e-01" purity="3.3982565999031067e-01" nType="-1"/>
          <Node pos="r" depth="2" NCoef="0" IVar="8" Cut="9.6322447061538696e-01" cType="0" res="-3.9114919304847717e-01" rms="2.6871263980865479e-01" purity="7.9744651913642883e-02" nType="0">
            <Node pos="l" depth="3" NCoef="0" IVar="-1" Cut="0.0000000000000000e+00" cType="1" res="-1.3197096064686775e-02" rms="3.9312300086021423e-01" purity="1.9685181975364685e-01" nType="-1"/>
            <Node pos="r" depth="3" NCoef="0" IVar="2" Cut="1.9656528532505035e-01" cType="0" res="-4.2452818155288696e-01" rms="2.0859691500663757e-01" purity="4.6022281050682068e-02" nType="0">
              <Node pos="l" depth="4" NCoef="0" IVar="-1" Cut="0.0000000000000000e+00" cType="1" res="-8.6118895560503006e-03" rms="4.5428347587585449e-01" purity="2.9066607356071472e-01" nType="-1"/>
              <Node pos="r" depth="4" NCoef="0" IVar="-1" Cut="0.0000000000000000e+00" cType="1" res="-2.1317273378372192e-02" rms="1.9867058098316193e-01" purity="4.1532434523105621e-02" nType="-1"/>
            </Node>
          </Node>
        </Node>
      </Node>
    </BinaryTree>
    <BinaryTree type="DecisionTree" boostWeight="1.0000000000000000e+00" itree="4">
      <Node pos="s" depth="0" NCoef="0" IVar="3" Cut="7.9289913177490234e-01" cType="0" res="-1.6464816033840179e-01" rms="4.4964060187339783e-01" purity="3.1797578930854797e-01" nType="0">
        <Node pos="l" depth="1" NCoef="0" IVar="-1" Cut="0.0000000000000000e+00" cType="1" res="9.4364229589700699e-03" rms="4.4888103008270264e-01" purity="7.1792519092559814e-01" nType="1"/>
        <Node pos="r" depth="1" NCoef="0" IVar="1" Cut="3.7173729389905930e-02" cType="1" res="-3.2764601707458496e-01" rms="3.4160307049751282e-01" purity="1.3854937255382538e-01" nType="0">
          <Node pos="l" depth="2" NCoef="0" IVar="-1" Cut="0.0000000000000000e+00" cType="1" res="-8.4026874974370003e-03" rms="4.6212613582611084e-01" purity="3.0910891294479370e-01" nType="-1"/>
          <Node pos="r" depth="2" NCoef="0" IVar="6" Cut="-5.6712713241577148e+00" cType="1" res="-3.8826829195022583e-01" rms="2.5597956776618958e-01" purity="7.1352332830429077e-02" nType="0">
            <Node pos="l" depth="3" NCoef="0" IVar="-1" Cut="0.0000000000000000e+00" cType="1" res="-1.5727130696177483e-02" rms="3.4990438818931580e-01" purity="1.4363230764865875e-01" nType="-1"/>
            <Node pos="r" depth="3" NCoef="0" IVar="2" Cut="1.8876673281192780e-01" cType="0" res="-4.2800989747047424e-01" rms="1.6695916652679443e-01" purity="2.8957966715097427e-02" nType="0">
              <Node pos="l" depth="4" NCoef="0" IVar="-1" Cut="0.0000000000000000e+00" cType="1" res="-8.6568696424365044e-03" rms="4.4941598176956177e-01" purity="2.8147959709167480e-01" nType="-1"/>
              <Node pos="r" depth="4" NCoef="0" IVar="-1" Cut="0.0000000000000000e+00" cType="1" res="-2.1451717242598534e-02" rms="1.5252086520195007e-01" purity="2.3895611986517906e-02" nType="-1"/>
            </Node>
          </Node>
        </Node>
      </Node>
    </BinaryTree>
    <BinaryTree type="DecisionTree" boostWeight="1.0000000000000000e+00" itree="5">
      <Node pos="s" depth="0" NCoef="0" IVar="3" Cut="8.2266420125961304e-01" cType="0" res="-1.6058030724525452e-01" rms="4.4604021310806274e-01" purity="3.1797578930854797e-01" nType="0">
        <Node pos="l" depth="1" NCoef="0" IVar="-1" Cut="0.0000000000000000e+00" cType="1" res="1.1131721548736095e-02" rms="4.2638415098190308e-01" purity="7.6114469766616821e-01" nType="1"/>
        <Node pos="r" depth="1" NCoef="0" IVar="8" Cut="9.6102845668792725e-01" cType="0" res="-3.0354052782058716e-01" rms="3.5788151621818542e-01" purity="1.5802177786827087e-01" nType="0">
          <Node pos="l" depth="2" NCoef="0" IVar="-1" Cut="0.0000000000000000e+00" cType="1" res="-5.7124416343867779e-03" rms="4.6632081270217896e-01" purity="3.4697899222373962e-01" nType="-1"/>
          <Node pos="r" depth="2" NCoef="0" IVar="1" Cut="3.6973867565393448e-02" cType="1" res="-3.6608067154884338e-01" rms="2.8686666488647461e-01" purity="9.3831241130828857e-02" nType="0">
            <Node pos="l" depth="3" NCoef="0" IVar="-1" Cut="0.0000000000000000e+00" cType="1" res="-1.2991386465728283e-02" rms="4.1055271029472351e-01" purity="2.1677199006080627e-01" nType="-1"/>
            <Node pos="r" depth="3" NCoef="0" IVar="2" Cut="1.1641863733530045e-01" cType="0" res="-4.0532660484313965e-01" rms="2.0739828050136566e-01" purity="4.5647073537111282e-02" nType="0">
              <Node pos="l" depth="4" NCoef="0" IVar="-1" Cut="0.0000000000000000e+00" cType="1" res="-1.5315475873649120e-02" rms="3.6214685440063477e-01" purity="1.5771351754665375e-01" nType="-1"/>
              <Node pos="r" depth="4" NCoef="0" IVar="-1" Cut="0.0000000000000000e+00" cType="1" res="-2.0647993311285973e-02" rms="1.8628931045532227e-01" purity="3.6424871534109116e-02" nType="-1"/>
            </Node>
          </Node>
        </Node>
      </Node>
    </BinaryTree>
    <BinaryTree type="DecisionTree" boostWeight="1.0000000000000000e+00" itree="6">
      <Node pos="s" depth="0" NCoef="0" IVar="3" Cut="8.2266420125961304e-01" cType="0" res="-1.5658287703990936e-01" rms="4.4239687919616699e-01" purity="3.1797578930854797e-01" nType="0">
        <Node pos="l" depth="1" NCoef="0" IVar="-1" Cut="0.0000000000000000e+00" cType="1" res="1.0883250273764133e-02" rms="4.2638418078422546e-01" purity="7.6114469766616821e-01" nType="1"/>
        <Node pos="r" depth="1" NCoef="0" IVar="8" Cut="9.6267724037170410e-01" cType="0" res="-2.9609787464141846e-01" rms="3.5685220360755920e-01" purity="1.5802177786827087e-01" nType="0">
          <Node pos="l" depth="2" NCoef="0" IVar="-1" Cut="0.0000000000000000e+00" cType="1" res="-5.4100537672638893e-03" rms="4.6759751439094543e-01" purity="3.5094857215881348e-01" nType="-1"/>
          <Node pos="r" depth="2" NCoef="0" IVar="1" Cut="3.6973867565393448e-02" cType="1" res="-3.5590285062789917e-01" rms="2.8809207677841187e-01" purity="9.5015853643417358e-02" nType="0">
            <Node pos="l" depth="3" NCoef="0" IVar="-1" Cut="0.0000000000000000e+00" cType="1" res="-1.2504695914685726e-02" rms="4.1296294331550598e-01" purity="2.2028045356273651e-01" nType="-1"/>
            <Node pos="r" depth="3" NCoef="0" IVar="2" Cut="1.9656528532505035e-01" cType="0" res="-3.9496046304702759e-01" rms="2.0822711288928986e-01" purity="4.6065133064985275e-02" nType="0">
              <Node pos="l" depth="4" NCoef="0" IVar="-1" Cut="0.0000000000000000e+00" cType="1" res="-7.8358259052038193e-03" rms="4.5455420017242432e-01" purity="2.9066607356071472e-01" nType="-1"/>
              <Node pos="r" depth="4" NCoef="0" IVar="-1" Cut="0.0000000000000000e+00" cType="1" res="-2.0055243745446205e-02" rms="1.9851098954677582e-01" purity="4.1569933295249939e-02" nType="-1"/>
            </Node>
          </Node>
        </Node>
      </Node>
    </BinaryTree>
    <BinaryTree type="DecisionTree" boostWeight="1.0000000000000000e+00" itree="7">
      <Node pos="s" depth="0" NCoef="0" IVar="3" Cut="7.9289913177490234e-01" cType="0" res="-1.5268124639987946e-01" rms="4.3888887763023376e-01" purity="3.1797578930854797e-01" nType="0">
        <Node pos="l" depth="1" NCoef="0" IVar="-1" Cut="0.0000000000000000e+00" cType="1" res="8.8777700439095497e-03" rms="4.4661793112754822e-01" purity="7.1792519092559814e-01" nType="1"/>
        <Node pos="r" depth="1" NCoef="0" IVar="5" Cut="2.3675975799560547e+00" cType="1" res="-3.0477389693260193e-01" rms="3.3890733122825623e-01" purity="1.3854937255382538e-01" nType="0">
          <Node pos="l" depth="2" NCoef="0" IVar="-1" Cut="0.0000000000000000e+00" cType="1" res="-1.0557836852967739e-02" rms="4.1408786177635193e-01" purity="2.3160758614540100e-01" nType="-1"/>
          <Node pos="r" depth="2" NCoef="0" IVar="4" Cut="5.6621688604354858e-01" cType="1" res="-4.0456172823905945e-01" rms="1.8175168335437775e-01" purity="3.5142891108989716e-02" nType="0">
            <Node pos="l" depth="3" NCoef="0" IVar="-1" Cut="0.0000000000000000e+00" cType="1" res="-1.8569847568869591e-02" rms="2.4696056544780731e-01" purity="6.7507922649383545e-02" nType="-1"/>
            <Node pos="r" depth="3" NCoef="0" IVar="1" Cut="3.6322385072708130e-02" cType="1" res="-4.2926913499832153e-01" rms="9.4071194529533386e-02" purity="8.7165562435984612e-03" nType="0">
              <Node pos="l" depth="4" NCoef="0" IVar="-1" Cut="0.0000000000000000e+00" cType="1" res="-2.2480811923742294e-02" rms="1.0341601818799973e-01" purity="1.0919067077338696e-02" nType="-1"/>
              <Node pos="r" depth="4" NCoef="0" IVar="-1" Cut="0.0000000000000000e+00" cType="1" res="-2.1284341812133789e-02" rms="9.0177536010742188e-02" purity="8.1486441195011139e-03" nType="-1"/>
            </Node>
          </Node>
        </Node>
      </Node>
    </BinaryTree>
    <BinaryTree type="DecisionTree" boostWeight="1.0000000000000000e+00" itree="8">
      <Node pos="s" depth="0" NCoef="0" IVar="3" Cut="8.2266420125961304e-01" cType="0" res="-1.4891523122787476e-01" rms="4.3572187423706055e-01" purity="3.1797578930854797e-01" nType="0">
        <Node pos="l" depth="1" NCoef="0" IVar="-1" Cut="0.0000000000000000e+00" cType="1" res="1.0447860695421696e-02" rms="4.2638415098190308e-01" purity="7.6114469766616821e-01" nType="1"/>
        <Node pos="r" depth="1" NCoef="0" IVar="1" Cut="3.7173729389905930e-02" cType="1" res="-2.8211525082588196e-01" rms="3.5476773977279663e-01" purity="1.5802177786827087e-01" nType="0">
          <Node pos="l" depth="2" NCoef="0" IVar="-1" Cut="0.0000000000000000e+00" cType="1" res="-6.1523867771029472e-03" rms="4.6890428662300110e-01" purity="3.3982565999031067e-01" nType="-1"/>
          <Node pos="r" depth="2" NCoef="0" IVar="5" Cut="2.2835173606872559e+00" cType="1" res="-3.4899613261222839e-01" rms="2.6555770635604858e-01" purity="7.9744651913642883e-02" nType="0">
            <Node pos="l" depth="3" NCoef="0" IVar="-1" Cut="0.0000000000000000e+00" cType="1" res="-1.4582742936909199e-02" rms="3.4223189949989319e-01" purity="1.4135500788688660e-01" nType="-1"/>
            <Node pos="r" depth="3" NCoef="0" IVar="3" Cut="7.9355633258819580e-01" cType="1" res="-4.0408524870872498e-01" rms="1.3565069437026978e-01" purity="1.8915075808763504e-02" nType="0">
              <Node pos="l" depth="4" NCoef="0" IVar="-1" Cut="0.0000000000000000e+00" cType="1" res="-2.0291525870561600e-02" rms="1.3618201017379761e-01" purity="1.9310133531689644e-02" nType="-1"/>
              <Node pos="r" depth="4" NCoef="0" IVar="-1" Cut="0.0000000000000000e+00" cType="1" res="-2.4707080796360970e-02" rms="7.6338231563568115e-02" purity="5.9630689211189747e-03" nType="-1"/>
            </Node>
          </Node>
        </Node>
      </Node>
    </BinaryTree>
    <BinaryTree type="DecisionTree" boostWeight="1.0000000000000000e+00" itree="9">
      <Node pos="s" depth="0" NCoef="0" IVar="3" Cut="7.9289913177490234e-01" cType="0" res="-1.4522491395473480e-01" rms="4.3251329660415649e-01" purity="3.1797578930854797e-01" nType="0">
        <Node pos="l" depth="1" NCoef="0" IVar="-1" Cut="0.0000000000000000e+00" cType="1" res="8.5186231881380081e-03" rms="4.4563403725624084e-01" purity="7.1792519092559814e-01" nType="1"/>
        <Node pos="r" depth="1" NCoef="0" IVar="5" Cut="2.3675975799560547e+00" cType="1" res="-2.9036796092987061e-01" rms="3.3745232224464417e-01" purity="1.3854937255382538e-01" nType="0">
          <Node pos="l" depth="2" NCoef="0" IVar="-1" Cut="0.0000000000000000e+00" cType="1" res="-1.0066702961921692e-02" rms="4.1342014074325562e-01" purity="2.3160758614540100e-01" nType="-1"/>
          <Node pos="r" depth="2" NCoef="0" IVar="4" Cut="5.6621688604354858e-01" cType="1" res="-3.8651961088180542e-01" rms="1.8144866824150085e-01" purity="3.5142891108989716e-02" nType="0">
            <Node pos="l" depth="3" NCoef="0" IVar="-1" Cut="0.0000000000000000e+00" cType="1" res="-1.7903311178088188e-02" rms="2.4657449126243591e-01" purity="6.7507922649383545e-02" nType="-1"/>
            <Node pos="r" depth="3" NCoef="0" IVar="1" Cut="3.6322385072708130e-02" cType="1" res="-4.1028070449829102e-01" rms="9.4377361238002777e-02" purity="8.7165562435984612e-03" nType="0">
              <Node pos="l" depth="4" NCoef="0" IVar="-1" Cut="0.0000000000000000e+00" cType="1" res="-2.1879356354475021e-02" rms="1.0341802239418030e-01" purity="1.0919067077338696e-02" nType="-1"/>
              <Node pos="r" depth="4" NCoef="0" IVar="-1" Cut="0.0000000000000000e+00" cType="1" res="-2.0535137504339218e-02" rms="9.0070940554141998e-02" purity="8.1486441195011139e-03" nType="-1"/>
            </Node>
          </Node>
        </Node>
      </Node>
    </BinaryTree>
    <BinaryTree type="DecisionTree" boostWeight="1.0000000000000000e+00" itree="10">
      <Node pos="s" depth="0" NCoef="0" IVar="3" Cut="8.2266420125961304e-01" cType="0" res="-1.4164470136165619e-01" rms="4.2958381772041321e-01" purity="3.1797578930854797e-01" nType="0">
        <Node pos="l" depth="1" NCoef="0" IVar="-1" Cut="0.0000000000000000e+00" cType="1" res="1.0036290623247623e-02" rms="4.2638418078422546e-01" purity="7.6114469766616821e-01" nType="1"/>
        <Node pos="r" depth="1" NCoef="0" IVar="8" Cut="9.2805212736129761e-01" cType="0" res="-2.6882648468017578e-01" rms="3.5290303826332092e-01" purity="1.5802177786827087e-01" nType="0">
          <Node pos="l" depth="2" NCoef="0" IVar="-1" Cut="0.0000000000000000e+00" cType="1" res="-6.2943547964096069e-03" rms="4.4658917188644409e-01" purity="3.0787524580955505e-01" nType="-1"/>
          <Node pos="r" depth="2" NCoef="0" IVar="1" Cut="2.8779661282896996e-02" cType="1" res="-3.4252813458442688e-01" rms="2.6339071989059448e-01" purity="7.9174533486366272e-02" nType="0">
            <Node pos="l" depth="3" NCoef="0" IVar="-1" Cut="0.0000000000000000e+00" cType="1" res="-1.3175079599022865e-02" rms="3.8755095005035400e-01" purity="1.8842616677284241e-01" nType="-1"/>
            <Node pos="r" depth="3" NCoef="0" IVar="2" Cut="1.9656528532505035e-01" cType="0" res="-3.6763292551040649e-01" rms="2.0061133801937103e-01" purity="4.3239876627922058e-02" nType="0">
              <Node pos="l" depth="4" NCoef="0" IVar="-1" Cut="0.0000000000000000e+00" cType="1" res="-6.6156359389424324e-03" rms="4.5244759321212769e-01" purity="2.9290294647216797e-01" nType="-1"/>
              <Node pos="r" depth="4" NCoef="0" IVar="-1" Cut="0.0000000000000000e+00" cType="1" res="-1.9049128517508507e-02" rms="1.8952588737010956e-01" purity="3.8240671157836914e-02" nType="-1"/>
            </Node>
          </Node>
        </Node>
      </Node>
    </BinaryTree>
    <BinaryTree type="DecisionTree" boostWeight="1.0000000000000000e+00" itree="11">
      <Node pos="s" depth="0" NCoef="0" IVar="3" Cut="7.9289913177490234e-01" cType="0" res="-1.3812251389026642e-01" rms="4.2658808827400208e-01" purity="3.1797578930854797e-01" nType="0">
        <Node pos="l" depth="1" NCoef="0" IVar="-1" Cut="0.0000000000000000e+00" cType="1" res="8.1818653270602226e-03" rms="4.4465932250022888e-01" purity="7.1792519092559814e-01" nType="1"/>
        <Node pos="r" depth="1" NCoef="0" IVar="5" Cut="2.3675975799560547e+00" cType="1" res="-2.7666604518890381e-01" rms="3.3605772256851196e-01" purity="1.3854937255382538e-01" nType="0">
          <Node pos="l" depth="2" NCoef="0" IVar="-1" Cut="0.0000000000000000e+00" cType="1" res="-9.5651792362332344e-03" rms="4.1231554746627808e-01" purity="2.3160758614540100e-01" nType="-1"/>
          <Node pos="r" depth="2" NCoef="0" IVar="4" Cut="7.5612187385559082e-01" cType="1" res="-3.7033832073211670e-01" rms="1.8124116957187653e-01" purity="3.5142891108989716e-02" nType="0">
            <Node pos="l" depth="3" NCoef="0" IVar="-1" Cut="0.0000000000000000e+00" cType="1" res="-1.7696283757686615e-02" rms="2.3433068394660950e-01" purity="6.0267999768257141e-02" nType="-1"/>
            <Node pos="r" depth="3" NCoef="0" IVar="1" Cut="3.7120681256055832e-02" cType="1" res="-4.0060049295425415e-01" rms="2.8045684099197388e-02" purity="4.2820209637284279e-04" nType="0">
              <Node pos="l" depth="4" NCoef="0" IVar="-1" Cut="0.0000000000000000e+00" cType="1" res="-2.1634565666317940e-02" rms="3.8764335215091705e-02" purity="1.5081526944413781e-03" nType="-1"/>
              <Node pos="r" depth="4" NCoef="0" IVar="-1" Cut="0.0000000000000000e+00" cType="1" res="-2.0344318822026253e-02" rms="1.7283191904425621e-02" purity="1.8533351249061525e-04" nType="-1"/>
            </Node>
          </Node>
        </Node>
      </Node>
    </BinaryTree>
    <BinaryTree type="DecisionTree" boostWeight="1.0000000000000000e+00" itree="12">
      <Node pos="s" depth="0" NCoef="0" IVar="3" Cut="8.2266420125961304e-01" cType="0" res="-1.3471922278404236e-01" rms="4.2387413978576660e-01" purity="3.1797578930854797e-01" nType="0">
        <Node pos="l" depth="1" NCoef="0" IVar="-1" Cut="0.0000000000000000e+00" cType="1" res="9.6462247893214226e-03" rms="4.2638418078422546e-01" purity="7.6114469766616821e-01" nType="1"/>
        <Node pos="r" depth="1" NCoef="0" IVar="8" Cut="9.6515047550201416e-01" cType="0" res="-2.5615334510803223e-01" rms="3.5113638639450073e-01" purity="1.5802177786827087e-01" nType="0">
          <Node pos="l" depth="2" NCoef="0" IVar="-1" Cut="0.0000000000000000e+00" cType="1" res="-3.7889438681304455e-03" rms="4.6218472719192505e-01" purity="3.5557460784912109e-01" nType="-1"/>
          <Node pos="r" depth="2" NCoef="0" IVar="1" Cut="3.6973867565393448e-02" cType="1" res="-3.1147974729537964e-01" rms="2.8693717718124390e-01" purity="9.6679098904132843e-02" nType="0">
            <Node pos="l" depth="3" NCoef="0" IVar="-1" Cut="0.0000000000000000e+00" cType="1" res="-1.0897057130932808e-02" rms="4.1097635030746460e-01" purity="2.2258694469928741e-01" nType="-1"/>
            <Node pos="r" depth="3" NCoef="0" IVar="2" Cut="1.1481213569641113e-01" cType="0" res="-3.4715193510055542e-01" rms="2.0964467525482178e-01" purity="4.7438301146030426e-02" nType="0">
              <Node pos="l" depth="4" NCoef="0" IVar="-1" Cut="0.0000000000000000e+00" cType="1" res="-1.3047274202108383e-02" rms="3.5679790377616882e-01" purity="1.5599565207958221e-01" nType="-1"/>
              <Node pos="r" depth="4" NCoef="0" IVar="-1" Cut="0.0000000000000000e+00" cType="1" res="-1.8390918150544167e-02" rms="1.8971650302410126e-01" purity="3.8306396454572678e-02" nType="-1"/>
            </Node>
          </Node>
        </Node>
      </Node>
    </BinaryTree>
    <BinaryTree type="DecisionTree" boostWeight="1.0000000000000000e+00" itree="13">
      <Node pos="s" depth="0" NCoef="0" IVar="3" Cut="7.7837961912155151e-01" cType="0" res="-1.3136991858482361e-01" rms="4.2103487253189087e-01" purity="3.1797578930854797e-01" nType="0">
        <Node pos="l" depth="1" NCoef="0" IVar="-1" Cut="0.0000000000000000e+00" cType="1" res="7.0936656557023525e-03" rms="4.4917976856231689e-01" purity="6.9179552793502808e-01" nType="1"/>
        <Node pos="r" depth="1" NCoef="0" IVar="5" Cut="2.3675975799560547e+00" cType="1" res="-2.7169197797775269e-01" rms="3.2578301429748535e-01" purity="1.2980630993843079e-01" nType="0">
          <Node pos="l" depth="2" NCoef="0" IVar="-1" Cut="0.0000000000000000e+00" cType="1" res="-9.7091486677527428e-03" rms="4.0352615714073181e-01" purity="2.1924053132534027e-01" nType="-1"/>
          <Node pos="r" depth="2" NCoef="0" IVar="2" Cut="1.3325862586498260e-01" cType="0" res="-3.5682919621467590e-01" rms="1.7524018883705139e-01" purity="3.2808400690555573e-02" nType="0">
            <Node pos="l" depth="3" NCoef="0" IVar="-1" Cut="0.0000000000000000e+00" cType="1" res="-1.2798007577657700e-02" rms="3.5284385085105896e-01" purity="1.5622457861900330e-01" nType="-1"/>
            <Node pos="r" depth="3" NCoef="0" IVar="4" Cut="7.2963511943817139e-01" cType="1" res="-3.6291775107383728e-01" rms="1.5746037662029266e-01" purity="2.5951225310564041e-02" nType="0">
              <Node pos="l" depth="4" NCoef="0" IVar="-1" Cut="0.0000000000000000e+00" cType="1" res="-1.7781406641006470e-02" rms="2.0705643296241760e-01" purity="4.5883633196353912e-02" nType="-1"/>
              <Node pos="r" depth="4" NCoef="0" IVar="-1" Cut="0.0000000000000000e+00" cType="1" res="-2.0111942663788795e-02" rms="2.4085795506834984e-02" purity="1.2884134775958955e-04" nType="-1"/>
            </Node>
          </Node>
        </Node>
      </Node>
    </BinaryTree>
    <BinaryTree type="DecisionTree" boostWeight="1.0000000000000000e+00" itree="14">
      <Node pos="s" depth="0" NCoef="0" IVar="3" Cut="8.2266420125961304e-01" cType="0" res="-1.2813071906566620e-01" rms="4.1854584217071533e-01" purity="3.1797578930854797e-01" nType="0">
        <Node pos="l" depth="1" NCoef="0" IVar="-1" Cut="0.0000000000000000e+00" cType="1" res="9.2919087037444115e-03" rms="4.2638415098190308e-01" purity="7.6114469766616821e-01" nType="1"/>
        <Node pos="r" depth="1" NCoef="0" IVar="8" Cut="9.2805212736129761e-01" cType="0" res="-2.4421471357345581e-01" rms="3.4925562143325806e-01" purity="1.5802177786827087e-01" nType="0">
          <Node pos="l" depth="2" NCoef="0" IVar="-1" Cut="0.0000000000000000e+00" cType="1" res="-5.4809646680951118e-03" rms="4.4288310408592224e-01" purity="3.0787524580955505e-01" nType="-1"/>
          <Node pos="r" depth="2" NCoef="0" IVar="8" Cut="3.7602725625038147e-01" cType="0" res="-3.1444835662841797e-01" rms="2.6200845837593079e-01" purity="7.9174533486366272e-02" nType="0">
            <Node pos="l" depth="3" NCoef="0" IVar="-1" Cut="0.0000000000000000e+00" cType="1" res="-1.4367073774337769e-02" rms="3.1037318706512451e-01" purity="1.1690916121006012e-01" nType="-1"/>
            <Node pos="r" depth="3" NCoef="0" IVar="3" Cut="8.0132955312728882e-01" cType="1" res="-3.6074638366699219e-01" rms="1.7362542450428009e-01" purity="3.1948219984769821e-02" nType="0">
              <Node pos="l" depth="4" NCoef="0" IVar="-1" Cut="0.0000000000000000e+00" cType="1" res="-1.8620014190673828e-02" rms="1.7368036508560181e-01" purity="3.2426781952381134e-02" nType="-1"/>
              <Node pos="r" depth="4" NCoef="0" IVar="-1" Cut="0.0000000000000000e+00" cType="1" res="-2.2516421973705292e-02" rms="1.2722131609916687e-01" purity="1.6626462340354919e-02" nType="-1"/>
            </Node>
          </Node>
        </Node>
      </Node>
    </BinaryTree>
    <BinaryTree type="DecisionTree" boostWeight="1.0000000000000000e+00" itree="15">
      <Node pos="s" depth="0" NCoef="0" IVar="3" Cut="7.7837961912155151e-01" cType="0" res="-1.2494960427284241e-01" rms="4.1597840189933777e-01" purity="3.1797578930854797e-01" nType="0">
        <Node pos="l" depth="1" NCoef="0" IVar="-1" Cut="0.0000000000000000e+00" cType="1" res="6.8355840630829334e-03" rms="4.4793349504470825e-01" purity="6.9179552793502808e-01" nType="1"/>
        <Node pos="r" depth="1" NCoef="0" IVar="1" Cut="3.8972456008195877e-02" cType="1" res="-2.5907608866691589e-01" rms="3.2467362284660339e-01" purity="1.2980630993843079e-01" nType="0">
          <Node pos="l" depth="2" NCoef="0" IVar="-1" Cut="0.0000000000000000e+00" cType="1" res="-6.4556887373328209e-03" rms="4.4616353511810303e-01" purity="2.9027029871940613e-01" nType="-1"/>
          <Node pos="r" depth="2" NCoef="0" IVar="6" Cut="-5.6712713241577148e+00" cType="1" res="-3.0977186560630798e-01" rms="2.4412065744400024e-01" purity="6.6943399608135223e-02" nType="0">
            <Node pos="l" depth="3" NCoef="0" IVar="-1" Cut="0.0000000000000000e+00" cType="1" res="-1.3060512021183968e-02" rms="3.3679425716400146e-01" purity="1.3595531880855560e-01" nType="-1"/>
            <Node pos="r" depth="3" NCoef="0" IVar="2" Cut="1.8876673281192780e-01" cType="0" res="-3.4201565384864807e-01" rms="1.5987838804721832e-01" purity="2.6947703212499619e-02" nType="0">
              <Node pos="l" depth="4" NCoef="0" IVar="-1" Cut="0.0000000000000000e+00" cType="1" res="-5.9394054114818573e-03" rms="4.4474402070045471e-01" purity="2.8147959709167480e-01" nType="-1"/>
              <Node pos="r" depth="4" NCoef="0" IVar="-1" Cut="0.0000000000000000e+00" cType="1" res="-1.8350334838032722e-02" rms="1.4504227042198181e-01" purity="2.1680586040019989e-02" nType="-1"/>
            </Node>
          </Node>
        </Node>
      </Node>
    </BinaryTree>
    <BinaryTree type="DecisionTree" boostWeight="1.0000000000000000e+00" itree="16">
      <Node pos="s" depth="0" NCoef="0" IVar="3" Cut="8.2266420125961304e-01" cType="0" res="-1.2186587601900101e-01" rms="4.1360628604888916e-01" purity="3.1797578930854797e-01" nType="0">
        <Node pos="l" depth="1" NCoef="0" IVar="-1" Cut="0.0000000000000000e+00" cType="1" res="8.9538851752877235e-03" rms="4.2638418078422546e-01" purity="7.6114469766616821e-01" nType="1"/>
        <Node pos="r" depth="1" NCoef="0" IVar="8" Cut="9.6515047550201416e-01" cType="0" res="-2.3283797502517700e-01" rms="3.4750819206237793e-01" purity="1.5802177786827087e-01" nType="0">
          <Node pos="l" depth="2" NCoef="0" IVar="-1" Cut="0.0000000000000000e+00" cType="1" res="-3.1164521351456642e-03" rms="4.5838642120361328e-01" purity="3.5557460784912109e-01" nType="-1"/>
          <Node pos="r" depth="2" NCoef="0" IVar="1" Cut="3.6973867565393448e-02" cType="1" res="-2.8543114662170410e-01" rms="2.8520461916923523e-01" purity="9.6679098904132843e-02" nType="0">
            <Node pos="l" depth="3" NCoef="0" IVar="-1" Cut="0.0000000000000000e+00" cType="1" res="-1.0040268301963806e-02" rms="4.0931087732315063e-01" purity="2.2258694469928741e-01" nType="-1"/>
            <Node pos="r" depth="3" NCoef="0" IVar="2" Cut="1.1481213569641113e-01" cType="0" res="-3.1862998008728027e-01" rms="2.0907452702522278e-01" purity="4.7438301146030426e-02" nType="0">
              <Node pos="l" depth="4" NCoef="0" IVar="-1" Cut="0.0000000000000000e+00" cType="1" res="-1.1969715356826782e-02" rms="3.5593754053115845e-01" purity="1.5599565207958221e-01" nType="-1"/>
              <Node pos="r" depth="4" NCoef="0" IVar="-1" Cut="0.0000000000000000e+00" cType="1" res="-1.7426263540983200e-02" rms="1.8931166827678680e-01" purity="3.8306396454572678e-02" nType="-1"/>
            </Node>
          </Node>
        </Node>
      </Node>
    </BinaryTree>
    <BinaryTree type="DecisionTree" boostWeight="1.0000000000000000e+00" itree="17">
      <Node pos="s" depth="0" NCoef="0" IVar="3" Cut="7.7837961912155151e-01" cType="0" res="-1.1883682757616043e-01" rms="4.1114708781242371e-01" purity="3.1797578930854797e-01" nType="0">
        <Node pos="l" depth="1" NCoef="0" IVar="-1" Cut="0.0000000000000000e+00" cType="1" res="6.5811523236334324e-03" rms="4.4685107469558716e-01" purity="6.9179552793502808e-01" nType="1"/>
        <Node pos="r" depth="1" NCoef="0" IVar="5" Cut="2.3675975799560547e+00" cType="1" res="-2.4696269631385803e-01" rms="3.2340809702873230e-01" purity="1.2980630993843079e-01" nType="0">
          <Node pos="l" depth="2" NCoef="0" IVar="-1" Cut="0.0000000000000000e+00" cType="1" res="-8.7526980787515640e-03" rms="4.0091648697853088e-01" purity="2.1924053132534027e-01" nType="-1"/>
          <Node pos="r" depth="2" NCoef="0" IVar="2" Cut="1.3325862586498260e-01" cType="0" res="-3.2955294847488403e-01" rms="1.7490898072719574e-01" purity="3.2808400690555573e-02" nType="0">
            <Node pos="l" depth="3" NCoef="0" IVar="-1" Cut="0.0000000000000000e+00" cType="1" res="-1.1901430785655975e-02" rms="3.5054799914360046e-01" purity="1.5622457861900330e-01" nType="-1"/>
            <Node pos="r" depth="3" NCoef="0" IVar="4" Cut="7.2963511943817139e-01" cType="1" res="-3.3534696698188782e-01" rms="1.5756767988204956e-01" purity="2.5951225310564041e-02" nType="0">
              <Node pos="l" depth="4" NCoef="0" IVar="-1" Cut="0.0000000000000000e+00" cType="1" res="-1.6879403963685036e-02" rms="2.0694766938686371e-01" purity="4.5883633196353912e-02" nType="-1"/>
              <Node pos="r" depth="4" NCoef="0" IVar="-1" Cut="0.0000000000000000e+00" cType="1" res="-1.9238993525505066e-02" rms="2.7984801679849625e-02" purity="1.2884134775958955e-04" nType="-1"/>
            </Node>
          </Node>
        </Node>
      </Node>
    </BinaryTree>
    <BinaryTree type="DecisionTree" boostWeight="1.0000000000000000e+00" itree="18">
      <Node pos="s" depth="0" NCoef="0" IVar="8" Cut="9.6432608366012573e-01" cType="0" res="-1.1590835452079773e-01" rms="4.0899968147277832e-01" purity="3.1797578930854797e-01" nType="0">
        <Node pos="l" depth="1" NCoef="0" IVar="-1" Cut="0.0000000000000000e+00" cType="1" res="6.4516388811171055e-03" rms="4.2653343081474304e-01" purity="6.2758743762969971e-01" nType="1"/>
        <Node pos="r" depth="1" NCoef="0" IVar="0" Cut="9.1824149712920189e-03" cType="1" res="-2.4284328520298004e-01" rms="3.3482906222343445e-01" purity="1.6002893447875977e-01" nType="0">
          <Node pos="l" depth="2" NCoef="0" IVar="-1" Cut="0.0000000000000000e+00" cType="1" res="-5.4600369185209274e-03" rms="4.2438772320747375e-01" purity="3.3919113874435425e-01" nType="-1"/>
          <Node pos="r" depth="2" NCoef="0" IVar="8" Cut="8.2797515392303467e-01" cType="0" res="-2.8998103737831116e-01" rms="2.8361800312995911e-01" purity="9.9866665899753571e-02" nType="0">
            <Node pos="l" depth="3" NCoef="0" IVar="-1" Cut="0.0000000000000000e+00" cType="1" res="-1.0486920364201069e-02" rms="3.6711204051971436e-01" purity="1.9399857521057129e-01" nType="-1"/>
            <Node pos="r" depth="3" NCoef="0" IVar="2" Cut="2.3512732237577438e-02" cType="0" res="-3.3022314310073853e-01" rms="2.2473040223121643e-01" purity="5.6964363902807236e-02" nType="0">
              <Node pos="l" depth="4" NCoef="0" IVar="-1" Cut="0.0000000000000000e+00" cType="1" res="-1.6019094735383987e-02" rms="2.4643661081790924e-01" purity="7.3510408401489258e-02" nType="-1"/>
              <Node pos="r" depth="4" NCoef="0" IVar="-1" Cut="0.0000000000000000e+00" cType="1" res="-1.9043728709220886e-02" rms="1.8490289151668549e-01" purity="3.5305876284837723e-02" nType="-1"/>
            </Node>
          </Node>
        </Node>
      </Node>
    </BinaryTree>
    <BinaryTree type="DecisionTree" boostWeight="1.0000000000000000e+00" itree="19">
      <Node pos="s" depth="0" NCoef="0" IVar="3" Cut="8.2266420125961304e-01" cType="0" res="-1.1304662376642227e-01" rms="4.0678757429122925e-01" purity="3.1797578930854797e-01" nType="0">
        <Node pos="l" depth="1" NCoef="0" IVar="-1" Cut="0.0000000000000000e+00" cType="1" res="8.6315460503101349e-03" rms="4.2397817969322205e-01" purity="7.6114469766616821e-01" nType="1"/>
        <Node pos="r" depth="1" NCoef="0" IVar="1" Cut="3.7173729389905930e-02" cType="1" res="-2.1809878945350647e-01" rms="3.4454220533370972e-01" purity="1.5802177786827087e-01" nType="0">
          <Node pos="l" depth="2" NCoef="0" IVar="-1" Cut="0.0000000000000000e+00" cType="1" res="-3.9107329212129116e-03" rms="4.5818665623664856e-01" purity="3.3982565999031067e-01" nType="-1"/>
          <Node pos="r" depth="2" NCoef="0" IVar="4" Cut="2.6436778903007507e-01" cType="1" res="-2.7823138236999512e-01" rms="2.5964826345443726e-01" purity="7.9744651913642883e-02" nType="0">
            <Node pos="l" depth="3" NCoef="0" IVar="-1" Cut="0.0000000000000000e+00" cType="1" res="-1.1843514628708363e-02" rms="3.3819898962974548e-01" purity="1.4558066427707672e-01" nType="-1"/>
            <Node pos="r" depth="3" NCoef="0" IVar="1" Cut="1.4895610511302948e-01" cType="1" res="-3.2103672623634338e-01" rms="1.6445836424827576e-01" purity="2.9053119942545891e-02" nType="0">
              <Node pos="l" depth="4" NCoef="0" IVar="-1" Cut="0.0000000000000000e+00" cType="1" res="-1.6067991033196449e-02" rms="2.1969011425971985e-01" purity="5.3754314780235291e-02" nType="-1"/>
              <Node pos="r" depth="4" NCoef="0" IVar="-1" Cut="0.0000000000000000e+00" cType="1" res="-1.8460869789123535e-02" rms="8.7161369621753693e-02" purity="7.3619540780782700e-03" nType="-1"/>
            </Node>
          </Node>
        </Node>
      </Node>
    </BinaryTree>
    <BinaryTree type="DecisionTree" boostWeight="1.0000000000000000e+00" itree="20">
      <Node pos="s" depth="0" NCoef="0" IVar="8" Cut="9.6515047550201416e-01" cType="0" res="-1.1025227606296539e-01" rms="4.0457028150558472e-01" purity="3.1797578930854797e-01" nType="0">
        <Node pos="l" depth="1" NCoef="0" IVar="-1" Cut="0.0000000000000000e+00" cType="1" res="6.4006592147052288e-03" rms="4.2337912321090698e-01" purity="6.2882018089294434e-01" nType="1"/>
        <Node pos="r" depth="1" NCoef="0" IVar="0" Cut="9.1824149712920189e-03" cType="1" res="-2.3254083096981049e-01" rms="3.3357921242713928e-01" purity="1.6078551113605499e-01" nType="0">
          <Node pos="l" depth="2" NCoef="0" IVar="-1" Cut="0.0000000000000000e+00" cType="1" res="-5.1669916138052940e-03" rms="4.2272198200225830e-01" purity="3.4092563390731812e-01" nType="-1"/>
          <Node pos="r" depth="2" NCoef="0" IVar="8" Cut="8.2793772220611572e-01" cType="0" res="-2.7840360999107361e-01" rms="2.8325906395912170e-01" purity="1.0017290711402893e-01" nType="0">
            <Node pos="l" depth="3" NCoef="0" IVar="-1" Cut="0.0000000000000000e+00" cType="1" res="-1.0136446915566921e-02" rms="3.6626926064491272e-01" purity="1.9423997402191162e-01" nType="-1"/>
            <Node pos="r" depth="3" NCoef="0" IVar="2" Cut="2.2587034851312637e-02" cType="0" res="-3.1783297657966614e-01" rms="2.2478902339935303e-01" purity="5.6964363902807236e-02" nType="0">
              <Node pos="l" depth="4" NCoef="0" IVar="-1" Cut="0.0000000000000000e+00" cType="1" res="-1.5648925676941872e-02" rms="2.4427577853202820e-01" purity="7.2399012744426727e-02" nType="-1"/>
              <Node pos="r" depth="4" NCoef="0" IVar="-1" Cut="0.0000000000000000e+00" cType="1" res="-1.8726354464888573e-02" rms="1.8563598394393921e-01" purity="3.4991487860679626e-02" nType="-1"/>
            </Node>
          </Node>
        </Node>
      </Node>
    </BinaryTree>
    <BinaryTree type="DecisionTree" boostWeight="1.0000000000000000e+00" itree="21">
      <Node pos="s" depth="0" NCoef="0" IVar="3" Cut="7.7837961912155151e-01" cType="0" res="-1.0752709954977036e-01" rms="4.0247279405593872e-01" purity="3.1797578930854797e-01" nType="0">
        <Node pos="l" depth="1" NCoef="0" IVar="-1" Cut="0.0000000000000000e+00" cType="1" res="6.3974582590162754e-03" rms="4.4076675176620483e-01" purity="6.9179552793502808e-01" nType="1"/>
        <Node pos="r" depth="1" NCoef="0" IVar="5" Cut="2.3675975799560547e+00" cType="1" res="-2.2771242260932922e-01" rms="3.2029658555984497e-01" purity="1.2980630993843079e-01" nType="0">
          <Node pos="l" depth="2" NCoef="0" IVar="-1" Cut="0.0000000000000000e+00" cType="1" res="-8.0347182229161263e-03" rms="3.9711883664131165e-01" purity="2.1924053132534027e-01" nType="-1"/>
          <Node pos="r" depth="2" NCoef="0" IVar="2" Cut="1.3325862586498260e-01" cType="0" res="-3.0778697133064270e-01" rms="1.7461805045604706e-01" purity="3.2808400690555573e-02" nType="0">
            <Node pos="l" depth="3" NCoef="0" IVar="-1" Cut="0.0000000000000000e+00" cType="1" res="-1.1208568699657917e-02" rms="3.4721127152442932e-01" purity="1.5622457861900330e-01" nType="-1"/>
            <Node pos="r" depth="3" NCoef="0" IVar="8" Cut="9.8163861036300659e-01" cType="1" res="-3.1333169341087341e-01" rms="1.5780778229236603e-01" purity="2.5951225310564041e-02" nType="0">
              <Node pos="l" depth="4" NCoef="0" IVar="-1" Cut="0.0000000000000000e+00" cType="1" res="-1.7047392204403877e-02" rms="1.5972015261650085e-01" purity="2.6857350021600723e-02" nType="-1"/>
              <Node pos="r" depth="4" NCoef="0" IVar="-1" Cut="0.0000000000000000e+00" cType="1" res="-1.8650006502866745e-02" rms="1.3179507851600647e-01" purity="1.8637062981724739e-02" nType="-1"/>
            </Node>
          </Node>
        </Node>
      </Node>
    </BinaryTree>
    <BinaryTree type="DecisionTree" boostWeight="1.0000000000000000e+00" itree="22">
      <Node pos="s" depth="0" NCoef="0" IVar="8" Cut="9.6515047550201416e-01" cType="0" res="-1.0487809032201767e-01" rms="4.0053984522819519e-01" purity="3.1797578930854797e-01" nType="0">
        <Node pos="l" depth="1" NCoef="0" IVar="-1" Cut="0.0000000000000000e+00" cType="1" res="6.3152010552585125e-03" rms="4.2065563797950745e-01" purity="6.2882018089294434e-01" nType="1"/>
        <Node pos="r" depth="1" NCoef="0" IVar="8" Cut="5.8903592824935913e-01" cType="0" res="-2.2333185374736786e-01" rms="3.3211520314216614e-01" purity="1.6078551113605499e-01" nType="0">
          <Node pos="l" depth="2" NCoef="0" IVar="-1" Cut="0.0000000000000000e+00" cType="1" res="-8.0814473330974579e-03" rms="3.8421121239662170e-01" purity="2.4517354369163513e-01" nType="-1"/>
          <Node pos="r" depth="2" NCoef="0" IVar="2" Cut="1.9638501107692719e-02" cType="0" res="-3.0697479844093323e-01" rms="2.3147693276405334e-01" purity="6.1838299036026001e-02" nType="0">
            <Node pos="l" depth="3" NCoef="0" IVar="-1" Cut="0.0000000000000000e+00" cType="1" res="-1.5870168805122375e-02" rms="2.4051691591739655e-01" purity="6.9599032402038574e-02" nType="-1"/>
            <Node pos="r" depth="3" NCoef="0" IVar="3" Cut="8.1104302406311035e-01" cType="0" res="-3.5015109181404114e-01" rms="2.0688857138156891e-01" purity="4.7453414648771286e-02" nType="0">
              <Node pos="l" depth="4" NCoef="0" IVar="-1" Cut="0.0000000000000000e+00" cType="1" res="-2.1587809547781944e-02" rms="3.2944121956825256e-01" purity="1.2960058450698853e-01" nType="-1"/>
              <Node pos="r" depth="4" NCoef="0" IVar="-1" Cut="0.0000000000000000e+00" cType="1" res="-1.7417183145880699e-02" rms="1.3995780050754547e-01" purity="2.1792666986584663e-02" nType="-1"/>
            </Node>
          </Node>
        </Node>
      </Node>
    </BinaryTree>
    <BinaryTree type="DecisionTree" boostWeight="1.0000000000000000e+00" itree="23">
      <Node pos="s" depth="0" NCoef="0" IVar="3" Cut="8.2266420125961304e-01" cType="0" res="-1.0225833952426910e-01" rms="3.9862850308418274e-01" purity="3.1797578930854797e-01" nType="0">
        <Node pos="l" depth="1" NCoef="0" IVar="-1" Cut="0.0000000000000000e+00" cType="1" res="8.3427028730511665e-03" rms="4.1919746994972229e-01" purity="7.6114469766616821e-01" nType="1"/>
        <Node pos="r" depth="1" NCoef="0" IVar="1" Cut="3.7173729389905930e-02" cType="1" res="-2.0091423392295837e-01" rms="3.4078428149223328e-01" purity="1.5802177786827087e-01" nType="0">
          <Node pos="l" depth="2" NCoef="0" IVar="-1" Cut="0.0000000000000000e+00" cType="1" res="-3.3193244598805904e-03" rms="4.5331239700317383e-01" purity="3.3982565999031067e-01" nType="-1"/>
          <Node pos="r" depth="2" NCoef="0" IVar="4" Cut="2.6436778903007507e-01" cType="1" res="-2.5908836722373962e-01" rms="2.5771242380142212e-01" purity="7.9744651913642883e-02" nType="0">
            <Node pos="l" depth="3" NCoef="0" IVar="-1" Cut="0.0000000000000000e+00" cType="1" res="-1.1180493049323559e-02" rms="3.3525753021240234e-01" purity="1.4558066427707672e-01" nType="-1"/>
            <Node pos="r" depth="3" NCoef="0" IVar="1" Cut="1.4913725852966309e-01" cType="1" res="-3.0048379302024841e-01" rms="1.6453588008880615e-01" purity="2.9053119942545891e-02" nType="0">
              <Node pos="l" depth="4" NCoef="0" IVar="-1" Cut="0.0000000000000000e+00" cType="1" res="-1.5447542071342468e-02" rms="2.1912726759910583e-01" purity="5.3748827427625656e-02" nType="-1"/>
              <Node pos="r" depth="4" NCoef="0" IVar="-1" Cut="0.0000000000000000e+00" cType="1" res="-1.7894580960273743e-02" rms="8.8789895176887512e-02" purity="7.3626134544610977e-03" nType="-1"/>
            </Node>
          </Node>
        </Node>
      </Node>
    </BinaryTree>
    <BinaryTree type="DecisionTree" boostWeight="1.0000000000000000e+00" itree="24">
      <Node pos="s" depth="0" NCoef="0" IVar="8" Cut="9.6432608366012573e-01" cType="0" res="-9.9729850888252258e-02" rms="3.9661729335784912e-01" purity="3.1797578930854797e-01" nType="0">
        <Node pos="l" depth="1" NCoef="0" IVar="-1" Cut="0.0000000000000000e+00" cType="1" res="6.1821732670068741e-03" rms="4.1816177964210510e-01" purity="6.2758743762969971e-01" nType="1"/>
        <Node pos="r" depth="1" NCoef="0" IVar="0" Cut="9.1824149712920189e-03" cType="1" res="-2.1486409008502960e-01" rms="3.3031761646270752e-01" purity="1.6002893447875977e-01" nType="0">
          <Node pos="l" depth="2" NCoef="0" IVar="-1" Cut="0.0000000000000000e+00" cType="1" res="-4.6692914329469204e-03" rms="4.1896712779998779e-01" purity="3.3919113874435425e-01" nType="-1"/>
          <Node pos="r" depth="2" NCoef="0" IVar="8" Cut="8.2797515392303467e-01" cType="0" res="-2.5824514031410217e-01" rms="2.8163552284240723e-01" purity="9.9866665899753571e-02" nType="0">
            <Node pos="l" depth="3" NCoef="0" IVar="-1" Cut="0.0000000000000000e+00" cType="1" res="-9.4519387930631638e-03" rms="3.6418807506561279e-01" purity="1.9399857521057129e-01" nType="-1"/>
            <Node pos="r" depth="3" NCoef="0" IVar="2" Cut="2.3512732237577438e-02" cType="0" res="-2.9571685194969177e-01" rms="2.2479912638664246e-01" purity="5.6964363902807236e-02" nType="0">
              <Node pos="l" depth="4" NCoef="0" IVar="-1" Cut="0.0000000000000000e+00" cType="1" res="-1.4856441877782345e-02" rms="2.4537357687950134e-01" purity="7.3510408401489258e-02" nType="-1"/>
              <Node pos="r" depth="4" NCoef="0" IVar="-1" Cut="0.0000000000000000e+00" cType="1" res="-1.7984775826334953e-02" rms="1.8684908747673035e-01" purity="3.5305876284837723e-02" nType="-1"/>
            </Node>
          </Node>
        </Node>
      </Node>
    </BinaryTree>
    <BinaryTree type="DecisionTree" boostWeight="1.0000000000000000e+00" itree="25">
      <Node pos="s" depth="0" NCoef="0" IVar="3" Cut="7.7837961912155151e-01" cType="0" res="-9.7268134355545044e-02" rms="3.9472964406013489e-01" purity="3.1797578930854797e-01" nType="0">
        <Node pos="l" depth="1" NCoef="0" IVar="-1" Cut="0.0000000000000000e+00" cType="1" res="6.2339152209460735e-03" rms="4.3500241637229919e-01" purity="6.9179552793502808e-01" nType="1"/>
        <Node pos="r" depth="1" NCoef="0" IVar="5" Cut="2.3675975799560547e+00" cType="1" res="-2.1022692322731018e-01" rms="3.1762057542800903e-01" purity="1.2980630993843079e-01" nType="0">
          <Node pos="l" depth="2" NCoef="0" IVar="-1" Cut="0.0000000000000000e+00" cType="1" res="-7.3800631798803806e-03" rms="3.9377614855766296e-01" purity="2.1924053132534027e-01" nType="-1"/>
          <Node pos="r" depth="2" NCoef="0" IVar="2" Cut="1.3325862586498260e-01" cType="0" res="-2.8798410296440125e-01" rms="1.7465178668498993e-01" purity="3.2808400690555573e-02" nType="0">
            <Node pos="l" depth="3" NCoef="0" IVar="-1" Cut="0.0000000000000000e+00" cType="1" res="-1.0561595670878887e-02" rms="3.4419691562652588e-01" purity="1.5622457861900330e-01" nType="-1"/>
            <Node pos="r" depth="3" NCoef="0" IVar="8" Cut="9.7586774826049805e-01" cType="0" res="-2.9333189129829407e-01" rms="1.5834228694438934e-01" purity="2.5951225310564041e-02" nType="0">
              <Node pos="l" depth="4" NCoef="0" IVar="-1" Cut="0.0000000000000000e+00" cType="1" res="-1.7811471596360207e-02" rms="1.6229549050331116e-01" purity="2.8393112123012543e-02" nType="-1"/>
              <Node pos="r" depth="4" NCoef="0" IVar="-1" Cut="0.0000000000000000e+00" cType="1" res="-1.6441853716969490e-02" rms="1.5589037537574768e-01" purity="2.5506708770990372e-02" nType="-1"/>
            </Node>
          </Node>
        </Node>
      </Node>
    </BinaryTree>
    <BinaryTree type="DecisionTree" boostWeight="1.0000000000000000e+00" itree="26">
      <Node pos="s" depth="0" NCoef="0" IVar="8" Cut="9.6515047550201416e-01" cType="0" res="-9.4871468842029572e-02" rms="3.9298000931739807e-01" purity="3.1797578930854797e-01" nType="0">
        <Node pos="l" depth="1" NCoef="0" IVar="-1" Cut="0.0000000000000000e+00" cType="1" res="6.1386972665786743e-03" rms="4.1539141535758972e-01" purity="6.2882018089294434e-01" nType="1"/>
        <Node pos="r" depth="1" NCoef="0" IVar="8" Cut="5.8903592824935913e-01" cType="0" res="-2.0594936609268188e-01" rms="3.2944580912590027e-01" purity="1.6078551113605499e-01" nType="0">
          <Node pos="l" depth="2" NCoef="0" IVar="-1" Cut="0.0000000000000000e+00" cType="1" res="-7.4732913635671139e-03" rms="3.8119825720787048e-01" purity="2.4517354369163513e-01" nType="-1"/>
          <Node pos="r" depth="2" NCoef="0" IVar="2" Cut="1.9638501107692719e-02" cType="0" res="-2.8597465157508850e-01" rms="2.3140014708042145e-01" purity="6.1838299036026001e-02" nType="0">
            <Node pos="l" depth="3" NCoef="0" IVar="-1" Cut="0.0000000000000000e+00" cType="1" res="-1.5179092995822430e-02" rms="2.4002903699874878e-01" purity="6.9599032402038574e-02" nType="-1"/>
            <Node pos="r" depth="3" NCoef="0" IVar="3" Cut="8.1104302406311035e-01" cType="0" res="-3.2967153191566467e-01" rms="2.0752444863319397e-01" purity="4.7453414648771286e-02" nType="0">
              <Node pos="l" depth="4" NCoef="0" IVar="-1" Cut="0.0000000000000000e+00" cType="1" res="-2.0951343700289726e-02" rms="3.2809373736381531e-01" purity="1.2960058450698853e-01" nType="-1"/>
              <Node pos="r" depth="4" NCoef="0" IVar="-1" Cut="0.0000000000000000e+00" cType="1" res="-1.6756551340222359e-02" rms="1.3988859951496124e-01" purity="2.1792666986584663e-02" nType="-1"/>
            </Node>
          </Node>
        </Node>
      </Node>
    </BinaryTree>
    <BinaryTree type="DecisionTree" boostWeight="1.0000000000000000e+00" itree="27">
      <Node pos="s" depth="0" NCoef="0" IVar="3" Cut="7.9289913177490234e-01" cType="0" res="-9.2499651014804840e-02" rms="3.9125740528106689e-01" purity="3.1797578930854797e-01" nType="0">
        <Node pos="l" depth="1" NCoef="0" IVar="-1" Cut="0.0000000000000000e+00" cType="1" res="6.7811422049999237e-03" rms="4.2836943268775940e-01" purity="7.1792519092559814e-01" nType="1"/>
        <Node pos="r" depth="1" NCoef="0" IVar="1" Cut="2.1384887397289276e-02" cType="1" res="-1.9588209688663483e-01" rms="3.2392027974128723e-01" purity="1.3854937255382538e-01" nType="0">
          <Node pos="l" depth="2" NCoef="0" IVar="-1" Cut="0.0000000000000000e+00" cType="1" res="-2.5942749343812466e-03" rms="4.5031425356864929e-01" purity="3.3115094900131226e-01" nType="-1"/>
          <Node pos="r" depth="2" NCoef="0" IVar="2" Cut="1.3623216748237610e-01" cType="0" res="-2.3855489492416382e-01" rms="2.6110661029815674e-01" purity="8.2018531858921051e-02" nType="0">
            <Node pos="l" depth="3" NCoef="0" IVar="-1" Cut="0.0000000000000000e+00" cType="1" res="-5.2091368706896901e-04" rms="4.4881924986839294e-01" purity="3.4150433540344238e-01" nType="-1"/>
            <Node pos="r" depth="3" NCoef="0" IVar="6" Cut="-5.6698279380798340e+00" cType="1" res="-2.5083661079406738e-01" rms="2.4096155166625977e-01" purity="6.8089835345745087e-02" nType="0">
              <Node pos="l" depth="4" NCoef="0" IVar="-1" Cut="0.0000000000000000e+00" cType="1" res="-1.0848901234567165e-02" rms="3.3168652653694153e-01" purity="1.4031545817852020e-01" nType="-1"/>
              <Node pos="r" depth="4" NCoef="0" IVar="-1" Cut="0.0000000000000000e+00" cType="1" res="-1.6310535371303558e-02" rms="1.6065996885299683e-01" purity="2.6791948825120926e-02" nType="-1"/>
            </Node>
          </Node>
        </Node>
      </Node>
    </BinaryTree>
    <BinaryTree type="DecisionTree" boostWeight="1.0000000000000000e+00" itree="28">
      <Node pos="s" depth="0" NCoef="0" IVar="8" Cut="9.4618910551071167e-01" cType="0" res="-9.0220041573047638e-02" rms="3.8941627740859985e-01" purity="3.1797578930854797e-01" nType="0">
        <Node pos="l" depth="1" NCoef="0" IVar="-1" Cut="0.0000000000000000e+00" cType="1" res="4.7426577657461166e-03" rms="4.1776740550994873e-01" purity="5.8461052179336548e-01" nType="1"/>
        <Node pos="r" depth="1" NCoef="0" IVar="8" Cut="5.8884721994400024e-01" cType="0" res="-2.1425572037696838e-01" rms="3.1299290060997009e-01" purity="1.3934259116649628e-01" nType="0">
          <Node pos="l" depth="2" NCoef="0" IVar="-1" Cut="0.0000000000000000e+00" cType="1" res="-8.3065992221236229e-03" rms="3.6919248104095459e-01" purity="2.2017526626586914e-01" nType="-1"/>
          <Node pos="r" depth="2" NCoef="0" IVar="2" Cut="1.9638501107692719e-02" cType="0" res="-2.7539333701133728e-01" rms="2.3144869506359100e-01" purity="6.1838299036026001e-02" nType="0">
            <Node pos="l" depth="3" NCoef="0" IVar="-1" Cut="0.0000000000000000e+00" cType="1" res="-1.4838296920061111e-02" rms="2.3985652625560760e-01" purity="6.9599032402038574e-02" nType="-1"/>
            <Node pos="r" depth="3" NCoef="0" IVar="3" Cut="8.1104302406311035e-01" cType="0" res="-3.1927955150604248e-01" rms="2.0798665285110474e-01" purity="4.7453414648771286e-02" nType="0">
              <Node pos="l" depth="4" NCoef="0" IVar="-1" Cut="0.0000000000000000e+00" cType="1" res="-2.0554067566990852e-02" rms="3.2807904481887817e-01" purity="1.2960058450698853e-01" nType="-1"/>
              <Node pos="r" depth="4" NCoef="0" IVar="-1" Cut="0.0000000000000000e+00" cType="1" res="-1.6448628157377243e-02" rms="1.3987982273101807e-01" purity="2.1792666986584663e-02" nType="-1"/>
            </Node>
          </Node>
        </Node>
      </Node>
    </BinaryTree>
    <BinaryTree type="DecisionTree" boostWeight="1.0000000000000000e+00" itree="29">
      <Node pos="s" depth="0" NCoef="0" IVar="3" Cut="8.5025125741958618e-01" cType="0" res="-8.7968327105045319e-02" rms="3.8783001899719238e-01" purity="3.1797578930854797e-01" nType="0">
        <Node pos="l" depth="1" NCoef="0" IVar="-1" Cut="0.0000000000000000e+00" cType="1" res="9.9642258137464523e-03" rms="3.8415369391441345e-01" purity="8.0516296625137329e-01" nType="1"/>
        <Node pos="r" depth="1" NCoef="0" IVar="5" Cut="2.3675975799560547e+00" cType="1" res="-1.6571384668350220e-01" rms="3.5004934668540955e-01" purity="1.8763446807861328e-01" nType="0">
          <Node pos="l" depth="2" NCoef="0" IVar="-1" Cut="0.0000000000000000e+00" cType="1" res="-4.3175420723855495e-03" rms="4.1374260187149048e-01" purity="2.9748255014419556e-01" nType="-1"/>
          <Node pos="r" depth="2" NCoef="0" IVar="5" Cut="3.5381121635437012e+00" cType="1" res="-2.6760396361351013e-01" rms="2.1216712892055511e-01" purity="5.5528942495584488e-02" nType="0">
            <Node pos="l" depth="3" NCoef="0" IVar="-1" Cut="0.0000000000000000e+00" cType="1" res="-1.2185613624751568e-02" rms="3.0154553055763245e-01" purity="1.2312981486320496e-01" nType="-1"/>
            <Node pos="r" depth="3" NCoef="0" IVar="4" Cut="2.0889553427696228e-01" cType="1" res="-2.8384941816329956e-01" rms="1.7164614796638489e-01" purity="3.4254066646099091e-02" nType="0">
              <Node pos="l" depth="4" NCoef="0" IVar="-1" Cut="0.0000000000000000e+00" cType="1" res="-1.3956740498542786e-02" rms="2.6928409934043884e-01" purity="9.6978470683097839e-02" nType="-1"/>
              <Node pos="r" depth="4" NCoef="0" IVar="-1" Cut="0.0000000000000000e+00" cType="1" res="-1.7100701108574867e-02" rms="1.3589517772197723e-01" purity="1.8887205049395561e-02" nType="-1"/>
            </Node>
          </Node>
        </Node>
      </Node>
    </BinaryTree>
    <BinaryTree type="DecisionTree" boostWeight="1.0000000000000000e+00" itree="30">
      <Node pos="s" depth="0" NCoef="0" IVar="3" Cut="7.7837961912155151e-01" cType="0" res="-8.5789449512958527e-02" rms="3.8602748513221741e-01" purity="3.1797578930854797e-01" nType="0">
        <Node pos="l" depth="1" NCoef="0" IVar="-1" Cut="0.0000000000000000e+00" cType="1" res="6.0096997767686844e-03" rms="4.2865446209907532e-01" purity="6.9179552793502808e-01" nType="1"/>
        <Node pos="r" depth="1" NCoef="0" IVar="1" Cut="3.8972456008195877e-02" cType="1" res="-1.9015438854694366e-01" rms="3.1465250253677368e-01" purity="1.2980630993843079e-01" nType="0">
          <Node pos="l" depth="2" NCoef="0" IVar="-1" Cut="0.0000000000000000e+00" cType="1" res="-3.9720325730741024e-03" rms="4.3266892433166504e-01" purity="2.9027029871940613e-01" nType="-1"/>
          <Node pos="r" depth="2" NCoef="0" IVar="2" Cut="1.4033767580986023e-01" cType="0" res="-2.3506243526935577e-01" rms="2.3935343325138092e-01" purity="6.6943399608135223e-02" nType="0">
            <Node pos="l" depth="3" NCoef="0" IVar="-1" Cut="0.0000000000000000e+00" cType="1" res="-3.3476219978183508e-03" rms="4.2144826054573059e-01" purity="2.7332806587219238e-01" nType="-1"/>
            <Node pos="r" depth="3" NCoef="0" IVar="1" Cut="1.5154947340488434e-01" cType="1" res="-2.4345926940441132e-01" rms="2.2351042926311493e-01" purity="5.6995626538991928e-02" nType="0">
              <Node pos="l" depth="4" NCoef="0" IVar="-1" Cut="0.0000000000000000e+00" cType="1" res="-1.2277793139219284e-02" rms="2.7527239918708801e-01" purity="9.0525396168231964e-02" nType="-1"/>
              <Node pos="r" depth="4" NCoef="0" IVar="-1" Cut="0.0000000000000000e+00" cType="1" res="-1.6407223418354988e-02" rms="1.4686472713947296e-01" purity="2.3026531562209129e-02" nType="-1"/>
            </Node>
          </Node>
        </Node>
      </Node>
    </BinaryTree>
    <BinaryTree type="DecisionTree" boostWeight="1.0000000000000000e+00" itree="31">
      <Node pos="s" depth="0" NCoef="0" IVar="8" Cut="9.6515047550201416e-01" cType="0" res="-8.3671711385250092e-02" rms="3.8442298769950867e-01" purity="3.1797578930854797e-01" nType="0">
        <Node pos="l" depth="1" NCoef="0" IVar="-1" Cut="0.0000000000000000e+00" cType="1" res="6.0329353436827660e-03" rms="4.0809941291809082e-01" purity="6.2882018089294434e-01" nType="1"/>
        <Node pos="r" depth="1" NCoef="0" IVar="0" Cut="9.1824149712920189e-03" cType="1" res="-1.8727536499500275e-01" rms="3.2608675956726074e-01" purity="1.6078551113605499e-01" nType="0">
          <Node pos="l" depth="2" NCoef="0" IVar="-1" Cut="0.0000000000000000e+00" cType="1" res="-3.7355143576860428e-03" rms="4.1264766454696655e-01" purity="3.4092563390731812e-01" nType="-1"/>
          <Node pos="r" depth="2" NCoef="0" IVar="8" Cut="8.2793772220611572e-01" cType="0" res="-2.2793102264404297e-01" rms="2.7973431348800659e-01" purity="1.0017290711402893e-01" nType="0">
            <Node pos="l" depth="3" NCoef="0" IVar="-1" Cut="0.0000000000000000e+00" cType="1" res="-8.5073616355657578e-03" rms="3.6082419753074646e-01" purity="1.9423997402191162e-01" nType="-1"/>
            <Node pos="r" depth="3" NCoef="0" IVar="3" Cut="8.1404757499694824e-01" cType="0" res="-2.6270881295204163e-01" rms="2.2483190894126892e-01" purity="5.6964363902807236e-02" nType="0">
              <Node pos="l" depth="4" NCoef="0" IVar="-1" Cut="0.0000000000000000e+00" cType="1" res="-1.7497699707746506e-02" rms="3.6946129798889160e-01" purity="1.7024633288383484e-01" nType="-1"/>
              <Node pos="r" depth="4" NCoef="0" IVar="-1" Cut="0.0000000000000000e+00" cType="1" res="-1.4945415779948235e-02" rms="1.9783134758472443e-01" purity="4.3928701430559158e-02" nType="-1"/>
            </Node>
          </Node>
        </Node>
      </Node>
    </BinaryTree>
    <BinaryTree type="DecisionTree" boostWeight="1.0000000000000000e+00" itree="32">
      <Node pos="s" depth="0" NCoef="0" IVar="3" Cut="8.5025125741958618e-01" cType="0" res="-8.1601843237876892e-02" rms="3.8281950354576111e-01" purity="3.1797578930854797e-01" nType="0">
        <Node pos="l" depth="1" NCoef="0" IVar="-1" Cut="0.0000000000000000e+00" cType="1" res="9.6391336992383003e-03" rms="3.8251405954360962e-01" purity="8.0516296625137329e-01" nType="1"/>
        <Node pos="r" depth="1" NCoef="0" IVar="5" Cut="2.3675975799560547e+00" cType="1" res="-1.5545314550399780e-01" rms="3.4752467274665833e-01" purity="1.8763446807861328e-01" nType="0">
          <Node pos="l" depth="2" NCoef="0" IVar="-1" Cut="0.0000000000000000e+00" cType="1" res="-3.9511434733867645e-03" rms="4.1111743450164795e-01" purity="2.9748255014419556e-01" nType="-1"/>
          <Node pos="r" depth="2" NCoef="0" IVar="5" Cut="3.5381121635437012e+00" cType="1" res="-2.5436550378799438e-01" rms="2.1174284815788269e-01" purity="5.5528942495584488e-02" nType="0">
            <Node pos="l" depth="3" NCoef="0" IVar="-1" Cut="0.0000000000000000e+00" cType="1" res="-1.1776498518884182e-02" rms="3.0063861608505249e-01" purity="1.2312981486320496e-01" nType="-1"/>
            <Node pos="r" depth="3" NCoef="0" IVar="4" Cut="2.0889553427696228e-01" cType="1" res="-2.7006676793098450e-01" rms="1.7166954278945923e-01" purity="3.4254066646099091e-02" nType="0">
              <Node pos="l" depth="4" NCoef="0" IVar="-1" Cut="0.0000000000000000e+00" cType="1" res="-1.3552973046898842e-02" rms="2.6862078905105591e-01" purity="9.6978470683097839e-02" nType="-1"/>
              <Node pos="r" depth="4" NCoef="0" IVar="-1" Cut="0.0000000000000000e+00" cType="1" res="-1.6737183555960655e-02" rms="1.3639278709888458e-01" purity="1.8887205049395561e-02" nType="-1"/>
            </Node>
          </Node>
        </Node>
      </Node>
    </BinaryTree>
    <BinaryTree type="DecisionTree" boostWeight="1.0000000000000000e+00" itree="33">
      <Node pos="s" depth="0" NCoef="0" IVar="8" Cut="9.4618910551071167e-01" cType="0" res="-7.9580053687095642e-02" rms="3.8115647435188293e-01" purity="3.1797578930854797e-01" nType="0">
        <Node pos="l" depth="1" NCoef="0" IVar="-1" Cut="0.0000000000000000e+00" cType="1" res="4.7112144529819489e-03" rms="4.1046380996704102e-01" purity="5.8461052179336548e-01" nType="1"/>
        <Node pos="r" depth="1" NCoef="0" IVar="8" Cut="5.8884721994400024e-01" cType="0" res="-1.9525209069252014e-01" rms="3.1046026945114136e-01" purity="1.3934259116649628e-01" nType="0">
          <Node pos="l" depth="2" NCoef="0" IVar="-1" Cut="0.0000000000000000e+00" cType="1" res="-7.6207318343222141e-03" rms="3.6585050821304321e-01" purity="2.2017526626586914e-01" nType="-1"/>
          <Node pos="r" depth="2" NCoef="0" IVar="3" Cut="8.1395244598388672e-01" cType="0" res="-2.5382277369499207e-01" rms="2.3121131956577301e-01" purity="6.1838299036026001e-02" nType="0">
            <Node pos="l" depth="3" NCoef="0" IVar="-1" Cut="0.0000000000000000e+00" cType="1" res="-1.7671560868620872e-02" rms="3.7953650951385498e-01" purity="1.8837663531303406e-01" nType="-1"/>
            <Node pos="r" depth="3" NCoef="0" IVar="0" Cut="5.3678788244724274e-02" cType="1" res="-2.4045003950595856e-01" rms="1.9886413216590881e-01" purity="4.4476270675659180e-02" nType="0">
              <Node pos="l" depth="4" NCoef="0" IVar="-1" Cut="0.0000000000000000e+00" cType="1" res="-1.2390867806971073e-02" rms="2.7333250641822815e-01" purity="9.0101279318332672e-02" nType="-1"/>
              <Node pos="r" depth="4" NCoef="0" IVar="-1" Cut="0.0000000000000000e+00" cType="1" res="-1.5941269695758820e-02" rms="1.4604964852333069e-01" purity="2.2148108109831810e-02" nType="-1"/>
            </Node>
          </Node>
        </Node>
      </Node>
    </BinaryTree>
    <BinaryTree type="DecisionTree" boostWeight="1.0000000000000000e+00" itree="34">
      <Node pos="s" depth="0" NCoef="0" IVar="1" Cut="3.9771892130374908e-02" cType="1" res="-7.7589683234691620e-02" rms="3.7973499298095703e-01" purity="3.1797578930854797e-01" nType="0">
        <Node pos="l" depth="1" NCoef="0" IVar="-1" Cut="0.0000000000000000e+00" cType="1" res="3.7491132970899343e-03" rms="4.2774331569671631e-01" purity="5.6631302833557129e-01" nType="1"/>
        <Node pos="r" depth="1" NCoef="0" IVar="4" Cut="4.4927534461021423e-01" cType="1" res="-2.0641209185123444e-01" rms="2.7401083707809448e-01" purity="1.0615554451942444e-01" nType="0">
          <Node pos="l" depth="2" NCoef="0" IVar="-1" Cut="0.0000000000000000e+00" cType="1" res="-9.4297574833035469e-03" rms="3.3137360215187073e-01" purity="1.6812698543071747e-01" nType="-1"/>
          <Node pos="r" depth="2" NCoef="0" IVar="3" Cut="8.2556807994842529e-01" cType="0" res="-2.6527073979377747e-01" rms="1.4781735837459564e-01" purity="2.1889034658670425e-02" nType="0">
            <Node pos="l" depth="3" NCoef="0" IVar="-1" Cut="0.0000000000000000e+00" cType="1" res="-2.5156499817967415e-02" rms="2.7193370461463928e-01" purity="8.6897559463977814e-02" nType="-1"/>
            <Node pos="r" depth="3" NCoef="0" IVar="8" Cut="9.3750995397567749e-01" cType="0" res="-2.5951570272445679e-01" rms="1.3852678239345551e-01" purity="2.0249482244253159e-02" nType="0">
              <Node pos="l" depth="4" NCoef="0" IVar="-1" Cut="0.0000000000000000e+00" cType="1" res="-1.6786681488156319e-02" rms="1.5628403425216675e-01" purity="2.8270674869418144e-02" nType="-1"/>
              <Node pos="r" depth="4" NCoef="0" IVar="-1" Cut="0.0000000000000000e+00" cType="1" res="-1.5575410798192024e-02" rms="1.2421718239784241e-01" purity="1.6353875398635864e-02" nType="-1"/>
            </Node>
          </Node>
        </Node>
      </Node>
    </BinaryTree>
    <BinaryTree type="DecisionTree" boostWeight="1.0000000000000000e+00" itree="35">
      <Node pos="s" depth="0" NCoef="0" IVar="8" Cut="9.7834098339080811e-01" cType="0" res="-7.5679145753383636e-02" rms="3.7840136885643005e-01" purity="3.1797578930854797e-01" nType="0">
        <Node pos="l" depth="1" NCoef="0" IVar="-1" Cut="0.0000000000000000e+00" cType="1" res="7.8055858612060547e-03" rms="3.8947933912277222e-01" purity="6.8365484476089478e-01" nType="1"/>
        <Node pos="r" depth="1" NCoef="0" IVar="3" Cut="8.9163190126419067e-01" cType="0" res="-1.5742376446723938e-01" rms="3.3833724260330200e-01" purity="1.8970215320587158e-01" nType="0">
          <Node pos="l" depth="2" NCoef="0" IVar="-1" Cut="0.0000000000000000e+00" cType="1" res="6.7127849906682968e-03" rms="4.3241477012634277e-01" purity="7.2563380002975464e-01" nType="1"/>
          <Node pos="r" depth="2" NCoef="0" IVar="7" Cut="-5.3934216499328613e+00" cType="1" res="-1.8008035421371460e-01" rms="3.1894877552986145e-01" purity="1.4759454131126404e-01" nType="0">
            <Node pos="l" depth="3" NCoef="0" IVar="-1" Cut="0.0000000000000000e+00" cType="1" res="-5.4282536730170250e-03" rms="3.9206823706626892e-01" purity="2.5790199637413025e-01" nType="-1"/>
            <Node pos="r" depth="3" NCoef="0" IVar="2" Cut="2.3200327530503273e-02" cType="0" res="-2.3129731416702271e-01" rms="2.5088268518447876e-01" purity="7.9940780997276306e-02" nType="0">
              <Node pos="l" depth="4" NCoef="0" IVar="-1" Cut="0.0000000000000000e+00" cType="1" res="-1.2677169404923916e-02" rms="2.5975540280342102e-01" purity="9.0063713490962982e-02" nType="-1"/>
              <Node pos="r" depth="4" NCoef="0" IVar="-1" Cut="0.0000000000000000e+00" cType="1" res="-1.5935307368636131e-02" rms="2.2659952938556671e-01" purity="6.0669571161270142e-02" nType="-1"/>
            </Node>
          </Node>
        </Node>
      </Node>
    </BinaryTree>
    <BinaryTree type="DecisionTree" boostWeight="1.0000000000000000e+00" itree="36">
      <Node pos="s" depth="0" NCoef="0" IVar="3" Cut="7.7837961912155151e-01" cType="0" res="-7.3784522712230682e-02" rms="3.7670642137527466e-01" purity="3.1797578930854797e-01" nType="0">
        <Node pos="l" depth="1" NCoef="0" IVar="-1" Cut="0.0000000000000000e+00" cType="1" res="5.8659636415541172e-03" rms="4.2022246122360229e-01" purity="6.9179552793502808e-01" nType="1"/>
        <Node pos="r" depth="1" NCoef="0" IVar="6" Cut="-5.3440976142883301e+00" cType="1" res="-1.7003862559795380e-01" rms="3.1109607219696045e-01" purity="1.2980630993843079e-01" nType="0">
          <Node pos="l" depth="2" NCoef="0" IVar="-1" Cut="0.0000000000000000e+00" cType="1" res="-5.5298041552305222e-03" rms="3.8708737492561340e-01" purity="2.2364243865013123e-01" nType="-1"/>
          <Node pos="r" depth="2" NCoef="0" IVar="2" Cut="1.9708111882209778e-01" cType="0" res="-2.3532263934612274e-01" rms="1.9960549473762512e-01" purity="4.4979803264141083e-02" nType="0">
            <Node pos="l" depth="3" NCoef="0" IVar="-1" Cut="0.0000000000000000e+00" cType="1" res="9.9547300487756729e-04" rms="4.5916470885276794e-01" purity="3.6712852120399475e-01" nType="-1"/>
            <Node pos="r" depth="3" NCoef="0" IVar="8" Cut="9.7916656732559204e-01" cType="1" res="-2.4213524162769318e-01" rms="1.8299929797649384e-01" purity="3.6367755383253098e-02" nType="0">
              <Node pos="l" depth="4" NCoef="0" IVar="-1" Cut="0.0000000000000000e+00" cType="1" res="-1.4733570627868176e-02" rms="1.8158347904682159e-01" purity="3.6633379757404327e-02" nType="-1"/>
              <Node pos="r" depth="4" NCoef="0" IVar="-1" Cut="0.0000000000000000e+00" cType="1" res="-1.6944594681262970e-02" rms="1.7379251122474670e-01" purity="3.4300096333026886e-02" nType="-1"/>
            </Node>
          </Node>
        </Node>
      </Node>
    </BinaryTree>
    <BinaryTree type="DecisionTree" boostWeight="1.0000000000000000e+00" itree="37">
      <Node pos="s" depth="0" NCoef="0" IVar="8" Cut="9.4618910551071167e-01" cType="0" res="-7.1959212422370911e-02" rms="3.7532198429107666e-01" purity="3.1797578930854797e-01" nType="0">
        <Node pos="l" depth="1" NCoef="0" IVar="-1" Cut="0.0000000000000000e+00" cType="1" res="4.6832486987113953e-03" rms="4.0516489744186401e-01" purity="5.8461052179336548e-01" nType="1"/>
        <Node pos="r" depth="1" NCoef="0" IVar="8" Cut="5.8884721994400024e-01" cType="0" res="-1.8159347772598267e-01" rms="3.0870908498764038e-01" purity="1.3934259116649628e-01" nType="0">
          <Node pos="l" depth="2" NCoef="0" IVar="-1" Cut="0.0000000000000000e+00" cType="1" res="-7.1132229641079903e-03" rms="3.6342868208885193e-01" purity="2.2017526626586914e-01" nType="-1"/>
          <Node pos="r" depth="2" NCoef="0" IVar="3" Cut="8.1395244598388672e-01" cType="0" res="-2.3833562433719635e-01" rms="2.3121200501918793e-01" purity="6.1838299036026001e-02" nType="0">
            <Node pos="l" depth="3" NCoef="0" IVar="-1" Cut="0.0000000000000000e+00" cType="1" res="-1.7202623188495636e-02" rms="3.7839695811271667e-01" purity="1.8837663531303406e-01" nType="-1"/>
            <Node pos="r" depth="3" NCoef="0" IVar="0" Cut="5.3678788244724274e-02" cType="1" res="-2.2404742240905762e-01" rms="1.9863519072532654e-01" purity="4.4476270675659180e-02" nType="0">
              <Node pos="l" depth="4" NCoef="0" IVar="-1" Cut="0.0000000000000000e+00" cType="1" res="-1.1824802495539188e-02" rms="2.7257144451141357e-01" purity="9.0101279318332672e-02" nType="-1"/>
              <Node pos="r" depth="4" NCoef="0" IVar="-1" Cut="0.0000000000000000e+00" cType="1" res="-1.5526330098509789e-02" rms="1.4633879065513611e-01" purity="2.2148108109831810e-02" nType="-1"/>
            </Node>
          </Node>
        </Node>
      </Node>
    </BinaryTree>
    <BinaryTree type="DecisionTree" boostWeight="1.0000000000000000e+00" itree="38">
      <Node pos="s" depth="0" NCoef="0" IVar="1" Cut="3.9771892130374908e-02" cType="1" res="-7.0156611502170563e-02" rms="3.7401303648948669e-01" purity="3.1797578930854797e-01" nType="0">
        <Node pos="l" depth="1" NCoef="0" IVar="-1" Cut="0.0000000000000000e+00" cType="1" res="3.7974910810589790e-03" rms="4.2271751165390015e-01" purity="5.6631302833557129e-01" nType="1"/>
        <Node pos="r" depth="1" NCoef="0" IVar="4" Cut="4.4927534461021423e-01" cType="1" res="-1.9285732507705688e-01" rms="2.7217823266983032e-01" purity="1.0615554451942444e-01" nType="0">
          <Node pos="l" depth="2" NCoef="0" IVar="-1" Cut="0.0000000000000000e+00" cType="1" res="-8.9639974758028984e-03" rms="3.2904422283172607e-01" purity="1.6812698543071747e-01" nType="-1"/>
          <Node pos="r" depth="2" NCoef="0" IVar="3" Cut="8.2556807994842529e-01" cType="0" res="-2.4932794272899628e-01" rms="1.4851859211921692e-01" purity="2.1889034658670425e-02" nType="0">
            <Node pos="l" depth="3" NCoef="0" IVar="-1" Cut="0.0000000000000000e+00" cType="1" res="-2.4329977110028267e-02" rms="2.7039927244186401e-01" purity="8.6897559463977814e-02" nType="-1"/>
            <Node pos="r" depth="3" NCoef="0" IVar="8" Cut="9.4327199459075928e-01" cType="0" res="-2.4350585043430328e-01" rms="1.3925570249557495e-01" purity="2.0249482244253159e-02" nType="0">
              <Node pos="l" depth="4" NCoef="0" IVar="-1" Cut="0.0000000000000000e+00" cType="1" res="-1.6411690041422844e-02" rms="1.5956227481365204e-01" purity="2.9562259092926979e-02" nType="-1"/>
              <Node pos="r" depth="4" NCoef="0" IVar="-1" Cut="0.0000000000000000e+00" cType="1" res="-1.5194362029433250e-02" rms="1.2323752790689468e-01" purity="1.6025573015213013e-02" nType="-1"/>
            </Node>
          </Node>
        </Node>
      </Node>
    </BinaryTree>
    <BinaryTree type="DecisionTree" boostWeight="1.0000000000000000e+00" itree="39">
      <Node pos="s" depth="0" NCoef="0" IVar="8" Cut="9.7834098339080811e-01" cType="0" res="-6.8428002297878265e-02" rms="3.7277978658676147e-01" purity="3.1797578930854797e-01" nType="0">
        <Node pos="l" depth="1" NCoef="0" IVar="-1" Cut="0.0000000000000000e+00" cType="1" res="7.6062204316258430e-03" rms="3.8564211130142212e-01" purity="6.8365484476089478e-01" nType="1"/>
        <Node pos="r" depth="1" NCoef="0" IVar="3" Cut="8.9163190126419067e-01" cType="0" res="-1.4581324160099030e-01" rms="3.3538427948951721e-01" purity="1.8970215320587158e-01" nType="0">
          <Node pos="l" depth="2" NCoef="0" IVar="-1" Cut="0.0000000000000000e+00" cType="1" res="6.5156077034771442e-03" rms="4.2964348196983337e-01" purity="7.2563380002975464e-01" nType="1"/>
          <Node pos="r" depth="2" NCoef="0" IVar="7" Cut="-5.3934216499328613e+00" cType="1" res="-1.6720730066299438e-01" rms="3.1707048416137695e-01" purity="1.4759454131126404e-01" nType="0">
            <Node pos="l" depth="3" NCoef="0" IVar="-1" Cut="0.0000000000000000e+00" cType="1" res="-4.9770409241318703e-03" rms="3.8979119062423706e-01" purity="2.5790199637413025e-01" nType="-1"/>
            <Node pos="r" depth="3" NCoef="0" IVar="2" Cut="2.3200327530503273e-02" cType="0" res="-2.1642668545246124e-01" rms="2.5026881694793701e-01" purity="7.9940780997276306e-02" nType="0">
              <Node pos="l" depth="4" NCoef="0" IVar="-1" Cut="0.0000000000000000e+00" cType="1" res="-1.2172442860901356e-02" rms="2.5882723927497864e-01" purity="9.0063713490962982e-02" nType="-1"/>
              <Node pos="r" depth="4" NCoef="0" IVar="-1" Cut="0.0000000000000000e+00" cType="1" res="-1.5519059263169765e-02" rms="2.2660918533802032e-01" purity="6.0669571161270142e-02" nType="-1"/>
            </Node>
          </Node>
        </Node>
      </Node>
    </BinaryTree>
    <BinaryTree type="DecisionTree" boostWeight="1.0000000000000000e+00" itree="40">
      <Node pos="s" depth="0" NCoef="0" IVar="1" Cut="3.7173729389905930e-02" cType="1" res="-6.6712632775306702e-02" rms="3.7123322486877441e-01" purity="3.1797578930854797e-01" nType="0">
        <Node pos="l" depth="1" NCoef="0" IVar="-1" Cut="0.0000000000000000e+00" cType="1" res="3.8783256895840168e-03" rms="4.2128324508666992e-01" purity="5.7175296545028687e-01" nType="1"/>
        <Node pos="r" depth="1" NCoef="0" IVar="4" Cut="4.4927534461021423e-01" cType="1" res="-1.8328104913234711e-01" rms="2.7405703067779541e-01" purity="1.0959196835756302e-01" nType="0">
          <Node pos="l" depth="2" NCoef="0" IVar="-1" Cut="0.0000000000000000e+00" cType="1" res="-8.4878234192728996e-03" rms="3.3147117495536804e-01" purity="1.7354217171669006e-01" nType="-1"/>
          <Node pos="r" depth="2" NCoef="0" IVar="3" Cut="8.2556807994842529e-01" cType="0" res="-2.3965248465538025e-01" rms="1.4955721795558929e-01" purity="2.2728070616722107e-02" nType="0">
            <Node pos="l" depth="3" NCoef="0" IVar="-1" Cut="0.0000000000000000e+00" cType="1" res="-2.2051323205232620e-02" rms="3.1834843754768372e-01" purity="1.2317773699760437e-01" nType="-1"/>
            <Node pos="r" depth="3" NCoef="0" IVar="8" Cut="9.4327199459075928e-01" cType="0" res="-2.3458623886108398e-01" rms="1.3889482617378235e-01" purity="2.0093780010938644e-02" nType="0">
              <Node pos="l" depth="4" NCoef="0" IVar="-1" Cut="0.0000000000000000e+00" cType="1" res="-1.6171881929039955e-02" rms="1.6072483360767365e-01" purity="2.9964113608002663e-02" nType="-1"/>
              <Node pos="r" depth="4" NCoef="0" IVar="-1" Cut="0.0000000000000000e+00" cType="1" res="-1.5020387247204781e-02" rms="1.2216873466968536e-01" purity="1.5683248639106750e-02" nType="-1"/>
            </Node>
          </Node>
        </Node>
      </Node>
    </BinaryTree>
    <BinaryTree type="DecisionTree" boostWeight="1.0000000000000000e+00" itree="41">
      <Node pos="s" depth="0" NCoef="0" IVar="8" Cut="9.2805212736129761e-01" cType="0" res="-6.5065264701843262e-02" rms="3.7006855010986328e-01" purity="3.1797578930854797e-01" nType="0">
        <Node pos="l" depth="1" NCoef="0" IVar="-1" Cut="0.0000000000000000e+00" cType="1" res="4.0772180072963238e-03" rms="4.0277457237243652e-01" purity="5.5995035171508789e-01" nType="1"/>
        <Node pos="r" depth="1" NCoef="0" IVar="0" Cut="2.3954126518219709e-03" cType="1" res="-1.7862635850906372e-01" rms="2.9623073339462280e-01" purity="1.2633663415908813e-01" nType="0">
          <Node pos="l" depth="2" NCoef="0" IVar="-1" Cut="0.0000000000000000e+00" cType="1" res="-4.7212373465299606e-03" rms="3.9405885338783264e-01" purity="2.8726974129676819e-01" nType="-1"/>
          <Node pos="r" depth="2" NCoef="0" IVar="2" Cut="2.2401893511414528e-02" cType="0" res="-2.0559799671173096e-01" rms="2.5711116194725037e-01" purity="8.2907974720001221e-02" nType="0">
            <Node pos="l" depth="3" NCoef="0" IVar="-1" Cut="0.0000000000000000e+00" cType="1" res="-1.1384022422134876e-02" rms="2.6679375767707825e-01" purity="9.3812622129917145e-02" nType="-1"/>
            <Node pos="r" depth="3" NCoef="0" IVar="3" Cut="7.7580291032791138e-01" cType="0" res="-2.4913424253463745e-01" rms="2.3536610603332520e-01" purity="6.6703937947750092e-02" nType="0">
              <Node pos="l" depth="4" NCoef="0" IVar="-1" Cut="0.0000000000000000e+00" cType="1" res="-1.5513817779719830e-02" rms="3.3556744456291199e-01" purity="1.4814533293247223e-01" nType="-1"/>
              <Node pos="r" depth="4" NCoef="0" IVar="-1" Cut="0.0000000000000000e+00" cType="1" res="-1.4319034293293953e-02" rms="1.6306084394454956e-01" purity="2.9919473454356194e-02" nType="-1"/>
            </Node>
          </Node>
        </Node>
      </Node>
    </BinaryTree>
    <BinaryTree type="DecisionTree" boostWeight="1.0000000000000000e+00" itree="42">
      <Node pos="s" depth="0" NCoef="0" IVar="3" Cut="7.7547574043273926e-01" cType="0" res="-6.3460148870944977e-02" rms="3.6887648701667786e-01" purity="3.1797578930854797e-01" nType="0">
        <Node pos="l" depth="1" NCoef="0" IVar="-1" Cut="0.0000000000000000e+00" cType="1" res="5.7046804577112198e-03" rms="4.1310524940490723e-01" purity="6.8656057119369507e-01" nType="1"/>
        <Node pos="r" depth="1" NCoef="0" IVar="2" Cut="1.3252094388008118e-01" cType="0" res="-1.5398323535919189e-01" rms="3.0685129761695862e-01" purity="1.2873174250125885e-01" nType="0">
          <Node pos="l" depth="2" NCoef="0" IVar="-1" Cut="0.0000000000000000e+00" cType="1" res="4.5480271801352501e-03" rms="4.4941723346710205e-01" purity="4.2489129304885864e-01" nType="-1"/>
          <Node pos="r" depth="2" NCoef="0" IVar="5" Cut="1.7941806316375732e+00" cType="1" res="-1.7276692390441895e-01" rms="2.8428560495376587e-01" purity="1.0531903803348541e-01" nType="0">
            <Node pos="l" depth="3" NCoef="0" IVar="-1" Cut="0.0000000000000000e+00" cType="1" res="-6.4117563888430595e-03" rms="3.6870023608207703e-01" purity="1.9609323143959045e-01" nType="-1"/>
            <Node pos="r" depth="3" NCoef="0" IVar="8" Cut="9.5690637826919556e-01" cType="0" res="-2.1789324283599854e-01" rms="1.9038484990596771e-01" purity="3.9926689118146896e-02" nType="0">
              <Node pos="l" depth="4" NCoef="0" IVar="-1" Cut="0.0000000000000000e+00" cType="1" res="-1.4770728535950184e-02" rms="2.3081509768962860e-01" purity="6.3275232911109924e-02" nType="-1"/>
              <Node pos="r" depth="4" NCoef="0" IVar="-1" Cut="0.0000000000000000e+00" cType="1" res="-1.4050338417291641e-02" rms="1.7217041552066803e-01" purity="3.2379787415266037e-02" nType="-1"/>
            </Node>
          </Node>
        </Node>
      </Node>
    </BinaryTree>
    <BinaryTree type="DecisionTree" boostWeight="1.0000000000000000e+00" itree="43">
      <Node pos="s" depth="0" NCoef="0" IVar="8" Cut="9.7834098339080811e-01" cType="0" res="-6.1888597905635834e-02" rms="3.6755257844924927e-01" purity="3.1797578930854797e-01" nType="0">
        <Node pos="l" depth="1" NCoef="0" IVar="-1" Cut="0.0000000000000000e+00" cType="1" res="7.4174110777676105e-03" rms="3.8189879059791565e-01" purity="6.8365484476089478e-01" nType="1"/>
        <Node pos="r" depth="1" NCoef="0" IVar="0" Cut="1.6767887398600578e-02" cType="1" res="-1.3524807989597321e-01" rms="3.3256578445434570e-01" purity="1.8970215320587158e-01" nType="0">
          <Node pos="l" depth="2" NCoef="0" IVar="-1" Cut="0.0000000000000000e+00" cType="1" res="-1.4201605226844549e-03" rms="4.0234366059303284e-01" purity="3.7686350941658020e-01" nType="-1"/>
          <Node pos="r" depth="2" NCoef="0" IVar="8" Cut="8.2778650522232056e-01" cType="0" res="-1.8305508792400360e-01" rms="2.8441986441612244e-01" purity="1.0896278172731400e-01" nType="0">
            <Node pos="l" depth="3" NCoef="0" IVar="-1" Cut="0.0000000000000000e+00" cType="1" res="-7.2760605253279209e-03" rms="3.6047706007957458e-01" purity="2.0082235336303711e-01" nType="-1"/>
            <Node pos="r" depth="3" NCoef="0" IVar="3" Cut="8.3256757259368896e-01" cType="0" res="-2.1668937802314758e-01" rms="2.2240547835826874e-01" purity="5.5884778499603271e-02" nType="0">
              <Node pos="l" depth="4" NCoef="0" IVar="-1" Cut="0.0000000000000000e+00" cType="1" res="-1.6975529491901398e-02" rms="3.6195185780525208e-01" purity="1.6288095712661743e-01" nType="-1"/>
              <Node pos="r" depth="4" NCoef="0" IVar="-1" Cut="0.0000000000000000e+00" cType="1" res="-1.3592454604804516e-02" rms="2.0303468406200409e-01" purity="4.7533918172121048e-02" nType="-1"/>
            </Node>
          </Node>
        </Node>
      </Node>
    </BinaryTree>
    <BinaryTree type="DecisionTree" boostWeight="1.0000000000000000e+00" itree="44">
      <Node pos="s" depth="0" NCoef="0" IVar="1" Cut="3.9771892130374908e-02" cType="1" res="-6.0349654406309128e-02" rms="3.6623418331146240e-01" purity="3.1797578930854797e-01" nType="0">
        <Node pos="l" depth="1" NCoef="0" IVar="-1" Cut="0.0000000000000000e+00" cType="1" res="3.7944293580949306e-03" rms="4.1624188423156738e-01" purity="5.6631302833557129e-01" nType="1"/>
        <Node pos="r" depth="1" NCoef="0" IVar="4" Cut="4.4927534461021423e-01" cType="1" res="-1.7383384704589844e-01" rms="2.6976656913757324e-01" purity="1.0615554451942444e-01" nType="0">
          <Node pos="l" depth="2" NCoef="0" IVar="-1" Cut="0.0000000000000000e+00" cType="1" res="-8.2974918186664581e-03" rms="3.2621070742607117e-01" purity="1.6812698543071747e-01" nType="-1"/>
          <Node pos="r" depth="2" NCoef="0" IVar="3" Cut="8.2556807994842529e-01" cType="0" res="-2.2653986513614655e-01" rms="1.4903508126735687e-01" purity="2.1889034658670425e-02" nType="0">
            <Node pos="l" depth="3" NCoef="0" IVar="-1" Cut="0.0000000000000000e+00" cType="1" res="-2.2870017215609550e-02" rms="2.6886510848999023e-01" purity="8.6897559463977814e-02" nType="-1"/>
            <Node pos="r" depth="3" NCoef="0" IVar="8" Cut="9.4327199459075928e-01" cType="0" res="-2.2078111767768860e-01" rms="1.4000141620635986e-01" purity="2.0249482244253159e-02" nType="0">
              <Node pos="l" depth="4" NCoef="0" IVar="-1" Cut="0.0000000000000000e+00" cType="1" res="-1.5922356396913528e-02" rms="1.5978109836578369e-01" purity="2.9562259092926979e-02" nType="-1"/>
              <Node pos="r" depth="4" NCoef="0" IVar="-1" Cut="0.0000000000000000e+00" cType="1" res="-1.4603557065129280e-02" rms="1.2316629290580750e-01" purity="1.6025573015213013e-02" nType="-1"/>
            </Node>
          </Node>
        </Node>
      </Node>
    </BinaryTree>
    <BinaryTree type="DecisionTree" boostWeight="1.0000000000000000e+00" itree="45">
      <Node pos="s" depth="0" NCoef="0" IVar="8" Cut="9.2805212736129761e-01" cType="0" res="-5.8861020952463150e-02" rms="3.6515128612518311e-01" purity="3.1797578930854797e-01" nType="0">
        <Node pos="l" depth="1" NCoef="0" IVar="-1" Cut="0.0000000000000000e+00" cType="1" res="4.0501793846487999e-03" rms="3.9841327071189880e-01" purity="5.5995035171508789e-01" nType="1"/>
        <Node pos="r" depth="1" NCoef="0" IVar="8" Cut="5.8896762132644653e-01" cType="0" res="-1.6652379930019379e-01" rms="2.9494729638099670e-01" purity="1.2633663415908813e-01" nType="0">
          <Node pos="l" depth="2" NCoef="0" IVar="-1" Cut="0.0000000000000000e+00" cType="1" res="-6.8324753083288670e-03" rms="3.4983772039413452e-01" purity="2.0447504520416260e-01" nType="-1"/>
          <Node pos="r" depth="2" NCoef="0" IVar="3" Cut="8.1395244598388672e-01" cType="0" res="-2.1170483529567719e-01" rms="2.3079267144203186e-01" purity="6.1838299036026001e-02" nType="0">
            <Node pos="l" depth="3" NCoef="0" IVar="-1" Cut="0.0000000000000000e+00" cType="1" res="-1.6246333718299866e-02" rms="3.7555602192878723e-01" purity="1.8837663531303406e-01" nType="-1"/>
            <Node pos="r" depth="3" NCoef="0" IVar="0" Cut="5.3678788244724274e-02" cType="1" res="-1.9637146592140198e-01" rms="1.9817394018173218e-01" purity="4.4476270675659180e-02" nType="0">
              <Node pos="l" depth="4" NCoef="0" IVar="-1" Cut="0.0000000000000000e+00" cType="1" res="-1.0926094837486744e-02" rms="2.7149483561515808e-01" purity="9.0101279318332672e-02" nType="-1"/>
              <Node pos="r" depth="4" NCoef="0" IVar="-1" Cut="0.0000000000000000e+00" cType="1" res="-1.4827738516032696e-02" rms="1.4685350656509399e-01" purity="2.2148108109831810e-02" nType="-1"/>
            </Node>
          </Node>
        </Node>
      </Node>
    </BinaryTree>
