<?xml version="1.0"?>
<MethodSetup Method="BDT::BDTG">
  <GeneralInfo>
    <Info name="TMVA Release" value="4.1.0 [262400]"/>
    <Info name="ROOT Release" value="5.28/00 [334848]"/>
    <Info name="Creator" value="mdjordje"/>
    <Info name="Date" value="Fri Sep  5 12:31:03 2014"/>
    <Info name="Host" value="Linux lxbuild148.cern.ch 2.6.18-194.26.1.el5 #1 SMP Wed Nov 10 09:45:46 CET 2010 x86_64 x86_64 x86_64 GNU/Linux"/>
    <Info name="Dir" value="/afs/cern.ch/user/m/mdjordje/CMSSW_7_0_6_patch1/src/CMGTools/TTHAnalysis/macros/leptons"/>
    <Info name="Training events" value="1016"/>
    <Info name="TrainingTime" value="4.08637"/>
    <Info name="AnalysisType" value="Classification"/>
  </GeneralInfo>
  <Options>
    <Option name="V" modified="Yes">False</Option>
    <Option name="VerbosityLevel" modified="No">Default</Option>
    <Option name="VarTransform" modified="No">None</Option>
    <Option name="H" modified="Yes">False</Option>
    <Option name="CreateMVAPdfs" modified="Yes">True</Option>
    <Option name="IgnoreNegWeightsInTraining" modified="No">False</Option>
    <Option name="NTrees" modified="Yes">500</Option>
    <Option name="RenormByClass" modified="No">False</Option>
    <Option name="BoostType" modified="Yes">Grad</Option>
    <Option name="AdaBoostR2Loss" modified="No">quadratic</Option>
    <Option name="UseBaggedGrad" modified="Yes">False</Option>
    <Option name="GradBaggingFraction" modified="No">6.000000e-01</Option>
    <Option name="Shrinkage" modified="Yes">1.000000e-01</Option>
    <Option name="AdaBoostBeta" modified="No">1.000000e+00</Option>
    <Option name="UseRandomisedTrees" modified="No">False</Option>
    <Option name="UseNvars" modified="Yes">9</Option>
    <Option name="UsePoissonNvars" modified="No">True</Option>
    <Option name="UseNTrainEvents" modified="No">1016</Option>
    <Option name="UseWeightedTrees" modified="No">True</Option>
    <Option name="UseYesNoLeaf" modified="No">True</Option>
    <Option name="NodePurityLimit" modified="No">5.000000e-01</Option>
    <Option name="SeparationType" modified="No">giniindex</Option>
    <Option name="nEventsMin" modified="Yes">100</Option>
    <Option name="nCuts" modified="Yes">2000</Option>
    <Option name="UseFisherCuts" modified="No">False</Option>
    <Option name="MinLinCorrForFisher" modified="No">8.000000e-01</Option>
    <Option name="UseExclusiveVars" modified="No">False</Option>
    <Option name="PruneStrength" modified="Yes">5.000000e+00</Option>
    <Option name="PruneMethod" modified="Yes">costcomplexity</Option>
    <Option name="PruneBeforeBoost" modified="No">False</Option>
    <Option name="PruningValFraction" modified="No">5.000000e-01</Option>
    <Option name="NNodesMax" modified="Yes">9</Option>
    <Option name="MaxDepth" modified="Yes">8</Option>
  </Options>
  <Variables NVar="9">
    <Variable VarIndex="0" Expression="relIso03-chargedHadRelIso03" Label="neuRelIso03" Title="neuRelIso03" Unit="" Internal="neuRelIso03" Type="D" Min="0" Max="0.398247"/>
    <Variable VarIndex="1" Expression="chargedHadRelIso03" Label="chRelIso03" Title="chRelIso03" Unit="" Internal="chRelIso03" Type="D" Min="0" Max="0.398226"/>
    <Variable VarIndex="2" Expression="min(jetDR,0.5)" Label="jetDR" Title="jetDR" Unit="" Internal="jetDR" Type="D" Min="0" Max="0.370368"/>
    <Variable VarIndex="3" Expression="min(jetPtRatio,1.5)" Label="jetPtRatio" Title="jetPtRatio" Unit="" Internal="jetPtRatio" Type="D" Min="0.0521215" Max="1"/>
    <Variable VarIndex="4" Expression="max(jetBTagCSV,0)" Label="jetBTagCSV" Title="jetBTagCSV" Unit="" Internal="jetBTagCSV" Type="D" Min="0" Max="0.999986"/>
    <Variable VarIndex="5" Expression="sip3d" Label="sip3d" Title="sip3d" Unit="" Internal="sip3d" Type="D" Min="0.046981" Max="64.1623"/>
    <Variable VarIndex="6" Expression="log(abs(dxy))" Label="dxy" Title="dxy" Unit="" Internal="dxy" Type="D" Min="-12.245" Max="-2.99895"/>
    <Variable VarIndex="7" Expression="log(abs(dz))" Label="dz" Title="dz" Unit="" Internal="dz" Type="D" Min="-12.8229" Max="-1.64533"/>
    <Variable VarIndex="8" Expression="mvaId" Label="mvaId" Title="mvaId" Unit="" Internal="mvaId" Type="D" Min="0.073567" Max="0.969025"/>
  </Variables>
  <Spectators NSpec="0"/>
  <Transformations NTransformations="0"/>
  <MVAPdfs>
    <PDF Name="BDTG_PDFSig" MinNSmooth="0" MaxNSmooth="0" InterpolMethod="2" KDE_type="1" KDE_iter="1" KDE_border="1" KDE_finefactor="1.0000000000000000e+00">
      <Histogram Name="BDT_tr_S_original" NBins="20" XMin="-9.9987679719924927e-01" XMax="8.7489014863967896e-01" HasEquidistantBins="1">
        0.0568543 0.0663709 0.0238104 0.104251 0.172669 0.0252164 0.0916488 0.143331 0.00765702 0.331964 0.272907 0.433915 0.572345 0.921641 0.364173 1.149 0.968528 1.81307 1.62702 1.52162 
      </Histogram>
    </PDF>
    <PDF Name="BDTG_PDFBkg" MinNSmooth="0" MaxNSmooth="0" InterpolMethod="2" KDE_type="1" KDE_iter="1" KDE_border="1" KDE_finefactor="1.0000000000000000e+00">
      <Histogram Name="BDT_tr_B_original" NBins="20" XMin="-9.9987679719924927e-01" XMax="8.7489014863967896e-01" HasEquidistantBins="1">
        8.15692 1.04874 0.305178 0.367403 0.178222 0.0727404 0.163692 0.071702 0.0277695 0.157359 0.00384468 0.01627 0.00358243 0.0793332 0.00283461 0.00659717 0.000708652 0.000955401 0.0014173 0.00272294 
      </Histogram>
    </PDF>
  </MVAPdfs>
  <Weights NTrees="500" AnalysisType="1">
    <BinaryTree type="DecisionTree" boostWeight="1.0000000000000000e+00" itree="0">
      <Node pos="s" depth="0" NCoef="0" IVar="5" Cut="2.6743972301483154e+00" cType="1" res="-3.4550201892852783e-01" rms="3.6142542958259583e-01" purity="1.5449796617031097e-01" nType="0">
        <Node pos="l" depth="1" NCoef="0" IVar="-1" Cut="0.0000000000000000e+00" cType="1" res="-8.1469686701893806e-03" rms="4.7230750322341919e-01" purity="3.3590966463088989e-01" nType="-1"/>
        <Node pos="r" depth="1" NCoef="0" IVar="4" Cut="9.9448904395103455e-02" cType="1" res="-4.7992810606956482e-01" rms="1.4024628698825836e-01" purity="2.0071899518370628e-02" nType="0">
          <Node pos="l" depth="2" NCoef="0" IVar="-1" Cut="0.0000000000000000e+00" cType="1" res="-1.9377332180738449e-02" rms="2.7476519346237183e-01" purity="8.2263141870498657e-02" nType="-1"/>
          <Node pos="r" depth="2" NCoef="0" IVar="4" Cut="5.8257305622100830e-01" cType="1" res="-4.9916818737983704e-01" rms="2.8829120099544525e-02" purity="8.3181005902588367e-04" nType="0">
            <Node pos="l" depth="3" NCoef="0" IVar="-1" Cut="0.0000000000000000e+00" cType="1" res="-2.4387067183852196e-02" rms="4.4655464589595795e-02" purity="1.9981027580797672e-03" nType="-1"/>
            <Node pos="r" depth="3" NCoef="0" IVar="5" Cut="9.0399580001831055e+00" cType="0" res="-4.9981030821800232e-01" rms="1.3771549798548222e-02" purity="1.8969154916703701e-04" nType="0">
              <Node pos="l" depth="4" NCoef="0" IVar="-1" Cut="0.0000000000000000e+00" cType="1" res="-2.4984089657664299e-02" rms="2.5646414607763290e-02" purity="6.5817177528515458e-04" nType="-1"/>
              <Node pos="r" depth="4" NCoef="0" IVar="-1" Cut="0.0000000000000000e+00" cType="1" res="-2.3674925789237022e-02" rms="0.0000000000000000e+00" purity="0.0000000000000000e+00" nType="-1"/>
            </Node>
          </Node>
        </Node>
      </Node>
    </BinaryTree>
    <BinaryTree type="DecisionTree" boostWeight="1.0000000000000000e+00" itree="1">
      <Node pos="s" depth="0" NCoef="0" IVar="5" Cut="2.6743972301483154e+00" cType="1" res="-3.3715307712554932e-01" rms="3.5979533195495605e-01" purity="1.5449796617031097e-01" nType="0">
        <Node pos="l" depth="1" NCoef="0" IVar="-1" Cut="0.0000000000000000e+00" cType="1" res="-7.9452553763985634e-03" rms="4.7230750322341919e-01" purity="3.3590966463088989e-01" nType="-1"/>
        <Node pos="r" depth="1" NCoef="0" IVar="4" Cut="9.9448904395103455e-02" cType="1" res="-4.6841093897819519e-01" rms="1.3999961316585541e-01" purity="2.0071899518370628e-02" nType="0">
          <Node pos="l" depth="2" NCoef="0" IVar="-1" Cut="0.0000000000000000e+00" cType="1" res="-1.8935073167085648e-02" rms="2.7476522326469421e-01" purity="8.2263141870498657e-02" nType="-1"/>
          <Node pos="r" depth="2" NCoef="0" IVar="4" Cut="5.8257305622100830e-01" cType="1" res="-4.8708498477935791e-01" rms="2.8834592550992966e-02" purity="8.3181005902588367e-04" nType="0">
            <Node pos="l" depth="3" NCoef="0" IVar="-1" Cut="0.0000000000000000e+00" cType="1" res="-2.3804223164916039e-02" rms="4.4655464589595795e-02" purity="1.9981027580797672e-03" nType="-1"/>
            <Node pos="r" depth="3" NCoef="0" IVar="5" Cut="9.0399580001831055e+00" cType="0" res="-4.8778653144836426e-01" rms="1.3781147077679634e-02" purity="1.8969154916703701e-04" nType="0">
              <Node pos="l" depth="4" NCoef="0" IVar="-1" Cut="0.0000000000000000e+00" cType="1" res="-2.4374401196837425e-02" rms="2.5646414607763290e-02" purity="6.5817177528515458e-04" nType="-1"/>
              <Node pos="r" depth="4" NCoef="0" IVar="-1" Cut="0.0000000000000000e+00" cType="1" res="-2.3127486929297447e-02" rms="-nan" purity="0.0000000000000000e+00" nType="-1"/>
            </Node>
          </Node>
        </Node>
      </Node>
    </BinaryTree>
    <BinaryTree type="DecisionTree" boostWeight="1.0000000000000000e+00" itree="2">
      <Node pos="s" depth="0" NCoef="0" IVar="5" Cut="2.6743972301483154e+00" cType="1" res="-3.2900947332382202e-01" rms="3.5823616385459900e-01" purity="1.5449796617031097e-01" nType="0">
        <Node pos="l" depth="1" NCoef="0" IVar="-1" Cut="0.0000000000000000e+00" cType="1" res="-7.7495258301496506e-03" rms="4.7230750322341919e-01" purity="3.3590966463088989e-01" nType="-1"/>
        <Node pos="r" depth="1" NCoef="0" IVar="4" Cut="9.9448904395103455e-02" cType="1" res="-4.5717623829841614e-01" rms="1.3976722955703735e-01" purity="2.0071899518370628e-02" nType="0">
          <Node pos="l" depth="2" NCoef="0" IVar="-1" Cut="0.0000000000000000e+00" cType="1" res="-1.8516330048441887e-02" rms="2.7476522326469421e-01" purity="8.2263141870498657e-02" nType="-1"/>
          <Node pos="r" depth="2" NCoef="0" IVar="4" Cut="5.8257305622100830e-01" cType="1" res="-4.7530102729797363e-01" rms="2.8841793537139893e-02" purity="8.3181005902588367e-04" nType="0">
            <Node pos="l" depth="3" NCoef="0" IVar="-1" Cut="0.0000000000000000e+00" cType="1" res="-2.3261960595846176e-02" rms="4.4655464589595795e-02" purity="1.9981027580797672e-03" nType="-1"/>
            <Node pos="r" depth="3" NCoef="0" IVar="5" Cut="9.0399580001831055e+00" cType="0" res="-4.7605869174003601e-01" rms="1.3796138577163219e-02" purity="1.8969154916703701e-04" nType="0">
              <Node pos="l" depth="4" NCoef="0" IVar="-1" Cut="0.0000000000000000e+00" cType="1" res="-2.3808198049664497e-02" rms="2.5646414607763290e-02" purity="6.5817177528515458e-04" nType="-1"/>
              <Node pos="r" depth="4" NCoef="0" IVar="-1" Cut="0.0000000000000000e+00" cType="1" res="-2.2617161273956299e-02" rms="1.2904783908140871e-08" purity="0.0000000000000000e+00" nType="-1"/>
            </Node>
          </Node>
        </Node>
      </Node>
    </BinaryTree>
    <BinaryTree type="DecisionTree" boostWeight="1.0000000000000000e+00" itree="3">
      <Node pos="s" depth="0" NCoef="0" IVar="5" Cut="2.6743972301483154e+00" cType="1" res="-3.2106590270996094e-01" rms="3.5674488544464111e-01" purity="1.5449796617031097e-01" nType="0">
        <Node pos="l" depth="1" NCoef="0" IVar="-1" Cut="0.0000000000000000e+00" cType="1" res="-7.5595136731863022e-03" rms="4.7230750322341919e-01" purity="3.3590966463088989e-01" nType="-1"/>
        <Node pos="r" depth="1" NCoef="0" IVar="4" Cut="9.9448904395103455e-02" cType="1" res="-4.4621646404266357e-01" rms="1.3954828679561615e-01" purity="2.0071899518370628e-02" nType="0">
          <Node pos="l" depth="2" NCoef="0" IVar="-1" Cut="0.0000000000000000e+00" cType="1" res="-1.8119096755981445e-02" rms="2.7476519346237183e-01" purity="8.2263141870498657e-02" nType="-1"/>
          <Node pos="r" depth="2" NCoef="0" IVar="4" Cut="5.8257305622100830e-01" cType="1" res="-4.6380829811096191e-01" rms="2.8850426897406578e-02" purity="8.3181005902588367e-04" nType="0">
            <Node pos="l" depth="3" NCoef="0" IVar="-1" Cut="0.0000000000000000e+00" cType="1" res="-2.2756300866603851e-02" rms="4.4655460864305496e-02" purity="1.9981027580797672e-03" nType="-1"/>
            <Node pos="r" depth="3" NCoef="0" IVar="5" Cut="9.0399580001831055e+00" cType="0" res="-4.6461892127990723e-01" rms="1.3815635815262794e-02" purity="1.8969154916703701e-04" nType="0">
              <Node pos="l" depth="4" NCoef="0" IVar="-1" Cut="0.0000000000000000e+00" cType="1" res="-2.3281125351786613e-02" rms="2.5646414607763290e-02" purity="6.5817177528515458e-04" nType="-1"/>
              <Node pos="r" depth="4" NCoef="0" IVar="-1" Cut="0.0000000000000000e+00" cType="1" res="-2.2140411660075188e-02" rms="2.6863450131031641e-08" purity="0.0000000000000000e+00" nType="-1"/>
            </Node>
          </Node>
        </Node>
      </Node>
    </BinaryTree>
    <BinaryTree type="DecisionTree" boostWeight="1.0000000000000000e+00" itree="4">
      <Node pos="s" depth="0" NCoef="0" IVar="3" Cut="7.3756885528564453e-01" cType="0" res="-3.1331709027290344e-01" rms="3.5531869530677795e-01" purity="1.5449796617031097e-01" nType="0">
        <Node pos="l" depth="1" NCoef="0" IVar="-1" Cut="0.0000000000000000e+00" cType="1" res="-4.9418276175856590e-03" rms="4.7746410965919495e-01" purity="3.7097185850143433e-01" nType="-1"/>
        <Node pos="r" depth="1" NCoef="0" IVar="5" Cut="1.3286473751068115e+00" cType="1" res="-4.1181853413581848e-01" rms="2.1916344761848450e-01" purity="5.2516441792249680e-02" nType="0">
          <Node pos="l" depth="2" NCoef="0" IVar="-1" Cut="0.0000000000000000e+00" cType="1" res="-1.2554817833006382e-02" rms="4.2070302367210388e-01" purity="2.2979831695556641e-01" nType="-1"/>
          <Node pos="r" depth="2" NCoef="0" IVar="0" Cut="1.5703001618385315e-01" cType="0" res="-4.4062551856040955e-01" rms="1.3804432749748230e-01" purity="2.0052624866366386e-02" nType="0">
            <Node pos="l" depth="3" NCoef="0" IVar="-1" Cut="0.0000000000000000e+00" cType="1" res="-2.0478662103414536e-02" rms="2.6725459098815918e-01" purity="8.1001915037631989e-02" nType="-1"/>
            <Node pos="r" depth="3" NCoef="0" IVar="1" Cut="3.3434264361858368e-02" cType="1" res="-4.5102962851524353e-01" rms="9.4362348318099976e-02" purity="9.0618729591369629e-03" nType="0">
              <Node pos="l" depth="4" NCoef="0" IVar="-1" Cut="0.0000000000000000e+00" cType="1" res="-2.1180899813771248e-02" rms="1.7173857986927032e-01" purity="3.1102364882826805e-02" nType="-1"/>
              <Node pos="r" depth="4" NCoef="0" IVar="-1" Cut="0.0000000000000000e+00" cType="1" res="-2.2460974752902985e-02" rms="2.8258023783564568e-02" purity="6.6633988171815872e-04" nType="-1"/>
            </Node>
          </Node>
        </Node>
      </Node>
    </BinaryTree>
    <BinaryTree type="DecisionTree" boostWeight="1.0000000000000000e+00" itree="5">
      <Node pos="s" depth="0" NCoef="0" IVar="5" Cut="2.6743972301483154e+00" cType="1" res="-3.0564385652542114e-01" rms="3.5366404056549072e-01" purity="1.5449796617031097e-01" nType="0">
        <Node pos="l" depth="1" NCoef="0" IVar="-1" Cut="0.0000000000000000e+00" cType="1" res="-7.0942803286015987e-03" rms="4.7077548503875732e-01" purity="3.3590966463088989e-01" nType="-1"/>
        <Node pos="r" depth="1" NCoef="0" IVar="8" Cut="5.7914668321609497e-01" cType="1" res="-4.2644494771957397e-01" rms="1.3873469829559326e-01" purity="2.0071899518370628e-02" nType="0">
          <Node pos="l" depth="2" NCoef="0" IVar="-1" Cut="0.0000000000000000e+00" cType="1" res="-1.8208015710115433e-02" rms="2.5444951653480530e-01" purity="7.1457363665103912e-02" nType="-1"/>
          <Node pos="r" depth="2" NCoef="0" IVar="1" Cut="2.8855701908469200e-02" cType="0" res="-4.4308042526245117e-01" rms="5.8256827294826508e-02" purity="3.4452204126864672e-03" nType="0">
            <Node pos="l" depth="3" NCoef="0" IVar="6" Cut="-3.9456334114074707e+00" cType="0" res="-4.3943613767623901e-01" rms="6.9355070590972900e-02" purity="4.9631237052381039e-03" nType="0">
              <Node pos="l" depth="4" NCoef="0" IVar="-1" Cut="0.0000000000000000e+00" cType="1" res="-2.2780990228056908e-02" rms="1.1401538550853729e-01" purity="1.3575986027717590e-02" nType="-1"/>
              <Node pos="r" depth="4" NCoef="0" IVar="-1" Cut="0.0000000000000000e+00" cType="1" res="-2.1832834929227829e-02" rms="1.8143525347113609e-02" purity="3.1754092196933925e-04" nType="-1"/>
            </Node>
            <Node pos="r" depth="3" NCoef="0" IVar="-1" Cut="0.0000000000000000e+00" cType="1" res="-2.0532077178359032e-02" rms="3.4989397972822189e-02" purity="1.1731238337233663e-03" nType="-1"/>
          </Node>
        </Node>
      </Node>
    </BinaryTree>
    <BinaryTree type="DecisionTree" boostWeight="1.0000000000000000e+00" itree="6">
      <Node pos="s" depth="0" NCoef="0" IVar="3" Cut="7.3756885528564453e-01" cType="0" res="-2.9827478528022766e-01" rms="3.5234114527702332e-01" purity="1.5449796617031097e-01" nType="0">
        <Node pos="l" depth="1" NCoef="0" IVar="-1" Cut="0.0000000000000000e+00" cType="1" res="-4.5527257025241852e-03" rms="4.7600984573364258e-01" purity="3.7097185850143433e-01" nType="-1"/>
        <Node pos="r" depth="1" NCoef="0" IVar="5" Cut="1.3286473751068115e+00" cType="1" res="-3.9366233348846436e-01" rms="2.1787926554679871e-01" purity="5.2516441792249680e-02" nType="0">
          <Node pos="l" depth="2" NCoef="0" IVar="-1" Cut="0.0000000000000000e+00" cType="1" res="-1.2090570293366909e-02" rms="4.2070305347442627e-01" purity="2.2979831695556641e-01" nType="-1"/>
          <Node pos="r" depth="2" NCoef="0" IVar="0" Cut="1.5703001618385315e-01" cType="0" res="-4.2094051837921143e-01" rms="1.3764519989490509e-01" purity="2.0052624866366386e-02" nType="0">
            <Node pos="l" depth="3" NCoef="0" IVar="-1" Cut="0.0000000000000000e+00" cType="1" res="-1.9634040072560310e-02" rms="2.6606833934783936e-01" purity="8.1001915037631989e-02" nType="-1"/>
            <Node pos="r" depth="3" NCoef="0" IVar="1" Cut="3.3434264361858368e-02" cType="1" res="-4.3110680580139160e-01" rms="9.4448298215866089e-02" purity="9.0618729591369629e-03" nType="0">
              <Node pos="l" depth="4" NCoef="0" IVar="-1" Cut="0.0000000000000000e+00" cType="1" res="-2.0403396338224411e-02" rms="1.7154681682586670e-01" purity="3.1102364882826805e-02" nType="-1"/>
              <Node pos="r" depth="4" NCoef="0" IVar="-1" Cut="0.0000000000000000e+00" cType="1" res="-2.1654661744832993e-02" rms="2.9404634609818459e-02" purity="6.6633988171815872e-04" nType="-1"/>
            </Node>
          </Node>
        </Node>
      </Node>
    </BinaryTree>
    <BinaryTree type="DecisionTree" boostWeight="1.0000000000000000e+00" itree="7">
      <Node pos="s" depth="0" NCoef="0" IVar="3" Cut="7.3756885528564453e-01" cType="0" res="-2.9097339510917664e-01" rms="3.5078835487365723e-01" purity="1.5449796617031097e-01" nType="0">
        <Node pos="l" depth="1" NCoef="0" IVar="-1" Cut="0.0000000000000000e+00" cType="1" res="-4.4479658827185631e-03" rms="4.7601470351219177e-01" purity="3.7097185850143433e-01" nType="-1"/>
        <Node pos="r" depth="1" NCoef="0" IVar="5" Cut="1.3286473751068115e+00" cType="1" res="-3.8398760557174683e-01" rms="2.1739208698272705e-01" purity="5.2516441792249680e-02" nType="0">
          <Node pos="l" depth="2" NCoef="0" IVar="-1" Cut="0.0000000000000000e+00" cType="1" res="-1.1809122748672962e-02" rms="4.2070305347442627e-01" purity="2.2979831695556641e-01" nType="-1"/>
          <Node pos="r" depth="2" NCoef="0" IVar="0" Cut="1.5703001618385315e-01" cType="0" res="-4.1059756278991699e-01" rms="1.3757896423339844e-01" purity="2.0052624866366386e-02" nType="0">
            <Node pos="l" depth="3" NCoef="0" IVar="-1" Cut="0.0000000000000000e+00" cType="1" res="-1.9201749935746193e-02" rms="2.6609438657760620e-01" purity="8.1001915037631989e-02" nType="-1"/>
            <Node pos="r" depth="3" NCoef="0" IVar="1" Cut="3.3434264361858368e-02" cType="1" res="-4.2064204812049866e-01" rms="9.4406463205814362e-02" purity="9.0618729591369629e-03" nType="0">
              <Node pos="l" depth="4" NCoef="0" IVar="-1" Cut="0.0000000000000000e+00" cType="1" res="-2.0011011511087418e-02" rms="1.7155399918556213e-01" purity="3.1102364882826805e-02" nType="-1"/>
              <Node pos="r" depth="4" NCoef="0" IVar="-1" Cut="0.0000000000000000e+00" cType="1" res="-2.1250519901514053e-02" rms="2.9371324926614761e-02" purity="6.6633988171815872e-04" nType="-1"/>
            </Node>
          </Node>
        </Node>
      </Node>
    </BinaryTree>
    <BinaryTree type="DecisionTree" boostWeight="1.0000000000000000e+00" itree="8">
      <Node pos="s" depth="0" NCoef="0" IVar="5" Cut="2.6743972301483154e+00" cType="1" res="-2.8385299444198608e-01" rms="3.4930595755577087e-01" purity="1.5449796617031097e-01" nType="0">
        <Node pos="l" depth="1" NCoef="0" IVar="-1" Cut="0.0000000000000000e+00" cType="1" res="-6.4007351174950600e-03" rms="4.6788626909255981e-01" purity="3.3590966463088989e-01" nType="-1"/>
        <Node pos="r" depth="1" NCoef="0" IVar="8" Cut="5.7914668321609497e-01" cType="1" res="-3.9918431639671326e-01" rms="1.3768734037876129e-01" purity="2.0071899518370628e-02" nType="0">
          <Node pos="l" depth="2" NCoef="0" IVar="-1" Cut="0.0000000000000000e+00" cType="1" res="-1.7194256186485291e-02" rms="2.5216287374496460e-01" purity="7.1457363665103912e-02" nType="-1"/>
          <Node pos="r" depth="2" NCoef="0" IVar="1" Cut="2.8855701908469200e-02" cType="0" res="-4.1542404890060425e-01" rms="5.8640651404857635e-02" purity="3.4452204126864672e-03" nType="0">
            <Node pos="l" depth="3" NCoef="0" IVar="6" Cut="-3.9456334114074707e+00" cType="0" res="-4.0902507305145264e-01" rms="6.8679906427860260e-02" purity="4.9631237052381039e-03" nType="0">
              <Node pos="l" depth="4" NCoef="0" IVar="-1" Cut="0.0000000000000000e+00" cType="1" res="-2.1549934521317482e-02" rms="1.1253259330987930e-01" purity="1.3575986027717590e-02" nType="-1"/>
              <Node pos="r" depth="4" NCoef="0" IVar="-1" Cut="0.0000000000000000e+00" cType="1" res="-2.0706761628389359e-02" rms="1.9095716997981071e-02" purity="3.1754092196933925e-04" nType="-1"/>
            </Node>
            <Node pos="r" depth="3" NCoef="0" IVar="-1" Cut="0.0000000000000000e+00" cType="1" res="-1.9693080335855484e-02" rms="3.7045780569314957e-02" purity="1.1731238337233663e-03" nType="-1"/>
          </Node>
        </Node>
      </Node>
    </BinaryTree>
    <BinaryTree type="DecisionTree" boostWeight="1.0000000000000000e+00" itree="9">
      <Node pos="s" depth="0" NCoef="0" IVar="5" Cut="1.3286473751068115e+00" cType="1" res="-2.7701857686042786e-01" rms="3.4808889031410217e-01" purity="1.5449796617031097e-01" nType="0">
        <Node pos="l" depth="1" NCoef="0" IVar="-1" Cut="0.0000000000000000e+00" cType="1" res="-1.7363049555569887e-03" rms="4.9301943182945251e-01" purity="4.2996978759765625e-01" nType="-1"/>
        <Node pos="r" depth="1" NCoef="0" IVar="3" Cut="7.3614776134490967e-01" cType="0" res="-3.4881478548049927e-01" rms="2.4986596405506134e-01" purity="7.2607733309268951e-02" nType="0">
          <Node pos="l" depth="2" NCoef="0" IVar="-1" Cut="0.0000000000000000e+00" cType="1" res="-1.0480048134922981e-02" rms="4.1024491190910339e-01" purity="2.2643317282199860e-01" nType="-1"/>
          <Node pos="r" depth="2" NCoef="0" IVar="0" Cut="1.5703001618385315e-01" cType="0" res="-3.9229530096054077e-01" rms="1.3725413382053375e-01" purity="2.0052624866366386e-02" nType="0">
            <Node pos="l" depth="3" NCoef="0" IVar="-1" Cut="0.0000000000000000e+00" cType="1" res="-1.8472153693437576e-02" rms="2.6500102877616882e-01" purity="8.1001915037631989e-02" nType="-1"/>
            <Node pos="r" depth="3" NCoef="0" IVar="1" Cut="3.3434264361858368e-02" cType="1" res="-4.0211364626884460e-01" rms="9.4558529555797577e-02" purity="9.0618729591369629e-03" nType="0">
              <Node pos="l" depth="4" NCoef="0" IVar="-1" Cut="0.0000000000000000e+00" cType="1" res="-1.9350478425621986e-02" rms="1.7140117287635803e-01" purity="3.1102364882826805e-02" nType="-1"/>
              <Node pos="r" depth="4" NCoef="0" IVar="-1" Cut="0.0000000000000000e+00" cType="1" res="-2.0578660070896149e-02" rms="3.0620360746979713e-02" purity="6.6633988171815872e-04" nType="-1"/>
            </Node>
          </Node>
        </Node>
      </Node>
    </BinaryTree>
    <BinaryTree type="DecisionTree" boostWeight="1.0000000000000000e+00" itree="10">
      <Node pos="s" depth="0" NCoef="0" IVar="3" Cut="7.3756885528564453e-01" cType="0" res="-2.7027291059494019e-01" rms="3.4656149148941040e-01" purity="1.5449796617031097e-01" nType="0">
        <Node pos="l" depth="1" NCoef="0" IVar="-1" Cut="0.0000000000000000e+00" cType="1" res="-3.9295367896556854e-03" rms="4.7387152910232544e-01" purity="3.7097185850143433e-01" nType="-1"/>
        <Node pos="r" depth="1" NCoef="0" IVar="4" Cut="2.0739345252513885e-01" cType="1" res="-3.5884347558021545e-01" rms="2.1541079878807068e-01" purity="5.2516441792249680e-02" nType="0">
          <Node pos="l" depth="2" NCoef="0" IVar="-1" Cut="0.0000000000000000e+00" cType="1" res="-1.2490970082581043e-02" rms="3.7678423523902893e-01" purity="1.8444097042083740e-01" nType="-1"/>
          <Node pos="r" depth="2" NCoef="0" IVar="0" Cut="1.4747685194015503e-01" cType="0" res="-3.8945525884628296e-01" rms="1.3036541640758514e-01" purity="1.8185958266258240e-02" nType="0">
            <Node pos="l" depth="3" NCoef="0" IVar="-1" Cut="0.0000000000000000e+00" cType="1" res="-1.7353223636746407e-02" rms="2.7058759331703186e-01" purity="8.6849831044673920e-02" nType="-1"/>
            <Node pos="r" depth="3" NCoef="0" IVar="5" Cut="2.2198793888092041e+00" cType="1" res="-4.0019136667251587e-01" rms="8.2293830811977386e-02" purity="6.6818762570619583e-03" nType="0">
              <Node pos="l" depth="4" NCoef="0" IVar="-1" Cut="0.0000000000000000e+00" cType="1" res="-2.1975915879011154e-02" rms="1.0265190154314041e-01" purity="1.0697052814066410e-02" nType="-1"/>
              <Node pos="r" depth="4" NCoef="0" IVar="-1" Cut="0.0000000000000000e+00" cType="1" res="-1.9599316641688347e-02" rms="7.0217624306678772e-02" purity="5.3040781058371067e-03" nType="-1"/>
            </Node>
          </Node>
        </Node>
      </Node>
    </BinaryTree>
    <BinaryTree type="DecisionTree" boostWeight="1.0000000000000000e+00" itree="11">
      <Node pos="s" depth="0" NCoef="0" IVar="5" Cut="2.6743972301483154e+00" cType="1" res="-2.6366880536079407e-01" rms="3.4519788622856140e-01" purity="1.5449796617031097e-01" nType="0">
        <Node pos="l" depth="1" NCoef="0" IVar="-1" Cut="0.0000000000000000e+00" cType="1" res="-5.7785259559750557e-03" rms="4.6500152349472046e-01" purity="3.3590966463088989e-01" nType="-1"/>
        <Node pos="r" depth="1" NCoef="0" IVar="8" Cut="5.7914668321609497e-01" cType="1" res="-3.7371015548706055e-01" rms="1.3706161081790924e-01" purity="2.0071899518370628e-02" nType="0">
          <Node pos="l" depth="2" NCoef="0" IVar="-1" Cut="0.0000000000000000e+00" cType="1" res="-1.6300110146403313e-02" rms="2.5047487020492554e-01" purity="7.1457363665103912e-02" nType="-1"/>
          <Node pos="r" depth="2" NCoef="0" IVar="3" Cut="7.2146296501159668e-01" cType="0" res="-3.8963139057159424e-01" rms="5.9393718838691711e-02" purity="3.4452204126864672e-03" nType="0">
            <Node pos="l" depth="3" NCoef="0" IVar="-1" Cut="0.0000000000000000e+00" cType="1" res="-1.9413461908698082e-02" rms="1.1833884567022324e-01" purity="1.4181564562022686e-02" nType="-1"/>
            <Node pos="r" depth="3" NCoef="0" IVar="4" Cut="5.3622448444366455e-01" cType="1" res="-3.8409009575843811e-01" rms="2.0658966153860092e-02" purity="4.1026904364116490e-04" nType="0">
              <Node pos="l" depth="4" NCoef="0" IVar="-1" Cut="0.0000000000000000e+00" cType="1" res="-1.9670171663165092e-02" rms="2.9143936932086945e-02" purity="8.2473095972090960e-04" nType="-1"/>
              <Node pos="r" depth="4" NCoef="0" IVar="-1" Cut="0.0000000000000000e+00" cType="1" res="-1.9584745168685913e-02" rms="1.5287396498024464e-02" purity="2.2827350767329335e-04" nType="-1"/>
            </Node>
          </Node>
        </Node>
      </Node>
    </BinaryTree>
    <BinaryTree type="DecisionTree" boostWeight="1.0000000000000000e+00" itree="12">
      <Node pos="s" depth="0" NCoef="0" IVar="5" Cut="1.3286473751068115e+00" cType="1" res="-2.5733432173728943e-01" rms="3.4407803416252136e-01" purity="1.5449796617031097e-01" nType="0">
        <Node pos="l" depth="1" NCoef="0" IVar="-1" Cut="0.0000000000000000e+00" cType="1" res="-1.3111255830153823e-03" rms="4.9141994118690491e-01" purity="4.2996978759765625e-01" nType="-1"/>
        <Node pos="r" depth="1" NCoef="0" IVar="3" Cut="7.3614776134490967e-01" cType="0" res="-3.2588663697242737e-01" rms="2.4756090342998505e-01" purity="7.2607733309268951e-02" nType="0">
          <Node pos="l" depth="2" NCoef="0" IVar="-1" Cut="0.0000000000000000e+00" cType="1" res="-9.8993927240371704e-03" rms="4.0891274809837341e-01" purity="2.2643317282199860e-01" nType="-1"/>
          <Node pos="r" depth="2" NCoef="0" IVar="0" Cut="1.5703001618385315e-01" cType="0" res="-3.6624109745025635e-01" rms="1.3675647974014282e-01" purity="2.0052624866366386e-02" nType="0">
            <Node pos="l" depth="3" NCoef="0" IVar="-1" Cut="0.0000000000000000e+00" cType="1" res="-1.7494784668087959e-02" rms="2.6377171277999878e-01" purity="8.1001915037631989e-02" nType="-1"/>
            <Node pos="r" depth="3" NCoef="0" IVar="1" Cut="3.3434264361858368e-02" cType="1" res="-3.7566339969635010e-01" rms="9.4591014087200165e-02" purity="9.0618729591369629e-03" nType="0">
              <Node pos="l" depth="4" NCoef="0" IVar="-1" Cut="0.0000000000000000e+00" cType="1" res="-1.8446490168571472e-02" rms="1.7101539671421051e-01" purity="3.1102364882826805e-02" nType="-1"/>
              <Node pos="r" depth="4" NCoef="0" IVar="-1" Cut="0.0000000000000000e+00" cType="1" res="-1.9693814218044281e-02" rms="3.1731355935335159e-02" purity="6.6633988171815872e-04" nType="-1"/>
            </Node>
          </Node>
        </Node>
      </Node>
    </BinaryTree>
    <BinaryTree type="DecisionTree" boostWeight="1.0000000000000000e+00" itree="13">
      <Node pos="s" depth="0" NCoef="0" IVar="3" Cut="7.3756885528564453e-01" cType="0" res="-2.5107204914093018e-01" rms="3.4268844127655029e-01" purity="1.5449796617031097e-01" nType="0">
        <Node pos="l" depth="1" NCoef="0" IVar="-1" Cut="0.0000000000000000e+00" cType="1" res="-3.4522346686571836e-03" rms="4.7179758548736572e-01" purity="3.7097185850143433e-01" nType="-1"/>
        <Node pos="r" depth="1" NCoef="0" IVar="4" Cut="2.0739345252513885e-01" cType="1" res="-3.3548313379287720e-01" rms="2.1364806592464447e-01" purity="5.2516441792249680e-02" nType="0">
          <Node pos="l" depth="2" NCoef="0" IVar="-1" Cut="0.0000000000000000e+00" cType="1" res="-1.1709576472640038e-02" rms="3.7430566549301147e-01" purity="1.8444097042083740e-01" nType="-1"/>
          <Node pos="r" depth="2" NCoef="0" IVar="0" Cut="1.4747685194015503e-01" cType="0" res="-3.6476606130599976e-01" rms="1.3004574179649353e-01" purity="1.8185958266258240e-02" nType="0">
            <Node pos="l" depth="3" NCoef="0" IVar="-1" Cut="0.0000000000000000e+00" cType="1" res="-1.6457233577966690e-02" rms="2.6856288313865662e-01" purity="8.6849831044673920e-02" nType="-1"/>
            <Node pos="r" depth="3" NCoef="0" IVar="5" Cut="2.2198793888092041e+00" cType="1" res="-3.7518367171287537e-01" rms="8.3095893263816833e-02" purity="6.6818762570619583e-03" nType="0">
              <Node pos="l" depth="4" NCoef="0" IVar="-1" Cut="0.0000000000000000e+00" cType="1" res="-2.1223176270723343e-02" rms="1.0289814323186874e-01" purity="1.0697052814066410e-02" nType="-1"/>
              <Node pos="r" depth="4" NCoef="0" IVar="-1" Cut="0.0000000000000000e+00" cType="1" res="-1.8749363720417023e-02" rms="6.9967113435268402e-02" purity="5.3040781058371067e-03" nType="-1"/>
            </Node>
          </Node>
        </Node>
      </Node>
    </BinaryTree>
    <BinaryTree type="DecisionTree" boostWeight="1.0000000000000000e+00" itree="14">
      <Node pos="s" depth="0" NCoef="0" IVar="5" Cut="2.6743972301483154e+00" cType="1" res="-2.4493923783302307e-01" rms="3.4143456816673279e-01" purity="1.5449796617031097e-01" nType="0">
        <Node pos="l" depth="1" NCoef="0" IVar="-1" Cut="0.0000000000000000e+00" cType="1" res="-5.2072159014642239e-03" rms="4.6228954195976257e-01" purity="3.3590966463088989e-01" nType="-1"/>
        <Node pos="r" depth="1" NCoef="0" IVar="8" Cut="5.7914668321609497e-01" cType="1" res="-3.5001495480537415e-01" rms="1.3660275936126709e-01" purity="2.0071899518370628e-02" nType="0">
          <Node pos="l" depth="2" NCoef="0" IVar="-1" Cut="0.0000000000000000e+00" cType="1" res="-1.5511213801801205e-02" rms="2.4897846579551697e-01" purity="7.1457363665103912e-02" nType="-1"/>
          <Node pos="r" depth="2" NCoef="0" IVar="3" Cut="7.2146296501159668e-01" cType="0" res="-3.6563721299171448e-01" rms="6.0347456485033035e-02" purity="3.4452204126864672e-03" nType="0">
            <Node pos="l" depth="3" NCoef="0" IVar="-1" Cut="0.0000000000000000e+00" cType="1" res="-1.8835954368114471e-02" rms="1.1848592758178711e-01" purity="1.4181564562022686e-02" nType="-1"/>
            <Node pos="r" depth="3" NCoef="0" IVar="4" Cut="5.3622448444366455e-01" cType="1" res="-3.5799068212509155e-01" rms="2.0915372297167778e-02" purity="4.1026904364116490e-04" nType="0">
              <Node pos="l" depth="4" NCoef="0" IVar="-1" Cut="0.0000000000000000e+00" cType="1" res="-1.8898965790867805e-02" rms="2.9383847489953041e-02" purity="8.2473095972090960e-04" nType="-1"/>
              <Node pos="r" depth="4" NCoef="0" IVar="-1" Cut="0.0000000000000000e+00" cType="1" res="-1.8774215131998062e-02" rms="1.5385253354907036e-02" purity="2.2827350767329335e-04" nType="-1"/>
            </Node>
          </Node>
        </Node>
      </Node>
    </BinaryTree>
    <BinaryTree type="DecisionTree" boostWeight="1.0000000000000000e+00" itree="15">
      <Node pos="s" depth="0" NCoef="0" IVar="5" Cut="1.3286473751068115e+00" cType="1" res="-2.3906107246875763e-01" rms="3.4040325880050659e-01" purity="1.5449796617031097e-01" nType="0">
        <Node pos="l" depth="1" NCoef="0" IVar="-1" Cut="0.0000000000000000e+00" cType="1" res="-9.2475616838783026e-04" rms="4.8987963795661926e-01" purity="4.2996978759765625e-01" nType="-1"/>
        <Node pos="r" depth="1" NCoef="0" IVar="5" Cut="2.7715134620666504e+00" cType="1" res="-3.0454134941101074e-01" rms="2.4549853801727295e-01" purity="7.2607733309268951e-02" nType="0">
          <Node pos="l" depth="2" NCoef="0" IVar="-1" Cut="0.0000000000000000e+00" cType="1" res="-1.0377302765846252e-02" rms="4.0172258019447327e-01" purity="2.1805429458618164e-01" nType="-1"/>
          <Node pos="r" depth="2" NCoef="0" IVar="8" Cut="5.5160194635391235e-01" cType="1" res="-3.4503662586212158e-01" rms="1.2509125471115112e-01" purity="1.6942955553531647e-02" nType="0">
            <Node pos="l" depth="3" NCoef="0" IVar="-1" Cut="0.0000000000000000e+00" cType="1" res="-1.5296434052288532e-02" rms="2.4455365538597107e-01" purity="6.9595396518707275e-02" nType="-1"/>
            <Node pos="r" depth="3" NCoef="0" IVar="3" Cut="7.2904223203659058e-01" cType="0" res="-3.5669961571693420e-01" rms="6.2052167952060699e-02" purity="3.6826098803430796e-03" nType="0">
              <Node pos="l" depth="4" NCoef="0" IVar="-1" Cut="0.0000000000000000e+00" cType="1" res="-1.8119571730494499e-02" rms="1.2461160123348236e-01" purity="1.5773652121424675e-02" nType="-1"/>
              <Node pos="r" depth="4" NCoef="0" IVar="-1" Cut="0.0000000000000000e+00" cType="1" res="-1.8732592463493347e-02" rms="2.3907931521534920e-02" purity="5.4437242215499282e-04" nType="-1"/>
            </Node>
          </Node>
        </Node>
      </Node>
    </BinaryTree>
    <BinaryTree type="DecisionTree" boostWeight="1.0000000000000000e+00" itree="16">
      <Node pos="s" depth="0" NCoef="0" IVar="3" Cut="7.3756885528564453e-01" cType="0" res="-2.3330110311508179e-01" rms="3.3917382359504700e-01" purity="1.5449796617031097e-01" nType="0">
        <Node pos="l" depth="1" NCoef="0" IVar="-1" Cut="0.0000000000000000e+00" cType="1" res="-2.9404452070593834e-03" rms="4.6898096799850464e-01" purity="3.7097185850143433e-01" nType="-1"/>
        <Node pos="r" depth="1" NCoef="0" IVar="4" Cut="2.0739345252513885e-01" cType="1" res="-3.1456878781318665e-01" rms="2.1211940050125122e-01" purity="5.2516441792249680e-02" nType="0">
          <Node pos="l" depth="2" NCoef="0" IVar="-1" Cut="0.0000000000000000e+00" cType="1" res="-1.1028610169887543e-02" rms="3.7201321125030518e-01" purity="1.8444097042083740e-01" nType="-1"/>
          <Node pos="r" depth="2" NCoef="0" IVar="0" Cut="1.4747685194015503e-01" cType="0" res="-3.4262546896934509e-01" rms="1.2991307675838470e-01" purity="1.8185958266258240e-02" nType="0">
            <Node pos="l" depth="3" NCoef="0" IVar="-1" Cut="0.0000000000000000e+00" cType="1" res="-1.5673765912652016e-02" rms="2.6657333970069885e-01" purity="8.6849831044673920e-02" nType="-1"/>
            <Node pos="r" depth="3" NCoef="0" IVar="5" Cut="2.2198793888092041e+00" cType="1" res="-3.5281819105148315e-01" rms="8.4115035831928253e-02" purity="6.6818762570619583e-03" nType="0">
              <Node pos="l" depth="4" NCoef="0" IVar="-1" Cut="0.0000000000000000e+00" cType="1" res="-2.0637290552258492e-02" rms="1.0308741778135300e-01" purity="1.0697052814066410e-02" nType="-1"/>
              <Node pos="r" depth="4" NCoef="0" IVar="-1" Cut="0.0000000000000000e+00" cType="1" res="-1.8034486100077629e-02" rms="6.9654397666454315e-02" purity="5.3040781058371067e-03" nType="-1"/>
            </Node>
          </Node>
        </Node>
      </Node>
    </BinaryTree>
    <BinaryTree type="DecisionTree" boostWeight="1.0000000000000000e+00" itree="17">
      <Node pos="s" depth="0" NCoef="0" IVar="5" Cut="1.3286473751068115e+00" cType="1" res="-2.2760297358036041e-01" rms="3.3799892663955688e-01" purity="1.5449796617031097e-01" nType="0">
        <Node pos="l" depth="1" NCoef="0" IVar="-1" Cut="0.0000000000000000e+00" cType="1" res="-6.8715785164386034e-04" rms="4.8837339878082275e-01" purity="4.2996978759765625e-01" nType="-1"/>
        <Node pos="r" depth="1" NCoef="0" IVar="5" Cut="2.7715134620666504e+00" cType="1" res="-2.9112261533737183e-01" rms="2.4432627856731415e-01" purity="7.2607733309268951e-02" nType="0">
          <Node pos="l" depth="2" NCoef="0" IVar="-1" Cut="0.0000000000000000e+00" cType="1" res="-9.8961926996707916e-03" rms="4.0024152398109436e-01" purity="2.1805429458618164e-01" nType="-1"/>
          <Node pos="r" depth="2" NCoef="0" IVar="8" Cut="5.5160194635391235e-01" cType="1" res="-3.3063706755638123e-01" rms="1.2486776709556580e-01" purity="1.6942955553531647e-02" nType="0">
            <Node pos="l" depth="3" NCoef="0" IVar="-1" Cut="0.0000000000000000e+00" cType="1" res="-1.4865080825984478e-02" rms="2.4362342059612274e-01" purity="6.9595396518707275e-02" nType="-1"/>
            <Node pos="r" depth="3" NCoef="0" IVar="3" Cut="7.2904223203659058e-01" cType="0" res="-3.4198504686355591e-01" rms="6.2697194516658783e-02" purity="3.6826098803430796e-03" nType="0">
              <Node pos="l" depth="4" NCoef="0" IVar="-1" Cut="0.0000000000000000e+00" cType="1" res="-1.7796035856008530e-02" rms="1.2464208155870438e-01" purity="1.5773652121424675e-02" nType="-1"/>
              <Node pos="r" depth="4" NCoef="0" IVar="-1" Cut="0.0000000000000000e+00" cType="1" res="-1.8285410478711128e-02" rms="2.4130761623382568e-02" purity="5.4437242215499282e-04" nType="-1"/>
            </Node>
          </Node>
        </Node>
      </Node>
    </BinaryTree>
    <BinaryTree type="DecisionTree" boostWeight="1.0000000000000000e+00" itree="18">
      <Node pos="s" depth="0" NCoef="0" IVar="3" Cut="7.3756885528564453e-01" cType="0" res="-2.2212266921997070e-01" rms="3.3683323860168457e-01" purity="1.5449796617031097e-01" nType="0">
        <Node pos="l" depth="1" NCoef="0" IVar="-1" Cut="0.0000000000000000e+00" cType="1" res="-2.6728305965662003e-03" rms="4.6753895282745361e-01" purity="3.7097185850143433e-01" nType="-1"/>
        <Node pos="r" depth="1" NCoef="0" IVar="4" Cut="2.0739345252513885e-01" cType="1" res="-3.0084261298179626e-01" rms="2.1113030612468719e-01" purity="5.2516441792249680e-02" nType="0">
          <Node pos="l" depth="2" NCoef="0" IVar="-1" Cut="0.0000000000000000e+00" cType="1" res="-1.0604753158986568e-02" rms="3.7076416611671448e-01" purity="1.8444097042083740e-01" nType="-1"/>
          <Node pos="r" depth="2" NCoef="0" IVar="0" Cut="1.4747685194015503e-01" cType="0" res="-3.2795301079750061e-01" rms="1.2978473305702209e-01" purity="1.8185958266258240e-02" nType="0">
            <Node pos="l" depth="3" NCoef="0" IVar="-1" Cut="0.0000000000000000e+00" cType="1" res="-1.5176592394709587e-02" rms="2.6563936471939087e-01" purity="8.6849831044673920e-02" nType="-1"/>
            <Node pos="r" depth="3" NCoef="0" IVar="5" Cut="2.2198793888092041e+00" cType="1" res="-3.3792898058891296e-01" rms="8.4558650851249695e-02" purity="6.6818762570619583e-03" nType="0">
              <Node pos="l" depth="4" NCoef="0" IVar="-1" Cut="0.0000000000000000e+00" cType="1" res="-2.0190319046378136e-02" rms="1.0330817848443985e-01" purity="1.0697052814066410e-02" nType="-1"/>
              <Node pos="r" depth="4" NCoef="0" IVar="-1" Cut="0.0000000000000000e+00" cType="1" res="-1.7605373635888100e-02" rms="6.9587819278240204e-02" purity="5.3040781058371067e-03" nType="-1"/>
            </Node>
          </Node>
        </Node>
      </Node>
    </BinaryTree>
    <BinaryTree type="DecisionTree" boostWeight="1.0000000000000000e+00" itree="19">
      <Node pos="s" depth="0" NCoef="0" IVar="5" Cut="1.3286473751068115e+00" cType="1" res="-2.1669827401638031e-01" rms="3.3572357892990112e-01" purity="1.5449796617031097e-01" nType="0">
        <Node pos="l" depth="1" NCoef="0" IVar="-1" Cut="0.0000000000000000e+00" cType="1" res="-4.6372320502996445e-04" rms="4.8691383004188538e-01" purity="4.2996978759765625e-01" nType="-1"/>
        <Node pos="r" depth="1" NCoef="0" IVar="5" Cut="2.7715134620666504e+00" cType="1" res="-2.7832984924316406e-01" rms="2.4323026835918427e-01" purity="7.2607733309268951e-02" nType="0">
          <Node pos="l" depth="2" NCoef="0" IVar="-1" Cut="0.0000000000000000e+00" cType="1" res="-9.4402628019452095e-03" rms="3.9883163571357727e-01" purity="2.1805429458618164e-01" nType="-1"/>
          <Node pos="r" depth="2" NCoef="0" IVar="8" Cut="5.5160194635391235e-01" cType="1" res="-3.1690084934234619e-01" rms="1.2470134347677231e-01" purity="1.6942955553531647e-02" nType="0">
            <Node pos="l" depth="3" NCoef="0" IVar="-1" Cut="0.0000000000000000e+00" cType="1" res="-1.4461862854659557e-02" rms="2.4276389181613922e-01" purity="6.9595396518707275e-02" nType="-1"/>
            <Node pos="r" depth="3" NCoef="0" IVar="3" Cut="7.2904223203659058e-01" cType="0" res="-3.2794764637947083e-01" rms="6.3385792076587677e-02" purity="3.6826098803430796e-03" nType="0">
              <Node pos="l" depth="4" NCoef="0" IVar="-1" Cut="0.0000000000000000e+00" cType="1" res="-1.7493359744548798e-02" rms="1.2467488646507263e-01" purity="1.5773652121424675e-02" nType="-1"/>
              <Node pos="r" depth="4" NCoef="0" IVar="-1" Cut="0.0000000000000000e+00" cType="1" res="-1.7879074439406395e-02" rms="2.4382323026657104e-02" purity="5.4437242215499282e-04" nType="-1"/>
            </Node>
          </Node>
        </Node>
      </Node>
    </BinaryTree>
    <BinaryTree type="DecisionTree" boostWeight="1.0000000000000000e+00" itree="20">
      <Node pos="s" depth="0" NCoef="0" IVar="3" Cut="7.3756885528564453e-01" cType="0" res="-2.1148388087749481e-01" rms="3.3461764454841614e-01" purity="1.5449796617031097e-01" nType="0">
        <Node pos="l" depth="1" NCoef="0" IVar="-1" Cut="0.0000000000000000e+00" cType="1" res="-2.4189588148146868e-03" rms="4.6613588929176331e-01" purity="3.7097185850143433e-01" nType="-1"/>
        <Node pos="r" depth="1" NCoef="0" IVar="6" Cut="-6.4136652946472168e+00" cType="1" res="-2.8775876760482788e-01" rms="2.1020954847335815e-01" purity="5.2516441792249680e-02" nType="0">
          <Node pos="l" depth="2" NCoef="0" IVar="-1" Cut="0.0000000000000000e+00" cType="1" res="-7.8980037942528725e-03" rms="4.0811106562614441e-01" purity="2.4065093696117401e-01" nType="-1"/>
          <Node pos="r" depth="2" NCoef="0" IVar="4" Cut="2.0739345252513885e-01" cType="1" res="-3.0606320500373840e-01" rms="1.6046981513500214e-01" purity="2.8764890506863594e-02" nType="0">
            <Node pos="l" depth="3" NCoef="0" IVar="-1" Cut="0.0000000000000000e+00" cType="1" res="-1.3048481196165085e-02" rms="3.1686726212501526e-01" purity="1.2604723870754242e-01" nType="-1"/>
            <Node pos="r" depth="3" NCoef="0" IVar="5" Cut="2.2518250942230225e+00" cType="1" res="-3.2230469584465027e-01" rms="9.0207256376743317e-02" purity="7.7478615567088127e-03" nType="0">
              <Node pos="l" depth="4" NCoef="0" IVar="-1" Cut="0.0000000000000000e+00" cType="1" res="-1.8732436001300812e-02" rms="1.2858869135379791e-01" purity="1.6453027725219727e-02" nType="-1"/>
              <Node pos="r" depth="4" NCoef="0" IVar="-1" Cut="0.0000000000000000e+00" cType="1" res="-1.7436565831303596e-02" rms="6.7646443843841553e-02" purity="4.9848719500005245e-03" nType="-1"/>
            </Node>
          </Node>
        </Node>
      </Node>
    </BinaryTree>
    <BinaryTree type="DecisionTree" boostWeight="1.0000000000000000e+00" itree="21">
      <Node pos="s" depth="0" NCoef="0" IVar="5" Cut="1.3286473751068115e+00" cType="1" res="-2.0633499324321747e-01" rms="3.3355304598808289e-01" purity="1.5449796617031097e-01" nType="0">
        <Node pos="l" depth="1" NCoef="0" IVar="-1" Cut="0.0000000000000000e+00" cType="1" res="-2.7253266307525337e-04" rms="4.8562902212142944e-01" purity="4.2996978759765625e-01" nType="-1"/>
        <Node pos="r" depth="1" NCoef="0" IVar="5" Cut="2.7715134620666504e+00" cType="1" res="-2.6603889465332031e-01" rms="2.4221603572368622e-01" purity="7.2607733309268951e-02" nType="0">
          <Node pos="l" depth="2" NCoef="0" IVar="-1" Cut="0.0000000000000000e+00" cType="1" res="-9.0077985078096390e-03" rms="3.9756676554679871e-01" purity="2.1805429458618164e-01" nType="-1"/>
          <Node pos="r" depth="2" NCoef="0" IVar="8" Cut="5.5160194635391235e-01" cType="1" res="-3.0365982651710510e-01" rms="1.2456601858139038e-01" purity="1.6942955553531647e-02" nType="0">
            <Node pos="l" depth="3" NCoef="0" IVar="-1" Cut="0.0000000000000000e+00" cType="1" res="-1.4090911485254765e-02" rms="2.4201765656471252e-01" purity="6.9595396518707275e-02" nType="-1"/>
            <Node pos="r" depth="3" NCoef="0" IVar="3" Cut="7.2904223203659058e-01" cType="0" res="-3.1431958079338074e-01" rms="6.4096778631210327e-02" purity="3.6826098803430796e-03" nType="0">
              <Node pos="l" depth="4" NCoef="0" IVar="-1" Cut="0.0000000000000000e+00" cType="1" res="-1.7209438607096672e-02" rms="1.2471036612987518e-01" purity="1.5773652121424675e-02" nType="-1"/>
              <Node pos="r" depth="4" NCoef="0" IVar="-1" Cut="0.0000000000000000e+00" cType="1" res="-1.7500970512628555e-02" rms="2.4514256045222282e-02" purity="5.4437242215499282e-04" nType="-1"/>
            </Node>
          </Node>
        </Node>
      </Node>
    </BinaryTree>
    <BinaryTree type="DecisionTree" boostWeight="1.0000000000000000e+00" itree="22">
      <Node pos="s" depth="0" NCoef="0" IVar="3" Cut="7.3756885528564453e-01" cType="0" res="-2.0137302577495575e-01" rms="3.3250692486763000e-01" purity="1.5449796617031097e-01" nType="0">
        <Node pos="l" depth="1" NCoef="0" IVar="-1" Cut="0.0000000000000000e+00" cType="1" res="-2.1778088994324207e-03" rms="4.6477201581001282e-01" purity="3.7097185850143433e-01" nType="-1"/>
        <Node pos="r" depth="1" NCoef="0" IVar="4" Cut="2.0739345252513885e-01" cType="1" res="-2.7530974149703979e-01" rms="2.0931184291839600e-01" purity="5.2516441792249680e-02" nType="0">
          <Node pos="l" depth="2" NCoef="0" IVar="-1" Cut="0.0000000000000000e+00" cType="1" res="-9.7907437011599541e-03" rms="3.6826735734939575e-01" purity="1.8444097042083740e-01" nType="-1"/>
          <Node pos="r" depth="2" NCoef="0" IVar="7" Cut="-5.4047069549560547e+00" cType="0" res="-3.0083143711090088e-01" rms="1.2948232889175415e-01" purity="1.8185958266258240e-02" nType="0">
            <Node pos="l" depth="3" NCoef="0" IVar="1" Cut="5.3932651877403259e-02" cType="1" res="-2.8865614533424377e-01" rms="1.3114692270755768e-01" purity="1.9993484020233154e-02" nType="0">
              <Node pos="l" depth="4" NCoef="0" IVar="-1" Cut="0.0000000000000000e+00" cType="1" res="-1.4666496776044369e-02" rms="2.1744021773338318e-01" purity="5.9409178793430328e-02" nType="-1"/>
              <Node pos="r" depth="4" NCoef="0" IVar="-1" Cut="0.0000000000000000e+00" cType="1" res="-1.7333300784230232e-02" rms="3.6684844642877579e-02" purity="6.2392087420448661e-04" nType="-1"/>
            </Node>
            <Node pos="r" depth="3" NCoef="0" IVar="-1" Cut="0.0000000000000000e+00" cType="1" res="-1.9651390612125397e-02" rms="1.0803247988224030e-01" purity="1.0559750720858574e-02" nType="-1"/>
          </Node>
        </Node>
      </Node>
    </BinaryTree>
    <BinaryTree type="DecisionTree" boostWeight="1.0000000000000000e+00" itree="23">
      <Node pos="s" depth="0" NCoef="0" IVar="5" Cut="2.5782723426818848e+00" cType="1" res="-1.9645272195339203e-01" rms="3.3150982856750488e-01" purity="1.5449796617031097e-01" nType="0">
        <Node pos="l" depth="1" NCoef="0" IVar="-1" Cut="0.0000000000000000e+00" cType="1" res="-3.6115895491093397e-03" rms="4.5583587884902954e-01" purity="3.3855396509170532e-01" nType="-1"/>
        <Node pos="r" depth="1" NCoef="0" IVar="8" Cut="5.7924807071685791e-01" cType="1" res="-2.8649485111236572e-01" rms="1.4270436763763428e-01" purity="2.2678693756461143e-02" nType="0">
          <Node pos="l" depth="2" NCoef="0" IVar="-1" Cut="0.0000000000000000e+00" cType="1" res="-1.3628842309117317e-02" rms="2.4594455957412720e-01" purity="7.1783401072025299e-02" nType="-1"/>
          <Node pos="r" depth="2" NCoef="0" IVar="3" Cut="7.1672594547271729e-01" cType="0" res="-3.0004280805587769e-01" rms="8.2771889865398407e-02" purity="7.0722149685025215e-03" nType="0">
            <Node pos="l" depth="3" NCoef="0" IVar="-1" Cut="0.0000000000000000e+00" cType="1" res="-1.7421143129467964e-02" rms="1.6096033155918121e-01" purity="2.8396777808666229e-02" nType="-1"/>
            <Node pos="r" depth="3" NCoef="0" IVar="4" Cut="5.2722913026809692e-01" cType="1" res="-2.9024434089660645e-01" rms="2.5057176128029823e-02" purity="5.6806730572134256e-04" nType="0">
              <Node pos="l" depth="4" NCoef="0" IVar="-1" Cut="0.0000000000000000e+00" cType="1" res="-1.7194671556353569e-02" rms="3.7343274801969528e-02" purity="1.3414261629804969e-03" nType="-1"/>
              <Node pos="r" depth="4" NCoef="0" IVar="-1" Cut="0.0000000000000000e+00" cType="1" res="-1.6965266317129135e-02" rms="1.5666194260120392e-02" purity="2.2803383762948215e-04" nType="-1"/>
            </Node>
          </Node>
        </Node>
      </Node>
    </BinaryTree>
    <BinaryTree type="DecisionTree" boostWeight="1.0000000000000000e+00" itree="24">
      <Node pos="s" depth="0" NCoef="0" IVar="5" Cut="1.3286473751068115e+00" cType="1" res="-1.9172222912311554e-01" rms="3.3069285750389099e-01" purity="1.5449796617031097e-01" nType="0">
        <Node pos="l" depth="1" NCoef="0" IVar="-1" Cut="0.0000000000000000e+00" cType="1" res="1.6574416804360226e-05" rms="4.8421546816825867e-01" purity="4.2996978759765625e-01" nType="-1"/>
        <Node pos="r" depth="1" NCoef="0" IVar="5" Cut="2.7715134620666504e+00" cType="1" res="-2.4881498515605927e-01" rms="2.4071222543716431e-01" purity="7.2607733309268951e-02" nType="0">
          <Node pos="l" depth="2" NCoef="0" IVar="-1" Cut="0.0000000000000000e+00" cType="1" res="-8.4964148700237274e-03" rms="3.9630979299545288e-01" purity="2.1805429458618164e-01" nType="-1"/>
          <Node pos="r" depth="2" NCoef="0" IVar="8" Cut="5.5160194635391235e-01" cType="1" res="-2.8426155447959900e-01" rms="1.2437210232019424e-01" purity="1.6942955553531647e-02" nType="0">
            <Node pos="l" depth="3" NCoef="0" IVar="-1" Cut="0.0000000000000000e+00" cType="1" res="-1.3542811386287212e-02" rms="2.4136823415756226e-01" purity="6.9595396518707275e-02" nType="-1"/>
            <Node pos="r" depth="3" NCoef="0" IVar="3" Cut="7.2904223203659058e-01" cType="0" res="-2.9441189765930176e-01" rms="6.4650759100914001e-02" purity="3.6826098803430796e-03" nType="0">
              <Node pos="l" depth="4" NCoef="0" IVar="-1" Cut="0.0000000000000000e+00" cType="1" res="-1.6714904457330704e-02" rms="1.2472832947969437e-01" purity="1.5773652121424675e-02" nType="-1"/>
              <Node pos="r" depth="4" NCoef="0" IVar="-1" Cut="0.0000000000000000e+00" cType="1" res="-1.6995264217257500e-02" rms="2.4738714098930359e-02" purity="5.4437242215499282e-04" nType="-1"/>
            </Node>
          </Node>
        </Node>
      </Node>
    </BinaryTree>
    <BinaryTree type="DecisionTree" boostWeight="1.0000000000000000e+00" itree="25">
      <Node pos="s" depth="0" NCoef="0" IVar="3" Cut="7.3756885528564453e-01" cType="0" res="-1.8711507320404053e-01" rms="3.2973477244377136e-01" purity="1.5449796617031097e-01" nType="0">
        <Node pos="l" depth="1" NCoef="0" IVar="-1" Cut="0.0000000000000000e+00" cType="1" res="-1.7620364669710398e-03" rms="4.6229153871536255e-01" purity="3.7097185850143433e-01" nType="-1"/>
        <Node pos="r" depth="1" NCoef="0" IVar="4" Cut="2.0739345252513885e-01" cType="1" res="-2.5847938656806946e-01" rms="2.0823360979557037e-01" purity="5.2516441792249680e-02" nType="0">
          <Node pos="l" depth="2" NCoef="0" IVar="-1" Cut="0.0000000000000000e+00" cType="1" res="-9.2519167810678482e-03" rms="3.6647719144821167e-01" purity="1.8444097042083740e-01" nType="-1"/>
          <Node pos="r" depth="2" NCoef="0" IVar="7" Cut="-5.4047069549560547e+00" cType="0" res="-2.8297376632690430e-01" rms="1.2957400083541870e-01" purity="1.8185958266258240e-02" nType="0">
            <Node pos="l" depth="3" NCoef="0" IVar="1" Cut="5.3932651877403259e-02" cType="1" res="-2.7008363604545593e-01" rms="1.3060760498046875e-01" purity="1.9993484020233154e-02" nType="0">
              <Node pos="l" depth="4" NCoef="0" IVar="-1" Cut="0.0000000000000000e+00" cType="1" res="-1.4106535352766514e-02" rms="2.1581812202930450e-01" purity="5.9409178793430328e-02" nType="-1"/>
              <Node pos="r" depth="4" NCoef="0" IVar="-1" Cut="0.0000000000000000e+00" cType="1" res="-1.6885327175259590e-02" rms="3.8813930004835129e-02" purity="6.2392087420448661e-04" nType="-1"/>
            </Node>
            <Node pos="r" depth="3" NCoef="0" IVar="-1" Cut="0.0000000000000000e+00" cType="1" res="-1.9205799326300621e-02" rms="1.0952626913785934e-01" purity="1.0559750720858574e-02" nType="-1"/>
          </Node>
        </Node>
      </Node>
    </BinaryTree>
    <BinaryTree type="DecisionTree" boostWeight="1.0000000000000000e+00" itree="26">
      <Node pos="s" depth="0" NCoef="0" IVar="5" Cut="1.3286473751068115e+00" cType="1" res="-1.8254283070564270e-01" rms="3.2879477739334106e-01" purity="1.5449796617031097e-01" nType="0">
        <Node pos="l" depth="1" NCoef="0" IVar="-1" Cut="0.0000000000000000e+00" cType="1" res="2.0003494864795357e-04" rms="4.8282489180564880e-01" purity="4.2996978759765625e-01" nType="-1"/>
        <Node pos="r" depth="1" NCoef="0" IVar="5" Cut="2.7715134620666504e+00" cType="1" res="-2.3799900710582733e-01" rms="2.3983758687973022e-01" purity="7.2607733309268951e-02" nType="0">
          <Node pos="l" depth="2" NCoef="0" IVar="-1" Cut="0.0000000000000000e+00" cType="1" res="-8.1137232482433319e-03" rms="3.9513233304023743e-01" purity="2.1805429458618164e-01" nType="-1"/>
          <Node pos="r" depth="2" NCoef="0" IVar="8" Cut="5.5160194635391235e-01" cType="1" res="-2.7260297536849976e-01" rms="1.2432678788900375e-01" purity="1.6942955553531647e-02" nType="0">
            <Node pos="l" depth="3" NCoef="0" IVar="-1" Cut="0.0000000000000000e+00" cType="1" res="-1.3212100602686405e-02" rms="2.4068129062652588e-01" purity="6.9595396518707275e-02" nType="-1"/>
            <Node pos="r" depth="3" NCoef="0" IVar="3" Cut="7.2904223203659058e-01" cType="0" res="-2.8251716494560242e-01" rms="6.5364845097064972e-02" purity="3.6826098803430796e-03" nType="0">
              <Node pos="l" depth="4" NCoef="0" IVar="-1" Cut="0.0000000000000000e+00" cType="1" res="-1.6476619988679886e-02" rms="1.2476470321416855e-01" purity="1.5773652121424675e-02" nType="-1"/>
              <Node pos="r" depth="4" NCoef="0" IVar="-1" Cut="0.0000000000000000e+00" cType="1" res="-1.6696756705641747e-02" rms="2.5023022666573524e-02" purity="5.4437242215499282e-04" nType="-1"/>
            </Node>
          </Node>
        </Node>
      </Node>
    </BinaryTree>
    <BinaryTree type="DecisionTree" boostWeight="1.0000000000000000e+00" itree="27">
      <Node pos="s" depth="0" NCoef="0" IVar="3" Cut="7.3756885528564453e-01" cType="0" res="-1.7815901339054108e-01" rms="3.2788375020027161e-01" purity="1.5449796617031097e-01" nType="0">
        <Node pos="l" depth="1" NCoef="0" IVar="-1" Cut="0.0000000000000000e+00" cType="1" res="-1.5519489534199238e-03" rms="4.6103745698928833e-01" purity="3.7097185850143433e-01" nType="-1"/>
        <Node pos="r" depth="1" NCoef="0" IVar="6" Cut="-6.4136652946472168e+00" cType="1" res="-2.4737720191478729e-01" rms="2.0750461518764496e-01" purity="5.2516441792249680e-02" nType="0">
          <Node pos="l" depth="2" NCoef="0" IVar="-1" Cut="0.0000000000000000e+00" cType="1" res="-6.6519756801426411e-03" rms="4.0430042147636414e-01" purity="2.4065093696117401e-01" nType="-1"/>
          <Node pos="r" depth="2" NCoef="0" IVar="4" Cut="2.0739345252513885e-01" cType="1" res="-2.6391458511352539e-01" rms="1.5943057835102081e-01" purity="2.8764890506863594e-02" nType="0">
            <Node pos="l" depth="3" NCoef="0" IVar="-1" Cut="0.0000000000000000e+00" cType="1" res="-1.1712283827364445e-02" rms="3.1367668509483337e-01" purity="1.2604723870754242e-01" nType="-1"/>
            <Node pos="r" depth="3" NCoef="0" IVar="5" Cut="2.2518250942230225e+00" cType="1" res="-2.7858549356460571e-01" rms="9.1874860227108002e-02" purity="7.7478615567088127e-03" nType="0">
              <Node pos="l" depth="4" NCoef="0" IVar="-1" Cut="0.0000000000000000e+00" cType="1" res="-1.7676178365945816e-02" rms="1.2918256223201752e-01" purity="1.6453027725219727e-02" nType="-1"/>
              <Node pos="r" depth="4" NCoef="0" IVar="-1" Cut="0.0000000000000000e+00" cType="1" res="-1.6293985769152641e-02" rms="6.7292146384716034e-02" purity="4.9848719500005245e-03" nType="-1"/>
            </Node>
          </Node>
        </Node>
      </Node>
    </BinaryTree>
    <BinaryTree type="DecisionTree" boostWeight="1.0000000000000000e+00" itree="28">
      <Node pos="s" depth="0" NCoef="0" IVar="5" Cut="1.3286473751068115e+00" cType="1" res="-1.7382302880287170e-01" rms="3.2698380947113037e-01" purity="1.5449796617031097e-01" nType="0">
        <Node pos="l" depth="1" NCoef="0" IVar="-1" Cut="0.0000000000000000e+00" cType="1" res="3.5070729791186750e-04" rms="4.8163613677024841e-01" purity="4.2996978759765625e-01" nType="-1"/>
        <Node pos="r" depth="1" NCoef="0" IVar="5" Cut="2.7715134620666504e+00" cType="1" res="-2.2757895290851593e-01" rms="2.3902425169944763e-01" purity="7.2607733309268951e-02" nType="0">
          <Node pos="l" depth="2" NCoef="0" IVar="-1" Cut="0.0000000000000000e+00" cType="1" res="-7.7412747777998447e-03" rms="3.9402860403060913e-01" purity="2.1805429458618164e-01" nType="-1"/>
          <Node pos="r" depth="2" NCoef="0" IVar="8" Cut="5.5160194635391235e-01" cType="1" res="-2.6138457655906677e-01" rms="1.2429516017436981e-01" purity="1.6942955553531647e-02" nType="0">
            <Node pos="l" depth="3" NCoef="0" IVar="-1" Cut="0.0000000000000000e+00" cType="1" res="-1.2906760908663273e-02" rms="2.4010521173477173e-01" purity="6.9595396518707275e-02" nType="-1"/>
            <Node pos="r" depth="3" NCoef="0" IVar="3" Cut="7.2904223203659058e-01" cType="0" res="-2.7096652984619141e-01" rms="6.6065654158592224e-02" purity="3.6826098803430796e-03" nType="0">
              <Node pos="l" depth="4" NCoef="0" IVar="-1" Cut="0.0000000000000000e+00" cType="1" res="-1.6251483932137489e-02" rms="1.2480106204748154e-01" purity="1.5773652121424675e-02" nType="-1"/>
              <Node pos="r" depth="4" NCoef="0" IVar="-1" Cut="0.0000000000000000e+00" cType="1" res="-1.6417257487773895e-02" rms="2.5163890793919563e-02" purity="5.4437242215499282e-04" nType="-1"/>
            </Node>
          </Node>
        </Node>
      </Node>
    </BinaryTree>
    <BinaryTree type="DecisionTree" boostWeight="1.0000000000000000e+00" itree="29">
      <Node pos="s" depth="0" NCoef="0" IVar="3" Cut="7.3756885528564453e-01" cType="0" res="-1.6965104639530182e-01" rms="3.2612028717994690e-01" purity="1.5449796617031097e-01" nType="0">
        <Node pos="l" depth="1" NCoef="0" IVar="-1" Cut="0.0000000000000000e+00" cType="1" res="-1.3522526714950800e-03" rms="4.5981732010841370e-01" purity="3.7097185850143433e-01" nType="-1"/>
        <Node pos="r" depth="1" NCoef="0" IVar="4" Cut="2.0739345252513885e-01" cType="1" res="-2.3681700229644775e-01" rms="2.0679663121700287e-01" purity="5.2516441792249680e-02" nType="0">
          <Node pos="l" depth="2" NCoef="0" IVar="-1" Cut="0.0000000000000000e+00" cType="1" res="-8.5567962378263474e-03" rms="3.6444759368896484e-01" purity="1.8444097042083740e-01" nType="-1"/>
          <Node pos="r" depth="2" NCoef="0" IVar="7" Cut="-5.4047069549560547e+00" cType="0" res="-2.5991797447204590e-01" rms="1.2940268218517303e-01" purity="1.8185958266258240e-02" nType="0">
            <Node pos="l" depth="3" NCoef="0" IVar="1" Cut="5.3932651877403259e-02" cType="1" res="-2.4642246961593628e-01" rms="1.2982417643070221e-01" purity="1.9993484020233154e-02" nType="0">
              <Node pos="l" depth="4" NCoef="0" IVar="-1" Cut="0.0000000000000000e+00" cType="1" res="-1.3392427004873753e-02" rms="2.1397745609283447e-01" purity="5.9409178793430328e-02" nType="-1"/>
              <Node pos="r" depth="4" NCoef="0" IVar="-1" Cut="0.0000000000000000e+00" cType="1" res="-1.6343569383025169e-02" rms="4.0306288748979568e-02" purity="6.2392087420448661e-04" nType="-1"/>
            </Node>
            <Node pos="r" depth="3" NCoef="0" IVar="-1" Cut="0.0000000000000000e+00" cType="1" res="-1.8610680475831032e-02" rms="1.1078598350286484e-01" purity="1.0559750720858574e-02" nType="-1"/>
          </Node>
        </Node>
      </Node>
    </BinaryTree>
    <BinaryTree type="DecisionTree" boostWeight="1.0000000000000000e+00" itree="30">
      <Node pos="s" depth="0" NCoef="0" IVar="5" Cut="1.3286473751068115e+00" cType="1" res="-1.6550537943840027e-01" rms="3.2527184486389160e-01" purity="1.5449796617031097e-01" nType="0">
        <Node pos="l" depth="1" NCoef="0" IVar="-1" Cut="0.0000000000000000e+00" cType="1" res="5.1337742479518056e-04" rms="4.8031559586524963e-01" purity="4.2996978759765625e-01" nType="-1"/>
        <Node pos="r" depth="1" NCoef="0" IVar="5" Cut="2.7715134620666504e+00" cType="1" res="-2.1774590015411377e-01" rms="2.3824901878833771e-01" purity="7.2607733309268951e-02" nType="0">
          <Node pos="l" depth="2" NCoef="0" IVar="-1" Cut="0.0000000000000000e+00" cType="1" res="-7.3896539397537708e-03" rms="3.9295074343681335e-01" purity="2.1805429458618164e-01" nType="-1"/>
          <Node pos="r" depth="2" NCoef="0" IVar="8" Cut="5.5160194635391235e-01" cType="1" res="-2.5077340006828308e-01" rms="1.2429887801408768e-01" purity="1.6942955553531647e-02" nType="0">
            <Node pos="l" depth="3" NCoef="0" IVar="-1" Cut="0.0000000000000000e+00" cType="1" res="-1.2606661766767502e-02" rms="2.3951807618141174e-01" purity="6.9595396518707275e-02" nType="-1"/>
            <Node pos="r" depth="3" NCoef="0" IVar="3" Cut="7.2904223203659058e-01" cType="0" res="-2.6014456152915955e-01" rms="6.6757813096046448e-02" purity="3.6826098803430796e-03" nType="0">
              <Node pos="l" depth="4" NCoef="0" IVar="-1" Cut="0.0000000000000000e+00" cType="1" res="-1.6038455069065094e-02" rms="1.2483734637498856e-01" purity="1.5773652121424675e-02" nType="-1"/>
              <Node pos="r" depth="4" NCoef="0" IVar="-1" Cut="0.0000000000000000e+00" cType="1" res="-1.6164209693670273e-02" rms="2.5456983596086502e-02" purity="5.4437242215499282e-04" nType="-1"/>
            </Node>
          </Node>
        </Node>
      </Node>
    </BinaryTree>
    <BinaryTree type="DecisionTree" boostWeight="1.0000000000000000e+00" itree="31">
      <Node pos="s" depth="0" NCoef="0" IVar="3" Cut="7.3756885528564453e-01" cType="0" res="-1.6153551638126373e-01" rms="3.2444936037063599e-01" purity="1.5449796617031097e-01" nType="0">
        <Node pos="l" depth="1" NCoef="0" IVar="-1" Cut="0.0000000000000000e+00" cType="1" res="-1.1626392370089889e-03" rms="4.5862850546836853e-01" purity="3.7097185850143433e-01" nType="-1"/>
        <Node pos="r" depth="1" NCoef="0" IVar="4" Cut="2.0739345252513885e-01" cType="1" res="-2.2672091424465179e-01" rms="2.0615194737911224e-01" purity="5.2516441792249680e-02" nType="0">
          <Node pos="l" depth="2" NCoef="0" IVar="-1" Cut="0.0000000000000000e+00" cType="1" res="-8.2433009520173073e-03" rms="3.6359372735023499e-01" purity="1.8444097042083740e-01" nType="-1"/>
          <Node pos="r" depth="2" NCoef="0" IVar="7" Cut="-5.4047069549560547e+00" cType="0" res="-2.4907748401165009e-01" rms="1.2936456501483917e-01" purity="1.8185958266258240e-02" nType="0">
            <Node pos="l" depth="3" NCoef="0" IVar="1" Cut="5.3932651877403259e-02" cType="1" res="-2.3540678620338440e-01" rms="1.2954457104206085e-01" purity="1.9993484020233154e-02" nType="0">
              <Node pos="l" depth="4" NCoef="0" IVar="-1" Cut="0.0000000000000000e+00" cType="1" res="-1.3065948151051998e-02" rms="2.1337886154651642e-01" purity="5.9409178793430328e-02" nType="-1"/>
              <Node pos="r" depth="4" NCoef="0" IVar="-1" Cut="0.0000000000000000e+00" cType="1" res="-1.6099652275443077e-02" rms="4.0905017405748367e-02" purity="6.2392087420448661e-04" nType="-1"/>
            </Node>
            <Node pos="r" depth="3" NCoef="0" IVar="-1" Cut="0.0000000000000000e+00" cType="1" res="-1.8327355384826660e-02" rms="1.1145960539579391e-01" purity="1.0559750720858574e-02" nType="-1"/>
          </Node>
        </Node>
      </Node>
    </BinaryTree>
    <BinaryTree type="DecisionTree" boostWeight="1.0000000000000000e+00" itree="32">
      <Node pos="s" depth="0" NCoef="0" IVar="5" Cut="2.7705221176147461e+00" cType="1" res="-1.5758809447288513e-01" rms="3.2364365458488464e-01" purity="1.5449796617031097e-01" nType="0">
        <Node pos="l" depth="1" NCoef="0" IVar="-1" Cut="0.0000000000000000e+00" cType="1" res="-2.8215297497808933e-03" rms="4.4451534748077393e-01" purity="3.2779341936111450e-01" nType="-1"/>
        <Node pos="r" depth="1" NCoef="0" IVar="8" Cut="5.5160194635391235e-01" cType="1" res="-2.4064731597900391e-01" rms="1.2431996315717697e-01" purity="1.6942955553531647e-02" nType="0">
          <Node pos="l" depth="2" NCoef="0" IVar="-1" Cut="0.0000000000000000e+00" cType="1" res="-1.2319666333496571e-02" rms="2.3897726833820343e-01" purity="6.9595396518707275e-02" nType="-1"/>
          <Node pos="r" depth="2" NCoef="0" IVar="3" Cut="7.2904223203659058e-01" cType="0" res="-2.4981744587421417e-01" rms="6.7430473864078522e-02" purity="3.6826098803430796e-03" nType="0">
            <Node pos="l" depth="3" NCoef="0" IVar="-1" Cut="0.0000000000000000e+00" cType="1" res="-1.5836514532566071e-02" rms="1.2487301975488663e-01" purity="1.5773652121424675e-02" nType="-1"/>
            <Node pos="r" depth="3" NCoef="0" IVar="4" Cut="5.2872836589813232e-01" cType="1" res="-2.3534493148326874e-01" rms="2.5755153968930244e-02" purity="5.4437242215499282e-04" nType="0">
              <Node pos="l" depth="4" NCoef="0" IVar="-1" Cut="0.0000000000000000e+00" cType="1" res="-1.6439110040664673e-02" rms="3.1920682638883591e-02" purity="8.4942969260737300e-04" nType="-1"/>
              <Node pos="r" depth="4" NCoef="0" IVar="-1" Cut="0.0000000000000000e+00" cType="1" res="-1.5723790973424911e-02" rms="2.1045213565230370e-02" purity="4.2367682908661664e-04" nType="-1"/>
            </Node>
          </Node>
        </Node>
      </Node>
    </BinaryTree>
    <BinaryTree type="DecisionTree" boostWeight="1.0000000000000000e+00" itree="33">
      <Node pos="s" depth="0" NCoef="0" IVar="3" Cut="7.3756885528564453e-01" cType="0" res="-1.5382429957389832e-01" rms="3.2301399111747742e-01" purity="1.5449796617031097e-01" nType="0">
        <Node pos="l" depth="1" NCoef="0" IVar="-1" Cut="0.0000000000000000e+00" cType="1" res="-9.7335304599255323e-04" rms="4.5763468742370605e-01" purity="3.7097185850143433e-01" nType="-1"/>
        <Node pos="r" depth="1" NCoef="0" IVar="6" Cut="-6.4136652946472168e+00" cType="1" res="-2.1719793975353241e-01" rms="2.0563988387584686e-01" purity="5.2516441792249680e-02" nType="0">
          <Node pos="l" depth="2" NCoef="0" IVar="-1" Cut="0.0000000000000000e+00" cType="1" res="-5.6553729809820652e-03" rms="4.0184694528579712e-01" purity="2.4065093696117401e-01" nType="-1"/>
          <Node pos="r" depth="2" NCoef="0" IVar="4" Cut="2.0739345252513885e-01" cType="1" res="-2.3249627649784088e-01" rms="1.5859396755695343e-01" purity="2.8764890506863594e-02" nType="0">
            <Node pos="l" depth="3" NCoef="0" IVar="-1" Cut="0.0000000000000000e+00" cType="1" res="-1.0721761733293533e-02" rms="3.1159973144531250e-01" purity="1.2604723870754242e-01" nType="-1"/>
            <Node pos="r" depth="3" NCoef="0" IVar="5" Cut="2.2518250942230225e+00" cType="1" res="-2.4586355686187744e-01" rms="9.2756368219852448e-02" purity="7.7478615567088127e-03" nType="0">
              <Node pos="l" depth="4" NCoef="0" IVar="-1" Cut="0.0000000000000000e+00" cType="1" res="-1.6870969906449318e-02" rms="1.2932913005352020e-01" purity="1.6453027725219727e-02" nType="-1"/>
              <Node pos="r" depth="4" NCoef="0" IVar="-1" Cut="0.0000000000000000e+00" cType="1" res="-1.5539013780653477e-02" rms="6.7198947072029114e-02" purity="4.9848719500005245e-03" nType="-1"/>
            </Node>
          </Node>
        </Node>
      </Node>
    </BinaryTree>
    <BinaryTree type="DecisionTree" boostWeight="1.0000000000000000e+00" itree="34">
      <Node pos="s" depth="0" NCoef="0" IVar="5" Cut="1.3286473751068115e+00" cType="1" res="-1.5008121728897095e-01" rms="3.2223975658416748e-01" purity="1.5449796617031097e-01" nType="0">
        <Node pos="l" depth="1" NCoef="0" IVar="-1" Cut="0.0000000000000000e+00" cType="1" res="8.7312515825033188e-04" rms="4.7795712947845459e-01" purity="4.2996978759765625e-01" nType="-1"/>
        <Node pos="r" depth="1" NCoef="0" IVar="5" Cut="2.7715134620666504e+00" cType="1" res="-1.9983254373073578e-01" rms="2.3663347959518433e-01" purity="7.2607733309268951e-02" nType="0">
          <Node pos="l" depth="2" NCoef="0" IVar="-1" Cut="0.0000000000000000e+00" cType="1" res="-6.8096877075731754e-03" rms="3.9090710878372192e-01" purity="2.1805429458618164e-01" nType="-1"/>
          <Node pos="r" depth="2" NCoef="0" IVar="8" Cut="5.5160194635391235e-01" cType="1" res="-2.3088492453098297e-01" rms="1.2433727830648422e-01" purity="1.6942955553531647e-02" nType="0">
            <Node pos="l" depth="3" NCoef="0" IVar="-1" Cut="0.0000000000000000e+00" cType="1" res="-1.2052799575030804e-02" rms="2.3853003978729248e-01" purity="6.9595396518707275e-02" nType="-1"/>
            <Node pos="r" depth="3" NCoef="0" IVar="3" Cut="7.2904223203659058e-01" cType="0" res="-2.3976022005081177e-01" rms="6.8062365055084229e-02" purity="3.6826098803430796e-03" nType="0">
              <Node pos="l" depth="4" NCoef="0" IVar="-1" Cut="0.0000000000000000e+00" cType="1" res="-1.5644839033484459e-02" rms="1.2490760535001755e-01" purity="1.5773652121424675e-02" nType="-1"/>
              <Node pos="r" depth="4" NCoef="0" IVar="-1" Cut="0.0000000000000000e+00" cType="1" res="-1.5709292143583298e-02" rms="2.5850458070635796e-02" purity="5.4437242215499282e-04" nType="-1"/>
            </Node>
          </Node>
        </Node>
      </Node>
    </BinaryTree>
    <BinaryTree type="DecisionTree" boostWeight="1.0000000000000000e+00" itree="35">
      <Node pos="s" depth="0" NCoef="0" IVar="3" Cut="7.3756885528564453e-01" cType="0" res="-1.4648534357547760e-01" rms="3.2148733735084534e-01" purity="1.5449796617031097e-01" nType="0">
        <Node pos="l" depth="1" NCoef="0" IVar="-1" Cut="0.0000000000000000e+00" cType="1" res="-8.0275681102648377e-04" rms="4.5649796724319458e-01" purity="3.7097185850143433e-01" nType="-1"/>
        <Node pos="r" depth="1" NCoef="0" IVar="4" Cut="2.0739345252513885e-01" cType="1" res="-2.0803204178810120e-01" rms="2.0504261553287506e-01" purity="5.2516441792249680e-02" nType="0">
          <Node pos="l" depth="2" NCoef="0" IVar="-1" Cut="0.0000000000000000e+00" cType="1" res="-7.6130093075335026e-03" rms="3.6203449964523315e-01" purity="1.8444097042083740e-01" nType="-1"/>
          <Node pos="r" depth="2" NCoef="0" IVar="7" Cut="-5.4047069549560547e+00" cType="0" res="-2.2923600673675537e-01" rms="1.2922041118144989e-01" purity="1.8185958266258240e-02" nType="0">
            <Node pos="l" depth="3" NCoef="0" IVar="1" Cut="5.3932651877403259e-02" cType="1" res="-2.1521691977977753e-01" rms="1.2901575863361359e-01" purity="1.9993484020233154e-02" nType="0">
              <Node pos="l" depth="4" NCoef="0" IVar="-1" Cut="0.0000000000000000e+00" cType="1" res="-1.2447492219507694e-02" rms="2.1187709271907806e-01" purity="5.9409178793430328e-02" nType="-1"/>
              <Node pos="r" depth="4" NCoef="0" IVar="-1" Cut="0.0000000000000000e+00" cType="1" res="-1.5682481229305267e-02" rms="4.2531717568635941e-02" purity="6.2392087420448661e-04" nType="-1"/>
            </Node>
            <Node pos="r" depth="3" NCoef="0" IVar="-1" Cut="0.0000000000000000e+00" cType="1" res="-1.7827220261096954e-02" rms="1.1221922188997269e-01" purity="1.0559750720858574e-02" nType="-1"/>
          </Node>
        </Node>
      </Node>
    </BinaryTree>
    <BinaryTree type="DecisionTree" boostWeight="1.0000000000000000e+00" itree="36">
      <Node pos="s" depth="0" NCoef="0" IVar="5" Cut="1.3286473751068115e+00" cType="1" res="-1.4290510118007660e-01" rms="3.2075408101081848e-01" purity="1.5449796617031097e-01" nType="0">
        <Node pos="l" depth="1" NCoef="0" IVar="-1" Cut="0.0000000000000000e+00" cType="1" res="1.0059401392936707e-03" rms="4.7673705220222473e-01" purity="4.2996978759765625e-01" nType="-1"/>
        <Node pos="r" depth="1" NCoef="0" IVar="5" Cut="2.7715134620666504e+00" cType="1" res="-1.9128689169883728e-01" rms="2.3598496615886688e-01" purity="7.2607733309268951e-02" nType="0">
          <Node pos="l" depth="2" NCoef="0" IVar="-1" Cut="0.0000000000000000e+00" cType="1" res="-6.4950129017233849e-03" rms="3.8995605707168579e-01" purity="2.1805429458618164e-01" nType="-1"/>
          <Node pos="r" depth="2" NCoef="0" IVar="8" Cut="5.5160194635391235e-01" cType="1" res="-2.2166258096694946e-01" rms="1.2437989562749863e-01" purity="1.6942955553531647e-02" nType="0">
            <Node pos="l" depth="3" NCoef="0" IVar="-1" Cut="0.0000000000000000e+00" cType="1" res="-1.1787673458456993e-02" rms="2.3806703090667725e-01" purity="6.9595396518707275e-02" nType="-1"/>
            <Node pos="r" depth="3" NCoef="0" IVar="3" Cut="7.2904223203659058e-01" cType="0" res="-2.3035883903503418e-01" rms="6.8680189549922943e-02" purity="3.6826098803430796e-03" nType="0">
              <Node pos="l" depth="4" NCoef="0" IVar="-1" Cut="0.0000000000000000e+00" cType="1" res="-1.5462577342987061e-02" rms="1.2494128942489624e-01" purity="1.5773652121424675e-02" nType="-1"/>
              <Node pos="r" depth="4" NCoef="0" IVar="-1" Cut="0.0000000000000000e+00" cType="1" res="-1.5508616343140602e-02" rms="2.6139141991734505e-02" purity="5.4437242215499282e-04" nType="-1"/>
            </Node>
          </Node>
        </Node>
      </Node>
    </BinaryTree>
    <BinaryTree type="DecisionTree" boostWeight="1.0000000000000000e+00" itree="37">
      <Node pos="s" depth="0" NCoef="0" IVar="3" Cut="7.4230587482452393e-01" cType="0" res="-1.3948334753513336e-01" rms="3.2003557682037354e-01" purity="1.5449796617031097e-01" nType="0">
        <Node pos="l" depth="1" NCoef="0" IVar="-1" Cut="0.0000000000000000e+00" cType="1" res="-6.3425814732909203e-04" rms="4.5539695024490356e-01" purity="3.7108913064002991e-01" nType="-1"/>
        <Node pos="r" depth="1" NCoef="0" IVar="6" Cut="-6.4136652946472168e+00" cType="1" res="-1.9921226799488068e-01" rms="2.0471644401550293e-01" purity="5.2644096314907074e-02" nType="0">
          <Node pos="l" depth="2" NCoef="0" IVar="-1" Cut="0.0000000000000000e+00" cType="1" res="-5.1186811178922653e-03" rms="4.0029889345169067e-01" purity="2.4065093696117401e-01" nType="-1"/>
          <Node pos="r" depth="2" NCoef="0" IVar="6" Cut="-5.4294996261596680e+00" cType="0" res="-2.1357868611812592e-01" rms="1.5854731202125549e-01" purity="2.8924008831381798e-02" nType="0">
            <Node pos="l" depth="3" NCoef="0" IVar="4" Cut="4.4027379155158997e-01" cType="1" res="-1.9747065007686615e-01" rms="1.6537658870220184e-01" purity="3.3725626766681671e-02" nType="0">
              <Node pos="l" depth="4" NCoef="0" IVar="-1" Cut="0.0000000000000000e+00" cType="1" res="-9.3431053683161736e-03" rms="2.9919511079788208e-01" purity="1.2285076081752777e-01" nType="-1"/>
              <Node pos="r" depth="4" NCoef="0" IVar="-1" Cut="0.0000000000000000e+00" cType="1" res="-1.5579015947878361e-02" rms="4.7910079360008240e-02" purity="9.5994991715997458e-04" nType="-1"/>
            </Node>
            <Node pos="r" depth="3" NCoef="0" IVar="-1" Cut="0.0000000000000000e+00" cType="1" res="-1.6075652092695236e-02" rms="1.2140540033578873e-01" purity="1.3754788786172867e-02" nType="-1"/>
          </Node>
        </Node>
      </Node>
    </BinaryTree>
    <BinaryTree type="DecisionTree" boostWeight="1.0000000000000000e+00" itree="38">
      <Node pos="s" depth="0" NCoef="0" IVar="5" Cut="1.3286473751068115e+00" cType="1" res="-1.3609801232814789e-01" rms="3.1930363178253174e-01" purity="1.5449796617031097e-01" nType="0">
        <Node pos="l" depth="1" NCoef="0" IVar="-1" Cut="0.0000000000000000e+00" cType="1" res="1.1124465381726623e-03" rms="4.7563230991363525e-01" purity="4.2996978759765625e-01" nType="-1"/>
        <Node pos="r" depth="1" NCoef="0" IVar="5" Cut="2.7715134620666504e+00" cType="1" res="-1.8306456506252289e-01" rms="2.3534266650676727e-01" purity="7.2607733309268951e-02" nType="0">
          <Node pos="l" depth="2" NCoef="0" IVar="-1" Cut="0.0000000000000000e+00" cType="1" res="-6.1920392327010632e-03" rms="3.8900551199913025e-01" purity="2.1805429458618164e-01" nType="-1"/>
          <Node pos="r" depth="2" NCoef="0" IVar="8" Cut="5.6270867586135864e-01" cType="1" res="-2.1275970339775085e-01" rms="1.2443006783723831e-01" purity="1.6942955553531647e-02" nType="0">
            <Node pos="l" depth="3" NCoef="0" IVar="-1" Cut="0.0000000000000000e+00" cType="1" res="-1.1638802476227283e-02" rms="2.3312410712242126e-01" purity="6.6894881427288055e-02" nType="-1"/>
            <Node pos="r" depth="3" NCoef="0" IVar="3" Cut="7.2383147478103638e-01" cType="0" res="-2.2145467996597290e-01" rms="6.8452842533588409e-02" purity="3.5244114696979523e-03" nType="0">
              <Node pos="l" depth="4" NCoef="0" IVar="-1" Cut="0.0000000000000000e+00" cType="1" res="-1.5407379716634750e-02" rms="1.2067683786153793e-01" purity="1.4483981765806675e-02" nType="-1"/>
              <Node pos="r" depth="4" NCoef="0" IVar="-1" Cut="0.0000000000000000e+00" cType="1" res="-1.5307717025279999e-02" rms="2.6598382741212845e-02" purity="5.5659603094682097e-04" nType="-1"/>
            </Node>
          </Node>
        </Node>
      </Node>
    </BinaryTree>
    <BinaryTree type="DecisionTree" boostWeight="1.0000000000000000e+00" itree="39">
      <Node pos="s" depth="0" NCoef="0" IVar="3" Cut="7.3756885528564453e-01" cType="0" res="-1.3284094631671906e-01" rms="3.1861868500709534e-01" purity="1.5449796617031097e-01" nType="0">
        <Node pos="l" depth="1" NCoef="0" IVar="-1" Cut="0.0000000000000000e+00" cType="1" res="-4.8631845857016742e-04" rms="4.5430225133895874e-01" purity="3.7097185850143433e-01" nType="-1"/>
        <Node pos="r" depth="1" NCoef="0" IVar="4" Cut="2.0739345252513885e-01" cType="1" res="-1.9094553589820862e-01" rms="2.0388577878475189e-01" purity="5.2516441792249680e-02" nType="0">
          <Node pos="l" depth="2" NCoef="0" IVar="-1" Cut="0.0000000000000000e+00" cType="1" res="-7.0226835086941719e-03" rms="3.6022794246673584e-01" purity="1.8444097042083740e-01" nType="-1"/>
          <Node pos="r" depth="2" NCoef="0" IVar="7" Cut="-5.4047069549560547e+00" cType="0" res="-2.1107855439186096e-01" rms="1.2905690073966980e-01" purity="1.8185958266258240e-02" nType="0">
            <Node pos="l" depth="3" NCoef="0" IVar="1" Cut="5.3932651877403259e-02" cType="1" res="-1.9662296772003174e-01" rms="1.2835165858268738e-01" purity="1.9993484020233154e-02" nType="0">
              <Node pos="l" depth="4" NCoef="0" IVar="-1" Cut="0.0000000000000000e+00" cType="1" res="-1.1862819083034992e-02" rms="2.1025227010250092e-01" purity="5.9409178793430328e-02" nType="-1"/>
              <Node pos="r" depth="4" NCoef="0" IVar="-1" Cut="0.0000000000000000e+00" cType="1" res="-1.5317890793085098e-02" rms="4.3784506618976593e-02" purity="6.2392087420448661e-04" nType="-1"/>
            </Node>
            <Node pos="r" depth="3" NCoef="0" IVar="-1" Cut="0.0000000000000000e+00" cType="1" res="-1.7408788204193115e-02" rms="1.1322608590126038e-01" purity="1.0559750720858574e-02" nType="-1"/>
          </Node>
        </Node>
      </Node>
    </BinaryTree>
    <BinaryTree type="DecisionTree" boostWeight="1.0000000000000000e+00" itree="40">
      <Node pos="s" depth="0" NCoef="0" IVar="5" Cut="2.7705221176147461e+00" cType="1" res="-1.2959335744380951e-01" rms="3.1794905662536621e-01" purity="1.5449796617031097e-01" nType="0">
        <Node pos="l" depth="1" NCoef="0" IVar="-1" Cut="0.0000000000000000e+00" cType="1" res="-1.9367324421182275e-03" rms="4.3933507800102234e-01" purity="3.2779341936111450e-01" nType="-1"/>
        <Node pos="r" depth="1" NCoef="0" IVar="8" Cut="5.6270867586135864e-01" cType="1" res="-2.0435725152492523e-01" rms="1.2447733432054520e-01" purity="1.6942955553531647e-02" nType="0">
          <Node pos="l" depth="2" NCoef="0" IVar="-1" Cut="0.0000000000000000e+00" cType="1" res="-1.1394491419196129e-02" rms="2.3273731768131256e-01" purity="6.6894881427288055e-02" nType="-1"/>
          <Node pos="r" depth="2" NCoef="0" IVar="3" Cut="7.2383147478103638e-01" cType="0" res="-2.1288892626762390e-01" rms="6.9010205566883087e-02" purity="3.5244114696979523e-03" nType="0">
            <Node pos="l" depth="3" NCoef="0" IVar="-1" Cut="0.0000000000000000e+00" cType="1" res="-1.5237115323543549e-02" rms="1.2075684219598770e-01" purity="1.4483981765806675e-02" nType="-1"/>
            <Node pos="r" depth="3" NCoef="0" IVar="4" Cut="5.2872836589813232e-01" cType="1" res="-1.9573393464088440e-01" rms="2.6873275637626648e-02" purity="5.5659603094682097e-04" nType="0">
              <Node pos="l" depth="4" NCoef="0" IVar="-1" Cut="0.0000000000000000e+00" cType="1" res="-1.5654068440198898e-02" rms="3.2702956348657608e-02" purity="8.4990588948130608e-04" nType="-1"/>
              <Node pos="r" depth="4" NCoef="0" IVar="-1" Cut="0.0000000000000000e+00" cType="1" res="-1.4911497943103313e-02" rms="2.1432431414723396e-02" purity="4.3697332148440182e-04" nType="-1"/>
            </Node>
          </Node>
        </Node>
      </Node>
    </BinaryTree>
    <BinaryTree type="DecisionTree" boostWeight="1.0000000000000000e+00" itree="41">
      <Node pos="s" depth="0" NCoef="0" IVar="5" Cut="1.3286473751068115e+00" cType="1" res="-1.2650643289089203e-01" rms="3.1741857528686523e-01" purity="1.5449796617031097e-01" nType="0">
        <Node pos="l" depth="1" NCoef="0" IVar="-1" Cut="0.0000000000000000e+00" cType="1" res="1.2771481415256858e-03" rms="4.7448396682739258e-01" purity="4.2996978759765625e-01" nType="-1"/>
        <Node pos="r" depth="1" NCoef="0" IVar="5" Cut="2.7715134620666504e+00" cType="1" res="-1.7155802249908447e-01" rms="2.3435537517070770e-01" purity="7.2607733309268951e-02" nType="0">
          <Node pos="l" depth="2" NCoef="0" IVar="-1" Cut="0.0000000000000000e+00" cType="1" res="-5.8582434430718422e-03" rms="3.8815504312515259e-01" purity="2.1805429458618164e-01" nType="-1"/>
          <Node pos="r" depth="2" NCoef="0" IVar="6" Cut="-3.7436463832855225e+00" cType="1" res="-1.9951535761356354e-01" rms="1.2432441860437393e-01" purity="1.6942955553531647e-02" nType="0">
            <Node pos="l" depth="3" NCoef="0" IVar="6" Cut="-4.3480381965637207e+00" cType="0" res="-1.8912789225578308e-01" rms="1.4263918995857239e-01" purity="2.3673407733440399e-02" nType="0">
              <Node pos="l" depth="4" NCoef="0" IVar="-1" Cut="0.0000000000000000e+00" cType="1" res="-1.1480033397674561e-02" rms="2.1848094463348389e-01" purity="5.9521861374378204e-02" nType="-1"/>
              <Node pos="r" depth="4" NCoef="0" IVar="-1" Cut="0.0000000000000000e+00" cType="1" res="-1.5136742033064365e-02" rms="4.8043314367532730e-02" purity="1.1922445846721530e-03" nType="-1"/>
            </Node>
            <Node pos="r" depth="3" NCoef="0" IVar="-1" Cut="0.0000000000000000e+00" cType="1" res="-1.5304999426007271e-02" rms="5.2285652607679367e-02" purity="6.5835396526381373e-04" nType="-1"/>
          </Node>
        </Node>
      </Node>
    </BinaryTree>
    <BinaryTree type="DecisionTree" boostWeight="1.0000000000000000e+00" itree="42">
      <Node pos="s" depth="0" NCoef="0" IVar="3" Cut="7.4230587482452393e-01" cType="0" res="-1.2348450720310211e-01" rms="3.1677910685539246e-01" purity="1.5449796617031097e-01" nType="0">
        <Node pos="l" depth="1" NCoef="0" IVar="-1" Cut="0.0000000000000000e+00" cType="1" res="-1.9370848895050585e-04" rms="4.5234361290931702e-01" purity="3.7108913064002991e-01" nType="-1"/>
        <Node pos="r" depth="1" NCoef="0" IVar="4" Cut="2.0739345252513885e-01" cType="1" res="-1.7978844046592712e-01" rms="2.0348401367664337e-01" purity="5.2644096314907074e-02" nType="0">
          <Node pos="l" depth="2" NCoef="0" IVar="-1" Cut="0.0000000000000000e+00" cType="1" res="-6.6616525873541832e-03" rms="3.5886290669441223e-01" purity="1.8421983718872070e-01" nType="-1"/>
          <Node pos="r" depth="2" NCoef="0" IVar="7" Cut="-5.4047069549560547e+00" cType="0" res="-1.9914937019348145e-01" rms="1.2975259125232697e-01" purity="1.8377382308244705e-02" nType="0">
            <Node pos="l" depth="3" NCoef="0" IVar="1" Cut="5.3932651877403259e-02" cType="1" res="-1.8420225381851196e-01" rms="1.2870661914348602e-01" purity="2.0229335874319077e-02" nType="0">
              <Node pos="l" depth="4" NCoef="0" IVar="-1" Cut="0.0000000000000000e+00" cType="1" res="-1.1468752287328243e-02" rms="2.0972359180450439e-01" purity="5.9713713824748993e-02" nType="-1"/>
              <Node pos="r" depth="4" NCoef="0" IVar="-1" Cut="0.0000000000000000e+00" cType="1" res="-1.5083126723766327e-02" rms="4.6562030911445618e-02" purity="8.0732040805742145e-04" nType="-1"/>
            </Node>
            <Node pos="r" depth="3" NCoef="0" IVar="-1" Cut="0.0000000000000000e+00" cType="1" res="-1.7168562859296799e-02" rms="1.1424835026264191e-01" purity="1.0559750720858574e-02" nType="-1"/>
          </Node>
        </Node>
      </Node>
    </BinaryTree>
    <BinaryTree type="DecisionTree" boostWeight="1.0000000000000000e+00" itree="43">
      <Node pos="s" depth="0" NCoef="0" IVar="5" Cut="1.3927307128906250e+00" cType="1" res="-1.2046282738447189e-01" rms="3.1613764166831970e-01" purity="1.5449796617031097e-01" nType="0">
        <Node pos="l" depth="1" NCoef="0" IVar="-1" Cut="0.0000000000000000e+00" cType="1" res="9.8737934604287148e-04" rms="4.6676436066627502e-01" purity="4.1392013430595398e-01" nType="-1"/>
        <Node pos="r" depth="1" NCoef="0" IVar="5" Cut="3.2866444587707520e+00" cType="1" res="-1.6681469976902008e-01" rms="2.2843435406684875e-01" purity="6.8397551774978638e-02" nType="0">
          <Node pos="l" depth="2" NCoef="0" IVar="-1" Cut="0.0000000000000000e+00" cType="1" res="-6.5273880027234554e-03" rms="3.5915428400039673e-01" purity="1.8314738571643829e-01" nType="-1"/>
          <Node pos="r" depth="2" NCoef="0" IVar="3" Cut="7.5651693344116211e-01" cType="0" res="-1.9940987229347229e-01" rms="9.6350379288196564e-02" purity="8.9602712541818619e-03" nType="0">
            <Node pos="l" depth="3" NCoef="0" IVar="-1" Cut="0.0000000000000000e+00" cType="1" res="-1.3764856383204460e-02" rms="1.8885459005832672e-01" purity="3.8053970783948898e-02" nType="-1"/>
            <Node pos="r" depth="3" NCoef="0" IVar="4" Cut="4.8175248503684998e-01" cType="1" res="-1.8568202853202820e-01" rms="3.5349462181329727e-02" purity="1.0755655821412802e-03" nType="0">
              <Node pos="l" depth="4" NCoef="0" IVar="-1" Cut="0.0000000000000000e+00" cType="1" res="-1.5370675362646580e-02" rms="4.1123479604721069e-02" purity="1.4979692641645670e-03" nType="-1"/>
              <Node pos="r" depth="4" NCoef="0" IVar="-1" Cut="0.0000000000000000e+00" cType="1" res="-1.4900371432304382e-02" rms="3.1530342996120453e-02" purity="9.4355060718953609e-04" nType="-1"/>
            </Node>
          </Node>
        </Node>
      </Node>
    </BinaryTree>
    <BinaryTree type="DecisionTree" boostWeight="1.0000000000000000e+00" itree="44">
      <Node pos="s" depth="0" NCoef="0" IVar="3" Cut="7.3756885528564453e-01" cType="0" res="-1.1756660044193268e-01" rms="3.1554707884788513e-01" purity="1.5449796617031097e-01" nType="0">
        <Node pos="l" depth="1" NCoef="0" IVar="-1" Cut="0.0000000000000000e+00" cType="1" res="-6.7325301642995328e-05" rms="4.5135450363159180e-01" purity="3.7097185850143433e-01" nType="-1"/>
        <Node pos="r" depth="1" NCoef="0" IVar="6" Cut="-6.4136652946472168e+00" cType="1" res="-1.7234131693840027e-01" rms="2.0281825959682465e-01" purity="5.2516441792249680e-02" nType="0">
          <Node pos="l" depth="2" NCoef="0" IVar="-1" Cut="0.0000000000000000e+00" cType="1" res="-4.2007919400930405e-03" rms="3.9760962128639221e-01" purity="2.4065093696117401e-01" nType="-1"/>
          <Node pos="r" depth="2" NCoef="0" IVar="6" Cut="-5.4294996261596680e+00" cType="0" res="-1.8555310368537903e-01" rms="1.5751947462558746e-01" purity="2.8764890506863594e-02" nType="0">
            <Node pos="l" depth="3" NCoef="0" IVar="4" Cut="4.4027379155158997e-01" cType="1" res="-1.6852690279483795e-01" rms="1.6357089579105377e-01" purity="3.3629212528467178e-02" nType="0">
              <Node pos="l" depth="4" NCoef="0" IVar="-1" Cut="0.0000000000000000e+00" cType="1" res="-8.0840568989515305e-03" rms="2.9595381021499634e-01" purity="1.2301884591579437e-01" nType="-1"/>
              <Node pos="r" depth="4" NCoef="0" IVar="-1" Cut="0.0000000000000000e+00" cType="1" res="-1.5012079849839211e-02" rms="4.9009747803211212e-02" purity="8.0022582551464438e-04" nType="-1"/>
            </Node>
            <Node pos="r" depth="3" NCoef="0" IVar="-1" Cut="0.0000000000000000e+00" cType="1" res="-1.5570616349577904e-02" rms="1.2191376835107803e-01" purity="1.3395346701145172e-02" nType="-1"/>
          </Node>
        </Node>
      </Node>
    </BinaryTree>
    <BinaryTree type="DecisionTree" boostWeight="1.0000000000000000e+00" itree="45">
      <Node pos="s" depth="0" NCoef="0" IVar="5" Cut="1.3927307128906250e+00" cType="1" res="-1.1471705138683319e-01" rms="3.1489655375480652e-01" purity="1.5449796617031097e-01" nType="0">
        <Node pos="l" depth="1" NCoef="0" IVar="-1" Cut="0.0000000000000000e+00" cType="1" res="1.0886630043387413e-03" rms="4.6558427810668945e-01" purity="4.1392013430595398e-01" nType="-1"/>
        <Node pos="r" depth="1" NCoef="0" IVar="5" Cut="3.2866444587707520e+00" cType="1" res="-1.5979330241680145e-01" rms="2.2797445952892303e-01" purity="6.8397551774978638e-02" nType="0">
          <Node pos="l" depth="2" NCoef="0" IVar="-1" Cut="0.0000000000000000e+00" cType="1" res="-6.2587675638496876e-03" rms="3.5849198698997498e-01" purity="1.8314738571643829e-01" nType="-1"/>
          <Node pos="r" depth="2" NCoef="0" IVar="3" Cut="7.5651693344116211e-01" cType="0" res="-1.9164702296257019e-01" rms="9.6700571477413177e-02" purity="8.9602712541818619e-03" nType="0">
            <Node pos="l" depth="3" NCoef="0" IVar="-1" Cut="0.0000000000000000e+00" cType="1" res="-1.3615071773529053e-02" rms="1.8887941539287567e-01" purity="3.8053970783948898e-02" nType="-1"/>
            <Node pos="r" depth="3" NCoef="0" IVar="4" Cut="4.8175248503684998e-01" cType="1" res="-1.7734323441982269e-01" rms="3.5457726567983627e-02" purity="1.0755655821412802e-03" nType="0">
              <Node pos="l" depth="4" NCoef="0" IVar="-1" Cut="0.0000000000000000e+00" cType="1" res="-1.5223269350826740e-02" rms="4.1119385510683060e-02" purity="1.4979692641645670e-03" nType="-1"/>
              <Node pos="r" depth="4" NCoef="0" IVar="-1" Cut="0.0000000000000000e+00" cType="1" res="-1.4745259657502174e-02" rms="3.1533166766166687e-02" purity="9.4355060718953609e-04" nType="-1"/>
            </Node>
          </Node>
        </Node>
      </Node>
    </BinaryTree>
    <BinaryTree type="DecisionTree" boostWeight="1.0000000000000000e+00" itree="46">
      <Node pos="s" depth="0" NCoef="0" IVar="3" Cut="7.3756885528564453e-01" cType="0" res="-1.1196021735668182e-01" rms="3.1433215737342834e-01" purity="1.5449796617031097e-01" nType="0">
        <Node pos="l" depth="1" NCoef="0" IVar="-1" Cut="0.0000000000000000e+00" cType="1" res="5.7686280342750251e-05" rms="4.5039206743240356e-01" purity="3.7097185850143433e-01" nType="-1"/>
        <Node pos="r" depth="1" NCoef="0" IVar="4" Cut="1.1344171315431595e-01" cType="1" res="-1.6522645950317383e-01" rms="2.0230489969253540e-01" purity="5.2516441792249680e-02" nType="0">
          <Node pos="l" depth="2" NCoef="0" IVar="-1" Cut="0.0000000000000000e+00" cType="1" res="-4.4314367696642876e-03" rms="3.4615331888198853e-01" purity="1.9269841909408569e-01" nType="-1"/>
          <Node pos="r" depth="2" NCoef="0" IVar="0" Cut="1.5703001618385315e-01" cType="0" res="-1.7799629271030426e-01" rms="1.7254820466041565e-01" purity="3.5353366285562515e-02" nType="0">
            <Node pos="l" depth="3" NCoef="0" IVar="-1" Cut="0.0000000000000000e+00" cType="1" res="-6.2314998358488083e-03" rms="3.2302662730216980e-01" purity="1.5014331042766571e-01" nType="-1"/>
            <Node pos="r" depth="3" NCoef="0" IVar="5" Cut="2.2006082534790039e+00" cType="1" res="-1.9404707849025726e-01" rms="1.2386229634284973e-01" purity="1.5873242169618607e-02" nType="0">
              <Node pos="l" depth="4" NCoef="0" IVar="-1" Cut="0.0000000000000000e+00" cType="1" res="-1.4978623948991299e-02" rms="1.8905919790267944e-01" purity="4.1467443108558655e-02" nType="-1"/>
              <Node pos="r" depth="4" NCoef="0" IVar="-1" Cut="0.0000000000000000e+00" cType="1" res="-1.4243809506297112e-02" rms="6.7450277507305145e-02" purity="5.0181974656879902e-03" nType="-1"/>
            </Node>
          </Node>
        </Node>
      </Node>
    </BinaryTree>
    <BinaryTree type="DecisionTree" boostWeight="1.0000000000000000e+00" itree="47">
      <Node pos="s" depth="0" NCoef="0" IVar="5" Cut="2.7705221176147461e+00" cType="1" res="-1.0924372076988220e-01" rms="3.1371361017227173e-01" purity="1.5449796617031097e-01" nType="0">
        <Node pos="l" depth="1" NCoef="0" IVar="-1" Cut="0.0000000000000000e+00" cType="1" res="-1.3170144520699978e-03" rms="4.3563255667686462e-01" purity="3.2779341936111450e-01" nType="-1"/>
        <Node pos="r" depth="1" NCoef="0" IVar="8" Cut="5.8136808872222900e-01" cType="1" res="-1.7723858356475830e-01" rms="1.2430142611265182e-01" purity="1.6942955553531647e-02" nType="0">
          <Node pos="l" depth="2" NCoef="0" IVar="-1" Cut="0.0000000000000000e+00" cType="1" res="-1.1065780185163021e-02" rms="2.1516323089599609e-01" purity="5.7856112718582153e-02" nType="-1"/>
          <Node pos="r" depth="2" NCoef="0" IVar="3" Cut="7.1056783199310303e-01" cType="0" res="-1.8668748438358307e-01" rms="7.0700913667678833e-02" purity="3.5591709893196821e-03" nType="0">
            <Node pos="l" depth="3" NCoef="0" IVar="-1" Cut="0.0000000000000000e+00" cType="1" res="-1.4713536947965622e-02" rms="1.1841849982738495e-01" purity="1.3294900767505169e-02" nType="-1"/>
            <Node pos="r" depth="3" NCoef="0" IVar="4" Cut="5.4172170162200928e-01" cType="1" res="-1.6777013242244720e-01" rms="2.5109294801950455e-02" purity="4.3641871889121830e-04" nType="0">
              <Node pos="l" depth="4" NCoef="0" IVar="-1" Cut="0.0000000000000000e+00" cType="1" res="-1.4728072099387646e-02" rms="3.2847091555595398e-02" purity="8.2463567377999425e-04" nType="-1"/>
              <Node pos="r" depth="4" NCoef="0" IVar="-1" Cut="0.0000000000000000e+00" cType="1" res="-1.4457231387495995e-02" rms="1.6719771549105644e-02" purity="2.4982888135127723e-04" nType="-1"/>
            </Node>
          </Node>
        </Node>
      </Node>
    </BinaryTree>
    <BinaryTree type="DecisionTree" boostWeight="1.0000000000000000e+00" itree="48">
      <Node pos="s" depth="0" NCoef="0" IVar="3" Cut="7.4230587482452393e-01" cType="0" res="-1.0664968937635422e-01" rms="3.1326040625572205e-01" purity="1.5449796617031097e-01" nType="0">
        <Node pos="l" depth="1" NCoef="0" IVar="-1" Cut="0.0000000000000000e+00" cType="1" res="1.9038745085708797e-04" rms="4.4953781366348267e-01" purity="3.7108913064002991e-01" nType="-1"/>
        <Node pos="r" depth="1" NCoef="0" IVar="7" Cut="-5.9297909736633301e+00" cType="1" res="-1.5851476788520813e-01" rms="2.0208279788494110e-01" purity="5.2644096314907074e-02" nType="0">
          <Node pos="l" depth="2" NCoef="0" IVar="-1" Cut="0.0000000000000000e+00" cType="1" res="-3.5411273129284382e-03" rms="3.8753578066825867e-01" purity="2.3340794444084167e-01" nType="-1"/>
          <Node pos="r" depth="2" NCoef="0" IVar="0" Cut="1.6976755857467651e-01" cType="0" res="-1.7051835358142853e-01" rms="1.6460055112838745e-01" purity="3.2275363802909851e-02" nType="0">
            <Node pos="l" depth="3" NCoef="0" IVar="-1" Cut="0.0000000000000000e+00" cType="1" res="-6.7053232342004776e-03" rms="3.1444573402404785e-01" purity="1.4102211594581604e-01" nType="-1"/>
            <Node pos="r" depth="3" NCoef="0" IVar="5" Cut="2.0601515769958496e+00" cType="1" res="-1.8206670880317688e-01" rms="1.2841919064521790e-01" purity="1.7949920147657394e-02" nType="0">
              <Node pos="l" depth="4" NCoef="0" IVar="-1" Cut="0.0000000000000000e+00" cType="1" res="-1.3807797804474831e-02" rms="2.1872562170028687e-01" purity="5.7012680917978287e-02" nType="-1"/>
