<?xml version="1.0"?>
<MethodSetup Method="BDT::BDTG">
  <GeneralInfo>
    <Info name="TMVA Release" value="4.1.0 [262400]"/>
    <Info name="ROOT Release" value="5.28/00 [334848]"/>
    <Info name="Creator" value="mdjordje"/>
    <Info name="Date" value="Fri Sep  5 12:30:21 2014"/>
    <Info name="Host" value="Linux lxbuild148.cern.ch 2.6.18-194.26.1.el5 #1 SMP Wed Nov 10 09:45:46 CET 2010 x86_64 x86_64 x86_64 GNU/Linux"/>
    <Info name="Dir" value="/afs/cern.ch/user/m/mdjordje/CMSSW_7_0_6_patch1/src/CMGTools/TTHAnalysis/macros/leptons"/>
    <Info name="Training events" value="7883"/>
    <Info name="TrainingTime" value="12.5819"/>
    <Info name="AnalysisType" value="Classification"/>
  </GeneralInfo>
  <Options>
    <Option name="V" modified="Yes">False</Option>
    <Option name="VerbosityLevel" modified="No">Default</Option>
    <Option name="VarTransform" modified="No">None</Option>
    <Option name="H" modified="Yes">False</Option>
    <Option name="CreateMVAPdfs" modified="Yes">True</Option>
    <Option name="IgnoreNegWeightsInTraining" modified="No">False</Option>
    <Option name="NTrees" modified="Yes">500</Option>
    <Option name="RenormByClass" modified="No">False</Option>
    <Option name="BoostType" modified="Yes">Grad</Option>
    <Option name="AdaBoostR2Loss" modified="No">quadratic</Option>
    <Option name="UseBaggedGrad" modified="Yes">False</Option>
    <Option name="GradBaggingFraction" modified="No">6.000000e-01</Option>
    <Option name="Shrinkage" modified="Yes">1.000000e-01</Option>
    <Option name="AdaBoostBeta" modified="No">1.000000e+00</Option>
    <Option name="UseRandomisedTrees" modified="No">False</Option>
    <Option name="UseNvars" modified="Yes">9</Option>
    <Option name="UsePoissonNvars" modified="No">True</Option>
    <Option name="UseNTrainEvents" modified="No">7883</Option>
    <Option name="UseWeightedTrees" modified="No">True</Option>
    <Option name="UseYesNoLeaf" modified="No">True</Option>
    <Option name="NodePurityLimit" modified="No">5.000000e-01</Option>
    <Option name="SeparationType" modified="No">giniindex</Option>
    <Option name="nEventsMin" modified="Yes">100</Option>
    <Option name="nCuts" modified="Yes">2000</Option>
    <Option name="UseFisherCuts" modified="No">False</Option>
    <Option name="MinLinCorrForFisher" modified="No">8.000000e-01</Option>
    <Option name="UseExclusiveVars" modified="No">False</Option>
    <Option name="PruneStrength" modified="Yes">5.000000e+00</Option>
    <Option name="PruneMethod" modified="Yes">costcomplexity</Option>
    <Option name="PruneBeforeBoost" modified="No">False</Option>
    <Option name="PruningValFraction" modified="No">5.000000e-01</Option>
    <Option name="NNodesMax" modified="Yes">9</Option>
    <Option name="MaxDepth" modified="Yes">8</Option>
  </Options>
  <Variables NVar="8">
    <Variable VarIndex="0" Expression="relIso03-chargedHadRelIso03" Label="neuRelIso03" Title="neuRelIso03" Unit="" Internal="neuRelIso03" Type="D" Min="0" Max="0.399746"/>
    <Variable VarIndex="1" Expression="chargedHadRelIso03" Label="chRelIso03" Title="chRelIso03" Unit="" Internal="chRelIso03" Type="D" Min="0" Max="0.399988"/>
    <Variable VarIndex="2" Expression="min(jetDR,0.5)" Label="jetDR" Title="jetDR" Unit="" Internal="jetDR" Type="D" Min="0" Max="0.339563"/>
    <Variable VarIndex="3" Expression="min(jetPtRatio,1.5)" Label="jetPtRatio" Title="jetPtRatio" Unit="" Internal="jetPtRatio" Type="D" Min="0.0554132" Max="1.13318"/>
    <Variable VarIndex="4" Expression="max(jetBTagCSV,0)" Label="jetBTagCSV" Title="jetBTagCSV" Unit="" Internal="jetBTagCSV" Type="D" Min="0" Max="1"/>
    <Variable VarIndex="5" Expression="sip3d" Label="sip3d" Title="sip3d" Unit="" Internal="sip3d" Type="D" Min="0.00878464" Max="431.503"/>
    <Variable VarIndex="6" Expression="log(abs(dxy))" Label="dxy" Title="dxy" Unit="" Internal="dxy" Type="D" Min="-16.2607" Max="-3.00144"/>
    <Variable VarIndex="7" Expression="log(abs(dz))" Label="dz" Title="dz" Unit="" Internal="dz" Type="D" Min="-12.3014" Max="-1.61132"/>
  </Variables>
  <Spectators NSpec="0"/>
  <Transformations NTransformations="0"/>
  <MVAPdfs>
    <PDF Name="BDTG_PDFSig" MinNSmooth="0" MaxNSmooth="0" InterpolMethod="2" KDE_type="1" KDE_iter="1" KDE_border="1" KDE_finefactor="1.0000000000000000e+00">
      <Histogram Name="BDT_tr_S_original" NBins="157" XMin="-9.9938338994979858e-01" XMax="9.7462636232376099e-01" HasEquidistantBins="1">
        0.120499 0.00138064 0.00276128 5.61626e-05 0.000126462 0.00414192 0.000127787 0.0938853 0.125413 0.0128065 0.00843956 0.00234663 0.00777055 0.0041884 0.0361548 0.00138064 0.0591228 0.00280079 0.00276128 0.0128065 0 0.00276128 9.21572e-05 0.00156892 0.0641262 0.00138064 0.00145094 0.00806628 0.00648855 0.000127787 0.13486 0.0069735 0.00138064 0.124524 0.0617943 0.00281744 0.00552256 0.0137725 0.00915119 0.0917563 0 0.0405026 0.129133 0.00150843 0.127701 0.247447 0.163176 0.005305 0.0117759 0.00414192 0.0372549 0.215718 0.00280079 0.0399048 0.106999 0.00286393 0.00276128 0.00687392 0.152482 0.00392436 0.00138064 0.00302073 0.00552256 0.00289376 0.104248 0.029463 0.212536 0.00552256 0.0940776 0.00655885 0.263085 0.115189 0.00510791 0.121452 0.129082 0.00648855 0.0567566 0.0169217 0.00276128 0.464449 0.00138064 0.0155678 0.00280079 0.0189496 0.152342 0.0807462 0.172545 0.123421 0.205937 0.197811 0.107293 0.211727 0.112747 0.0398349 0.138129 0.0795677 0.131755 0.261259 0.194013 0.379193 0.0069032 0.223838 0.131132 0.130506 0.311206 0.069135 0.143354 0.291729 0.456245 0.0284882 0.00975664 0.371497 0.351743 0.148008 0.133278 0.340277 0.0739902 0.289647 0.27838 0.267198 0.56817 0.206295 0.0118892 0.275804 0.574002 0.58462 0.193748 0.0771552 0.579253 0.405995 0.353556 0.372531 0.428011 0.867773 0.567881 0.160759 0.246249 0.381345 0.815939 0.361906 0.815644 0.800918 1.3442 0.928267 0.687238 0.928465 0.652145 1.11975 1.39015 1.91683 2.28299 2.13757 1.82099 3.35504 3.94994 13.2786 23.4223 
      </Histogram>
    </PDF>
    <PDF Name="BDTG_PDFBkg" MinNSmooth="0" MaxNSmooth="0" InterpolMethod="2" KDE_type="1" KDE_iter="1" KDE_border="1" KDE_finefactor="1.0000000000000000e+00">
      <Histogram Name="BDT_tr_B_original" NBins="157" XMin="-9.9938338994979858e-01" XMax="9.7462636232376099e-01" HasEquidistantBins="1">
        30.5215 9.61768 5.73611 4.50972 2.29603 1.56925 2.02023 1.62174 1.62011 1.33546 1.21405 0.712581 0.674284 0.410898 1.04445 0.608819 0.39245 0.354811 0.25881 0.308145 0.769805 0.416185 0.491096 0.238243 0.0355486 0.158831 0.309677 0.385151 0.183866 0.222837 0.15817 0.25715 0.368658 0.226187 0.216199 0.116769 0.414989 0.134362 0.130013 0.217803 0.301969 0.412783 0.133401 0.00859975 0.0597191 0.4412 0.0672601 0.170515 0.0721408 0.151633 0.0993605 0.116684 0.404818 0.0161173 0.249487 0.0618668 0.164766 0.0950162 0.197231 0.00211328 0.00126033 0.00311743 0.102811 0.00419885 0.0210763 0.186713 0.0347967 0.114044 0.00325914 0.170617 0.00103914 0.0964992 0.00207829 0.00610161 0.0451518 0.0110792 0.139359 0.0763913 0.0414345 0.080388 0.12017 0.180485 0.00679818 0.0946944 0.0021312 0.00207829 0.110577 0.0430218 0.0424207 0.0733593 0.0488644 0.00896158 0.00429829 0.00258182 0.00480939 0.003509 0.0206906 0.0440609 0.0168959 0.0021312 0.034717 0.0699509 0.00311743 0.0859705 0.00103914 0.0687711 0 0.19151 0.0962499 0.00688768 0.0952041 0.00103914 0.00207829 0.0414239 0 0.00109206 0.0972458 0.00859975 0.0321826 0.00103914 0.00103914 0.0863898 0.00325914 0.0325627 0.00103914 0.00103914 0.00014171 0.0725427 0.00869494 0.0127563 0.00222 0.103561 0.00110851 0.00110387 0.00488364 0.152776 0.00311743 0.00415658 0.00207829 0.0859705 0.0982895 0 0.00113532 0.00207829 0.00103914 0.063938 0.0943923 0.0260412 0.0499333 0.0413816 0.0533829 0.0652395 0.00268772 0.0253363 0.00497982 0.0982685 0.00761474 
      </Histogram>
    </PDF>
  </MVAPdfs>
  <Weights NTrees="500" AnalysisType="1">
    <BinaryTree type="DecisionTree" boostWeight="1.0000000000000000e+00" itree="0">
      <Node pos="s" depth="0" NCoef="0" IVar="3" Cut="7.4429988861083984e-01" cType="0" res="-9.1560631990432739e-02" rms="4.9154517054557800e-01" purity="4.0843936800956726e-01" nType="0">
        <Node pos="l" depth="1" NCoef="0" IVar="-1" Cut="0.0000000000000000e+00" cType="1" res="1.9780229777097702e-02" rms="2.8092402219772339e-01" purity="9.1362023353576660e-01" nType="1"/>
        <Node pos="r" depth="1" NCoef="0" IVar="4" Cut="3.3233377337455750e-01" cType="1" res="-3.7602812051773071e-01" rms="3.2954946160316467e-01" purity="1.2397187948226929e-01" nType="0">
          <Node pos="l" depth="2" NCoef="0" IVar="-1" Cut="0.0000000000000000e+00" cType="1" res="-6.4783426932990551e-03" rms="4.8162487149238586e-01" purity="3.6569634079933167e-01" nType="-1"/>
          <Node pos="r" depth="2" NCoef="0" IVar="4" Cut="4.1146418452262878e-01" cType="1" res="-4.6669942140579224e-01" rms="1.7942032217979431e-01" purity="3.3300578594207764e-02" nType="0">
            <Node pos="l" depth="3" NCoef="0" IVar="-1" Cut="0.0000000000000000e+00" cType="1" res="-1.5386581420898438e-02" rms="3.7035736441612244e-01" purity="1.6409014165401459e-01" nType="-1"/>
            <Node pos="r" depth="3" NCoef="0" IVar="5" Cut="7.2556054592132568e-01" cType="1" res="-4.8035809397697449e-01" rms="1.3876636326313019e-01" purity="1.9641906023025513e-02" nType="0">
              <Node pos="l" depth="4" NCoef="0" IVar="-1" Cut="0.0000000000000000e+00" cType="1" res="-1.4524170197546482e-02" rms="3.7881314754486084e-01" purity="1.7365570366382599e-01" nType="-1"/>
              <Node pos="r" depth="4" NCoef="0" IVar="-1" Cut="0.0000000000000000e+00" cType="1" res="-2.2439802065491676e-02" rms="1.0990989208221436e-01" purity="1.2229750864207745e-02" nType="-1"/>
            </Node>
          </Node>
        </Node>
      </Node>
    </BinaryTree>
    <BinaryTree type="DecisionTree" boostWeight="1.0000000000000000e+00" itree="1">
      <Node pos="s" depth="0" NCoef="0" IVar="3" Cut="7.4429988861083984e-01" cType="0" res="-8.9570298790931702e-02" rms="4.8399615287780762e-01" purity="4.0843936800956726e-01" nType="0">
        <Node pos="l" depth="1" NCoef="0" IVar="-1" Cut="0.0000000000000000e+00" cType="1" res="1.9314879551529884e-02" rms="2.8092402219772339e-01" purity="9.1362023353576660e-01" nType="1"/>
        <Node pos="r" depth="1" NCoef="0" IVar="4" Cut="3.3233377337455750e-01" cType="1" res="-3.6734864115715027e-01" rms="3.2792004942893982e-01" purity="1.2397187948226929e-01" nType="0">
          <Node pos="l" depth="2" NCoef="0" IVar="-1" Cut="0.0000000000000000e+00" cType="1" res="-6.3223633915185928e-03" rms="4.8162490129470825e-01" purity="3.6569634079933167e-01" nType="-1"/>
          <Node pos="r" depth="2" NCoef="0" IVar="4" Cut="4.1146418452262878e-01" cType="1" res="-4.5597922801971436e-01" rms="1.7905266582965851e-01" purity="3.3300578594207764e-02" nType="0">
            <Node pos="l" depth="3" NCoef="0" IVar="-1" Cut="0.0000000000000000e+00" cType="1" res="-1.5037772245705128e-02" rms="3.7035736441612244e-01" purity="1.6409014165401459e-01" nType="-1"/>
            <Node pos="r" depth="3" NCoef="0" IVar="5" Cut="7.2556054592132568e-01" cType="1" res="-4.6932175755500793e-01" rms="1.3856706023216248e-01" purity="1.9641906023025513e-02" nType="0">
              <Node pos="l" depth="4" NCoef="0" IVar="-1" Cut="0.0000000000000000e+00" cType="1" res="-1.4203985221683979e-02" rms="3.7881314754486084e-01" purity="1.7365570366382599e-01" nType="-1"/>
              <Node pos="r" depth="4" NCoef="0" IVar="-1" Cut="0.0000000000000000e+00" cType="1" res="-2.1934760734438896e-02" rms="1.0990989208221436e-01" purity="1.2229750864207745e-02" nType="-1"/>
            </Node>
          </Node>
        </Node>
      </Node>
    </BinaryTree>
    <BinaryTree type="DecisionTree" boostWeight="1.0000000000000000e+00" itree="2">
      <Node pos="s" depth="0" NCoef="0" IVar="3" Cut="7.4429988861083984e-01" cType="0" res="-8.7623953819274902e-02" rms="4.7668847441673279e-01" purity="4.0843936800956726e-01" nType="0">
        <Node pos="l" depth="1" NCoef="0" IVar="-1" Cut="0.0000000000000000e+00" cType="1" res="1.8874717876315117e-02" rms="2.8092402219772339e-01" purity="9.1362023353576660e-01" nType="1"/>
        <Node pos="r" depth="1" NCoef="0" IVar="4" Cut="3.3233377337455750e-01" cType="1" res="-3.5887306928634644e-01" rms="3.2635682821273804e-01" purity="1.2397187948226929e-01" nType="0">
          <Node pos="l" depth="2" NCoef="0" IVar="-1" Cut="0.0000000000000000e+00" cType="1" res="-6.1706406995654106e-03" rms="4.8162487149238586e-01" purity="3.6569634079933167e-01" nType="-1"/>
          <Node pos="r" depth="2" NCoef="0" IVar="4" Cut="4.1146418452262878e-01" cType="1" res="-4.4551011919975281e-01" rms="1.7870184779167175e-01" purity="3.3300578594207764e-02" nType="0">
            <Node pos="l" depth="3" NCoef="0" IVar="-1" Cut="0.0000000000000000e+00" cType="1" res="-1.4703594148159027e-02" rms="3.7035733461380005e-01" purity="1.6409014165401459e-01" nType="-1"/>
            <Node pos="r" depth="3" NCoef="0" IVar="5" Cut="7.2556054592132568e-01" cType="1" res="-4.5854410529136658e-01" rms="1.3837730884552002e-01" purity="1.9641906023025513e-02" nType="0">
              <Node pos="l" depth="4" NCoef="0" IVar="-1" Cut="0.0000000000000000e+00" cType="1" res="-1.3896525837481022e-02" rms="3.7881314754486084e-01" purity="1.7365570366382599e-01" nType="-1"/>
              <Node pos="r" depth="4" NCoef="0" IVar="-1" Cut="0.0000000000000000e+00" cType="1" res="-2.1461956202983856e-02" rms="1.0990989208221436e-01" purity="1.2229750864207745e-02" nType="-1"/>
            </Node>
          </Node>
        </Node>
      </Node>
    </BinaryTree>
    <BinaryTree type="DecisionTree" boostWeight="1.0000000000000000e+00" itree="3">
      <Node pos="s" depth="0" NCoef="0" IVar="3" Cut="7.4429988861083984e-01" cType="0" res="-8.5720539093017578e-02" rms="4.6961599588394165e-01" purity="4.0843936800956726e-01" nType="0">
        <Node pos="l" depth="1" NCoef="0" IVar="-1" Cut="0.0000000000000000e+00" cType="1" res="1.8457546830177307e-02" rms="2.8092402219772339e-01" purity="9.1362023353576660e-01" nType="1"/>
        <Node pos="r" depth="1" NCoef="0" IVar="4" Cut="3.3233377337455750e-01" cType="1" res="-3.5059630870819092e-01" rms="3.2485732436180115e-01" purity="1.2397187948226929e-01" nType="0">
          <Node pos="l" depth="2" NCoef="0" IVar="-1" Cut="0.0000000000000000e+00" cType="1" res="-6.0230093076825142e-03" rms="4.8162487149238586e-01" purity="3.6569634079933167e-01" nType="-1"/>
          <Node pos="r" depth="2" NCoef="0" IVar="4" Cut="4.1146418452262878e-01" cType="1" res="-4.3528574705123901e-01" rms="1.7836707830429077e-01" purity="3.3300578594207764e-02" nType="0">
            <Node pos="l" depth="3" NCoef="0" IVar="-1" Cut="0.0000000000000000e+00" cType="1" res="-1.4382976107299328e-02" rms="3.7035736441612244e-01" purity="1.6409014165401459e-01" nType="-1"/>
            <Node pos="r" depth="3" NCoef="0" IVar="5" Cut="7.2556054592132568e-01" cType="1" res="-4.4801864027976990e-01" rms="1.3819661736488342e-01" purity="1.9641906023025513e-02" nType="0">
              <Node pos="l" depth="4" NCoef="0" IVar="-1" Cut="0.0000000000000000e+00" cType="1" res="-1.3600905425846577e-02" rms="3.7881314754486084e-01" purity="1.7365570366382599e-01" nType="-1"/>
              <Node pos="r" depth="4" NCoef="0" IVar="-1" Cut="0.0000000000000000e+00" cType="1" res="-2.1018428727984428e-02" rms="1.0990989208221436e-01" purity="1.2229750864207745e-02" nType="-1"/>
            </Node>
          </Node>
        </Node>
      </Node>
    </BinaryTree>
    <BinaryTree type="DecisionTree" boostWeight="1.0000000000000000e+00" itree="4">
      <Node pos="s" depth="0" NCoef="0" IVar="3" Cut="7.4429988861083984e-01" cType="0" res="-8.3859048783779144e-02" rms="4.6277257800102234e-01" purity="4.0843936800956726e-01" nType="0">
        <Node pos="l" depth="1" NCoef="0" IVar="-1" Cut="0.0000000000000000e+00" cType="1" res="1.8061406910419464e-02" rms="2.8092402219772339e-01" purity="9.1362023353576660e-01" nType="1"/>
        <Node pos="r" depth="1" NCoef="0" IVar="4" Cut="3.3233377337455750e-01" cType="1" res="-3.4251344203948975e-01" rms="3.2341909408569336e-01" purity="1.2397187948226929e-01" nType="0">
          <Node pos="l" depth="2" NCoef="0" IVar="-1" Cut="0.0000000000000000e+00" cType="1" res="-5.8793197385966778e-03" rms="4.8162487149238586e-01" purity="3.6569634079933167e-01" nType="-1"/>
          <Node pos="r" depth="2" NCoef="0" IVar="4" Cut="4.1146418452262878e-01" cType="1" res="-4.2530003190040588e-01" rms="1.7804762721061707e-01" purity="3.3300578594207764e-02" nType="0">
            <Node pos="l" depth="3" NCoef="0" IVar="-1" Cut="0.0000000000000000e+00" cType="1" res="-1.4074948616325855e-02" rms="3.7035733461380005e-01" purity="1.6409014165401459e-01" nType="-1"/>
            <Node pos="r" depth="3" NCoef="0" IVar="2" Cut="9.3007311224937439e-02" cType="0" res="-4.3773904442787170e-01" rms="1.3802459836006165e-01" purity="1.9641906023025513e-02" nType="0">
              <Node pos="l" depth="4" NCoef="0" IVar="-1" Cut="0.0000000000000000e+00" cType="1" res="-1.6851615160703659e-02" rms="3.2420414686203003e-01" purity="1.2055695801973343e-01" nType="-1"/>
              <Node pos="r" depth="4" NCoef="0" IVar="-1" Cut="0.0000000000000000e+00" cType="1" res="-2.0546682178974152e-02" rms="9.9976703524589539e-02" purity="1.0231768712401390e-02" nType="-1"/>
            </Node>
          </Node>
        </Node>
      </Node>
    </BinaryTree>
    <BinaryTree type="DecisionTree" boostWeight="1.0000000000000000e+00" itree="5">
      <Node pos="s" depth="0" NCoef="0" IVar="3" Cut="7.4429988861083984e-01" cType="0" res="-8.2045532763004303e-02" rms="4.5616450905799866e-01" purity="4.0843936800956726e-01" nType="0">
        <Node pos="l" depth="1" NCoef="0" IVar="-1" Cut="0.0000000000000000e+00" cType="1" res="1.7684554681181908e-02" rms="2.8092402219772339e-01" purity="9.1362023353576660e-01" nType="1"/>
        <Node pos="r" depth="1" NCoef="0" IVar="4" Cut="3.3233377337455750e-01" cType="1" res="-3.3463060855865479e-01" rms="3.2205793261528015e-01" purity="1.2397187948226929e-01" nType="0">
          <Node pos="l" depth="2" NCoef="0" IVar="-1" Cut="0.0000000000000000e+00" cType="1" res="-5.7394267059862614e-03" rms="4.8162487149238586e-01" purity="3.6569634079933167e-01" nType="-1"/>
          <Node pos="r" depth="2" NCoef="0" IVar="4" Cut="4.1146418452262878e-01" cType="1" res="-4.1556218266487122e-01" rms="1.7778123915195465e-01" purity="3.3300578594207764e-02" nType="0">
            <Node pos="l" depth="3" NCoef="0" IVar="-1" Cut="0.0000000000000000e+00" cType="1" res="-1.3778632506728172e-02" rms="3.7035733461380005e-01" purity="1.6409014165401459e-01" nType="-1"/>
            <Node pos="r" depth="3" NCoef="0" IVar="5" Cut="7.2556054592132568e-01" cType="1" res="-4.2771592736244202e-01" rms="1.3791409134864807e-01" purity="1.9641906023025513e-02" nType="0">
              <Node pos="l" depth="4" NCoef="0" IVar="-1" Cut="0.0000000000000000e+00" cType="1" res="-1.2904693372547626e-02" rms="3.7857201695442200e-01" purity="1.7365570366382599e-01" nType="-1"/>
              <Node pos="r" depth="4" NCoef="0" IVar="-1" Cut="0.0000000000000000e+00" cType="1" res="-2.0215958356857300e-02" rms="1.0980656743049622e-01" purity="1.2229750864207745e-02" nType="-1"/>
            </Node>
          </Node>
        </Node>
      </Node>
    </BinaryTree>
    <BinaryTree type="DecisionTree" boostWeight="1.0000000000000000e+00" itree="6">
      <Node pos="s" depth="0" NCoef="0" IVar="3" Cut="7.4429988861083984e-01" cType="0" res="-8.0264732241630554e-02" rms="4.4976070523262024e-01" purity="4.0843936800956726e-01" nType="0">
        <Node pos="l" depth="1" NCoef="0" IVar="-1" Cut="0.0000000000000000e+00" cType="1" res="1.7325423657894135e-02" rms="2.8092402219772339e-01" purity="9.1362023353576660e-01" nType="1"/>
        <Node pos="r" depth="1" NCoef="0" IVar="4" Cut="3.3233377337455750e-01" cType="1" res="-3.2692086696624756e-01" rms="3.2073310017585754e-01" purity="1.2397187948226929e-01" nType="0">
          <Node pos="l" depth="2" NCoef="0" IVar="-1" Cut="0.0000000000000000e+00" cType="1" res="-5.6031965650618076e-03" rms="4.8162487149238586e-01" purity="3.6569634079933167e-01" nType="-1"/>
          <Node pos="r" depth="2" NCoef="0" IVar="4" Cut="4.1146418452262878e-01" cType="1" res="-4.0603572130203247e-01" rms="1.7748534679412842e-01" purity="3.3300578594207764e-02" nType="0">
            <Node pos="l" depth="3" NCoef="0" IVar="-1" Cut="0.0000000000000000e+00" cType="1" res="-1.3493227772414684e-02" rms="3.7035736441612244e-01" purity="1.6409014165401459e-01" nType="-1"/>
            <Node pos="r" depth="3" NCoef="0" IVar="2" Cut="9.3007311224937439e-02" cType="0" res="-4.1790941357612610e-01" rms="1.3775107264518738e-01" purity="1.9641906023025513e-02" nType="0">
              <Node pos="l" depth="4" NCoef="0" IVar="-1" Cut="0.0000000000000000e+00" cType="1" res="-1.6068801283836365e-02" rms="3.2388421893119812e-01" purity="1.2055695801973343e-01" nType="-1"/>
              <Node pos="r" depth="4" NCoef="0" IVar="-1" Cut="0.0000000000000000e+00" cType="1" res="-1.9796103239059448e-02" rms="9.9838554859161377e-02" purity="1.0231768712401390e-02" nType="-1"/>
            </Node>
          </Node>
        </Node>
      </Node>
    </BinaryTree>
    <BinaryTree type="DecisionTree" boostWeight="1.0000000000000000e+00" itree="7">
      <Node pos="s" depth="0" NCoef="0" IVar="3" Cut="7.4429988861083984e-01" cType="0" res="-7.8529998660087585e-02" rms="4.4358018040657043e-01" purity="4.0843936800956726e-01" nType="0">
        <Node pos="l" depth="1" NCoef="0" IVar="-1" Cut="0.0000000000000000e+00" cType="1" res="1.6982609406113625e-02" rms="2.8092402219772339e-01" purity="9.1362023353576660e-01" nType="1"/>
        <Node pos="r" depth="1" NCoef="0" IVar="5" Cut="1.7338992357254028e+00" cType="1" res="-3.1940197944641113e-01" rms="3.1947955489158630e-01" purity="1.2397187948226929e-01" nType="0">
          <Node pos="l" depth="2" NCoef="0" IVar="-1" Cut="0.0000000000000000e+00" cType="1" res="-6.3428217545151711e-03" rms="4.6288242936134338e-01" purity="3.3043703436851501e-01" nType="-1"/>
          <Node pos="r" depth="2" NCoef="0" IVar="5" Cut="3.4543960094451904e+00" cType="1" res="-4.0527248382568359e-01" rms="1.6446426510810852e-01" purity="2.8981076553463936e-02" nType="0">
            <Node pos="l" depth="3" NCoef="0" IVar="-1" Cut="0.0000000000000000e+00" cType="1" res="-1.6099251806735992e-02" rms="3.1333971023559570e-01" purity="1.1472243070602417e-01" nType="-1"/>
            <Node pos="r" depth="3" NCoef="0" IVar="2" Cut="9.3009531497955322e-02" cType="0" res="-4.2214581370353699e-01" rms="9.4346165657043457e-02" purity="8.9167049154639244e-03" nType="0">
              <Node pos="l" depth="4" NCoef="0" IVar="-1" Cut="0.0000000000000000e+00" cType="1" res="-1.8504627048969269e-02" rms="2.5907930731773376e-01" purity="7.3000945150852203e-02" nType="-1"/>
              <Node pos="r" depth="4" NCoef="0" IVar="-1" Cut="0.0000000000000000e+00" cType="1" res="-1.9810944795608521e-02" rms="5.8622993528842926e-02" purity="3.2856739126145840e-03" nType="-1"/>
            </Node>
          </Node>
        </Node>
      </Node>
    </BinaryTree>
    <BinaryTree type="DecisionTree" boostWeight="1.0000000000000000e+00" itree="8">
      <Node pos="s" depth="0" NCoef="0" IVar="3" Cut="7.0013356208801270e-01" cType="0" res="-7.6818116009235382e-02" rms="4.3761068582534790e-01" purity="4.0843936800956726e-01" nType="0">
        <Node pos="l" depth="1" NCoef="0" IVar="-1" Cut="0.0000000000000000e+00" cType="1" res="1.4422843232750893e-02" rms="3.3470186591148376e-01" purity="8.5297960042953491e-01" nType="1"/>
        <Node pos="r" depth="1" NCoef="0" IVar="5" Cut="1.7338992357254028e+00" cType="1" res="-3.4069550037384033e-01" rms="2.8220310807228088e-01" purity="9.4018667936325073e-02" nType="0">
          <Node pos="l" depth="2" NCoef="0" IVar="-1" Cut="0.0000000000000000e+00" cType="1" res="-9.1100875288248062e-03" rms="4.3616357445716858e-01" purity="2.6832973957061768e-01" nType="-1"/>
          <Node pos="r" depth="2" NCoef="0" IVar="2" Cut="1.2758320569992065e-01" cType="0" res="-4.0252131223678589e-01" rms="1.4477287232875824e-01" purity="2.2178739309310913e-02" nType="0">
            <Node pos="l" depth="3" NCoef="0" IVar="-1" Cut="0.0000000000000000e+00" cType="1" res="-1.0683049447834492e-02" rms="3.9631366729736328e-01" purity="2.0353330671787262e-01" nType="-1"/>
            <Node pos="r" depth="3" NCoef="0" IVar="1" Cut="2.1988335996866226e-02" cType="1" res="-4.0936678647994995e-01" rms="1.1972148716449738e-01" purity="1.4986894093453884e-02" nType="0">
              <Node pos="l" depth="4" NCoef="0" IVar="-1" Cut="0.0000000000000000e+00" cType="1" res="-1.7616579309105873e-02" rms="2.1350516378879547e-01" purity="5.1479626446962357e-02" nType="-1"/>
              <Node pos="r" depth="4" NCoef="0" IVar="-1" Cut="0.0000000000000000e+00" cType="1" res="-1.9710104912519455e-02" rms="8.8785849511623383e-02" purity="7.8254071995615959e-03" nType="-1"/>
            </Node>
          </Node>
        </Node>
      </Node>
    </BinaryTree>
    <BinaryTree type="DecisionTree" boostWeight="1.0000000000000000e+00" itree="9">
      <Node pos="s" depth="0" NCoef="0" IVar="3" Cut="7.4429988861083984e-01" cType="0" res="-7.5127497315406799e-02" rms="4.3206003308296204e-01" purity="4.0843936800956726e-01" nType="0">
        <Node pos="l" depth="1" NCoef="0" IVar="-1" Cut="0.0000000000000000e+00" cType="1" res="1.6382630914449692e-02" rms="2.8092402219772339e-01" purity="9.1362023353576660e-01" nType="1"/>
        <Node pos="r" depth="1" NCoef="0" IVar="4" Cut="3.3233377337455750e-01" cType="1" res="-3.0542585253715515e-01" rms="3.1643137335777283e-01" purity="1.2397187948226929e-01" nType="0">
          <Node pos="l" depth="2" NCoef="0" IVar="-1" Cut="0.0000000000000000e+00" cType="1" res="-5.0604855641722679e-03" rms="4.7868099808692932e-01" purity="3.6569634079933167e-01" nType="-1"/>
          <Node pos="r" depth="2" NCoef="0" IVar="4" Cut="4.1146418452262878e-01" cType="1" res="-3.8078844547271729e-01" rms="1.7583334445953369e-01" purity="3.3300578594207764e-02" nType="0">
            <Node pos="l" depth="3" NCoef="0" IVar="-1" Cut="0.0000000000000000e+00" cType="1" res="-1.2727383524179459e-02" rms="3.6755374073982239e-01" purity="1.6409014165401459e-01" nType="-1"/>
            <Node pos="r" depth="3" NCoef="0" IVar="2" Cut="9.3007311224937439e-02" cType="0" res="-3.9199742674827576e-01" rms="1.3678094744682312e-01" purity="1.9641906023025513e-02" nType="0">
              <Node pos="l" depth="4" NCoef="0" IVar="-1" Cut="0.0000000000000000e+00" cType="1" res="-1.5123115852475166e-02" rms="3.2235112786293030e-01" purity="1.2055695801973343e-01" nType="-1"/>
              <Node pos="r" depth="4" NCoef="0" IVar="-1" Cut="0.0000000000000000e+00" cType="1" res="-1.8888914957642555e-02" rms="9.9152281880378723e-02" purity="1.0231768712401390e-02" nType="-1"/>
            </Node>
          </Node>
        </Node>
      </Node>
    </BinaryTree>
    <BinaryTree type="DecisionTree" boostWeight="1.0000000000000000e+00" itree="10">
      <Node pos="s" depth="0" NCoef="0" IVar="3" Cut="7.0013356208801270e-01" cType="0" res="-7.3506094515323639e-02" rms="4.2643758654594421e-01" purity="4.0843936800956726e-01" nType="0">
        <Node pos="l" depth="1" NCoef="0" IVar="-1" Cut="0.0000000000000000e+00" cType="1" res="1.3896427117288113e-02" rms="3.3281829953193665e-01" purity="8.5297960042953491e-01" nType="1"/>
        <Node pos="r" depth="1" NCoef="0" IVar="5" Cut="1.7338992357254028e+00" cType="1" res="-3.2566776871681213e-01" rms="2.8042650222778320e-01" purity="9.4018667936325073e-02" nType="0">
          <Node pos="l" depth="2" NCoef="0" IVar="-1" Cut="0.0000000000000000e+00" cType="1" res="-8.6974864825606346e-03" rms="4.3526181578636169e-01" purity="2.6832973957061768e-01" nType="-1"/>
          <Node pos="r" depth="2" NCoef="0" IVar="2" Cut="1.2758320569992065e-01" cType="0" res="-3.8516622781753540e-01" rms="1.4435718953609467e-01" purity="2.2178739309310913e-02" nType="0">
            <Node pos="l" depth="3" NCoef="0" IVar="-1" Cut="0.0000000000000000e+00" cType="1" res="-1.0225979611277580e-02" rms="3.9582726359367371e-01" purity="2.0353330671787262e-01" nType="-1"/>
            <Node pos="r" depth="3" NCoef="0" IVar="1" Cut="2.1988335996866226e-02" cType="1" res="-3.9177644252777100e-01" rms="1.1960995942354202e-01" purity="1.4986894093453884e-02" nType="0">
              <Node pos="l" depth="4" NCoef="0" IVar="-1" Cut="0.0000000000000000e+00" cType="1" res="-1.7026327550411224e-02" rms="2.1270942687988281e-01" purity="5.1479626446962357e-02" nType="-1"/>
              <Node pos="r" depth="4" NCoef="0" IVar="-1" Cut="0.0000000000000000e+00" cType="1" res="-1.9110577180981636e-02" rms="8.9058548212051392e-02" purity="7.8254071995615959e-03" nType="-1"/>
            </Node>
          </Node>
        </Node>
      </Node>
    </BinaryTree>
    <BinaryTree type="DecisionTree" boostWeight="1.0000000000000000e+00" itree="11">
      <Node pos="s" depth="0" NCoef="0" IVar="3" Cut="7.4429988861083984e-01" cType="0" res="-7.1889474987983704e-02" rms="4.2123794555664062e-01" purity="4.0843936800956726e-01" nType="0">
        <Node pos="l" depth="1" NCoef="0" IVar="-1" Cut="0.0000000000000000e+00" cType="1" res="1.5828456729650497e-02" rms="2.8092402219772339e-01" purity="9.1362023353576660e-01" nType="1"/>
        <Node pos="r" depth="1" NCoef="0" IVar="4" Cut="3.3233377337455750e-01" cType="1" res="-2.9209882020950317e-01" rms="3.1354629993438721e-01" purity="1.2397187948226929e-01" nType="0">
          <Node pos="l" depth="2" NCoef="0" IVar="-1" Cut="0.0000000000000000e+00" cType="1" res="-4.7644143924117088e-03" rms="4.7668164968490601e-01" purity="3.6569634079933167e-01" nType="-1"/>
          <Node pos="r" depth="2" NCoef="0" IVar="2" Cut="9.3007311224937439e-02" cType="0" res="-3.6483249068260193e-01" rms="1.7481945455074310e-01" purity="3.3300578594207764e-02" nType="0">
            <Node pos="l" depth="3" NCoef="0" IVar="-1" Cut="0.0000000000000000e+00" cType="1" res="-1.2935919687151909e-02" rms="3.5297209024429321e-01" purity="1.5063388645648956e-01" nType="-1"/>
            <Node pos="r" depth="3" NCoef="0" IVar="3" Cut="6.8516838550567627e-01" cType="0" res="-3.7524431943893433e-01" rms="1.4285984635353088e-01" purity="2.2195760160684586e-02" nType="0">
              <Node pos="l" depth="4" NCoef="0" IVar="-1" Cut="0.0000000000000000e+00" cType="1" res="-1.3063360936939716e-02" rms="3.4050542116165161e-01" purity="1.4212818443775177e-01" nType="-1"/>
              <Node pos="r" depth="4" NCoef="0" IVar="-1" Cut="0.0000000000000000e+00" cType="1" res="-1.8406296148896217e-02" rms="9.7427450120449066e-02" purity="9.8263099789619446e-03" nType="-1"/>
            </Node>
          </Node>
        </Node>
      </Node>
    </BinaryTree>
    <BinaryTree type="DecisionTree" boostWeight="1.0000000000000000e+00" itree="12">
      <Node pos="s" depth="0" NCoef="0" IVar="3" Cut="7.4429988861083984e-01" cType="0" res="-7.0340648293495178e-02" rms="4.1595682501792908e-01" purity="4.0843936800956726e-01" nType="0">
        <Node pos="l" depth="1" NCoef="0" IVar="-1" Cut="0.0000000000000000e+00" cType="1" res="1.5547557733952999e-02" rms="2.8092402219772339e-01" purity="9.1362023353576660e-01" nType="1"/>
        <Node pos="r" depth="1" NCoef="0" IVar="4" Cut="3.3233377337455750e-01" cType="1" res="-2.8539350628852844e-01" rms="3.1245884299278259e-01" purity="1.2397187948226929e-01" nType="0">
          <Node pos="l" depth="2" NCoef="0" IVar="-1" Cut="0.0000000000000000e+00" cType="1" res="-4.6528624370694160e-03" rms="4.7668480873107910e-01" purity="3.6569634079933167e-01" nType="-1"/>
          <Node pos="r" depth="2" NCoef="0" IVar="2" Cut="9.3007311224937439e-02" cType="0" res="-3.5650011897087097e-01" rms="1.7459253966808319e-01" purity="3.3300578594207764e-02" nType="0">
            <Node pos="l" depth="3" NCoef="0" IVar="-1" Cut="0.0000000000000000e+00" cType="1" res="-1.2683723121881485e-02" rms="3.5299366712570190e-01" purity="1.5063388645648956e-01" nType="-1"/>
            <Node pos="r" depth="3" NCoef="0" IVar="4" Cut="3.7042683362960815e-01" cType="1" res="-3.6671182513237000e-01" rms="1.4271806180477142e-01" purity="2.2195760160684586e-02" nType="0">
              <Node pos="l" depth="4" NCoef="0" IVar="-1" Cut="0.0000000000000000e+00" cType="1" res="-1.1167374439537525e-02" rms="3.7938389182090759e-01" purity="1.8116600811481476e-01" nType="-1"/>
              <Node pos="r" depth="4" NCoef="0" IVar="-1" Cut="0.0000000000000000e+00" cType="1" res="-1.7998529598116875e-02" rms="1.1126155406236649e-01" purity="1.3212852180004120e-02" nType="-1"/>
            </Node>
          </Node>
        </Node>
      </Node>
    </BinaryTree>
    <BinaryTree type="DecisionTree" boostWeight="1.0000000000000000e+00" itree="13">
      <Node pos="s" depth="0" NCoef="0" IVar="3" Cut="7.0013356208801270e-01" cType="0" res="-6.8825773894786835e-02" rms="4.1085711121559143e-01" purity="4.0843936800956726e-01" nType="0">
        <Node pos="l" depth="1" NCoef="0" IVar="-1" Cut="0.0000000000000000e+00" cType="1" res="1.3193119317293167e-02" rms="3.2961013913154602e-01" purity="8.5297960042953491e-01" nType="1"/>
        <Node pos="r" depth="1" NCoef="0" IVar="5" Cut="1.7338992357254028e+00" cType="1" res="-3.0456748604774475e-01" rms="2.7786296606063843e-01" purity="9.4018667936325073e-02" nType="0">
          <Node pos="l" depth="2" NCoef="0" IVar="-1" Cut="0.0000000000000000e+00" cType="1" res="-8.1067159771919250e-03" rms="4.3348464369773865e-01" purity="2.6832973957061768e-01" nType="-1"/>
          <Node pos="r" depth="2" NCoef="0" IVar="2" Cut="1.2758320569992065e-01" cType="0" res="-3.6098617315292358e-01" rms="1.4379668235778809e-01" purity="2.2178739309310913e-02" nType="0">
            <Node pos="l" depth="3" NCoef="0" IVar="-1" Cut="0.0000000000000000e+00" cType="1" res="-9.6127800643444061e-03" rms="3.9519968628883362e-01" purity="2.0353330671787262e-01" nType="-1"/>
            <Node pos="r" depth="3" NCoef="0" IVar="1" Cut="2.1988335996866226e-02" cType="1" res="-3.6725276708602905e-01" rms="1.1947517096996307e-01" purity="1.4986894093453884e-02" nType="0">
              <Node pos="l" depth="4" NCoef="0" IVar="-1" Cut="0.0000000000000000e+00" cType="1" res="-1.6238290816545486e-02" rms="2.1121385693550110e-01" purity="5.1479626446962357e-02" nType="-1"/>
              <Node pos="r" depth="4" NCoef="0" IVar="-1" Cut="0.0000000000000000e+00" cType="1" res="-1.8336184322834015e-02" rms="8.9619867503643036e-02" purity="7.8254071995615959e-03" nType="-1"/>
            </Node>
          </Node>
        </Node>
      </Node>
    </BinaryTree>
    <BinaryTree type="DecisionTree" boostWeight="1.0000000000000000e+00" itree="14">
      <Node pos="s" depth="0" NCoef="0" IVar="3" Cut="7.4429988861083984e-01" cType="0" res="-6.7313395440578461e-02" rms="4.0614017844200134e-01" purity="4.0843936800956726e-01" nType="0">
        <Node pos="l" depth="1" NCoef="0" IVar="-1" Cut="0.0000000000000000e+00" cType="1" res="1.5051814727485180e-02" rms="2.8092402219772339e-01" purity="9.1362023353576660e-01" nType="1"/>
        <Node pos="r" depth="1" NCoef="0" IVar="4" Cut="3.3233377337455750e-01" cType="1" res="-2.7295410633087158e-01" rms="3.0985066294670105e-01" purity="1.2397187948226929e-01" nType="0">
          <Node pos="l" depth="2" NCoef="0" IVar="-1" Cut="0.0000000000000000e+00" cType="1" res="-4.3788370676338673e-03" rms="4.7482115030288696e-01" purity="3.6569634079933167e-01" nType="-1"/>
          <Node pos="r" depth="2" NCoef="0" IVar="2" Cut="9.3007311224937439e-02" cType="0" res="-3.4159737825393677e-01" rms="1.7371760308742523e-01" purity="3.3300578594207764e-02" nType="0">
            <Node pos="l" depth="3" NCoef="0" IVar="-1" Cut="0.0000000000000000e+00" cType="1" res="-1.2191625311970711e-02" rms="3.5247278213500977e-01" purity="1.5063388645648956e-01" nType="-1"/>
            <Node pos="r" depth="3" NCoef="0" IVar="4" Cut="3.7042683362960815e-01" cType="1" res="-3.5155633091926575e-01" rms="1.4187528192996979e-01" purity="2.2195760160684586e-02" nType="0">
              <Node pos="l" depth="4" NCoef="0" IVar="-1" Cut="0.0000000000000000e+00" cType="1" res="-1.0770348832011223e-02" rms="3.7745496630668640e-01" purity="1.8116600811481476e-01" nType="-1"/>
              <Node pos="r" depth="4" NCoef="0" IVar="-1" Cut="0.0000000000000000e+00" cType="1" res="-1.7536817118525505e-02" rms="1.1082547903060913e-01" purity="1.3212852180004120e-02" nType="-1"/>
            </Node>
          </Node>
        </Node>
      </Node>
    </BinaryTree>
    <BinaryTree type="DecisionTree" boostWeight="1.0000000000000000e+00" itree="15">
      <Node pos="s" depth="0" NCoef="0" IVar="3" Cut="7.0013356208801270e-01" cType="0" res="-6.5865010023117065e-02" rms="4.0135884284973145e-01" purity="4.0843936800956726e-01" nType="0">
        <Node pos="l" depth="1" NCoef="0" IVar="-1" Cut="0.0000000000000000e+00" cType="1" res="1.2749307788908482e-02" rms="3.2804384827613831e-01" purity="8.5297960042953491e-01" nType="1"/>
        <Node pos="r" depth="1" NCoef="0" IVar="5" Cut="1.7338992357254028e+00" cType="1" res="-2.9117429256439209e-01" rms="2.7636116743087769e-01" purity="9.4018667936325073e-02" nType="0">
          <Node pos="l" depth="2" NCoef="0" IVar="-1" Cut="0.0000000000000000e+00" cType="1" res="-7.7469558455049992e-03" rms="4.3267217278480530e-01" purity="2.6832973957061768e-01" nType="-1"/>
          <Node pos="r" depth="2" NCoef="0" IVar="2" Cut="1.2758320569992065e-01" cType="0" res="-3.4549894928932190e-01" rms="1.4348065853118896e-01" purity="2.2178739309310913e-02" nType="0">
            <Node pos="l" depth="3" NCoef="0" IVar="-1" Cut="0.0000000000000000e+00" cType="1" res="-9.2359948903322220e-03" rms="3.9492452144622803e-01" purity="2.0353330671787262e-01" nType="-1"/>
            <Node pos="r" depth="3" NCoef="0" IVar="1" Cut="2.1988335996866226e-02" cType="1" res="-3.5153079032897949e-01" rms="1.1943300813436508e-01" purity="1.4986894093453884e-02" nType="0">
              <Node pos="l" depth="4" NCoef="0" IVar="-1" Cut="0.0000000000000000e+00" cType="1" res="-1.5759626403450966e-02" rms="2.1053583920001984e-01" purity="5.1479626446962357e-02" nType="-1"/>
              <Node pos="r" depth="4" NCoef="0" IVar="-1" Cut="0.0000000000000000e+00" cType="1" res="-1.7867797985672951e-02" rms="8.9932285249233246e-02" purity="7.8254071995615959e-03" nType="-1"/>
            </Node>
          </Node>
        </Node>
      </Node>
    </BinaryTree>
    <BinaryTree type="DecisionTree" boostWeight="1.0000000000000000e+00" itree="16">
      <Node pos="s" depth="0" NCoef="0" IVar="3" Cut="7.4429988861083984e-01" cType="0" res="-6.4418375492095947e-02" rms="3.9694964885711670e-01" purity="4.0843936800956726e-01" nType="0">
        <Node pos="l" depth="1" NCoef="0" IVar="-1" Cut="0.0000000000000000e+00" cType="1" res="1.4588526450097561e-02" rms="2.8092402219772339e-01" purity="9.1362023353576660e-01" nType="1"/>
        <Node pos="r" depth="1" NCoef="0" IVar="4" Cut="3.3233377337455750e-01" cType="1" res="-2.6107016205787659e-01" rms="3.0742242932319641e-01" purity="1.2397187948226929e-01" nType="0">
          <Node pos="l" depth="2" NCoef="0" IVar="-1" Cut="0.0000000000000000e+00" cType="1" res="-4.1188672184944153e-03" rms="4.7305548191070557e-01" purity="3.6569634079933167e-01" nType="-1"/>
          <Node pos="r" depth="2" NCoef="0" IVar="2" Cut="9.3007311224937439e-02" cType="0" res="-3.2734993100166321e-01" rms="1.7295522987842560e-01" purity="3.3300578594207764e-02" nType="0">
            <Node pos="l" depth="3" NCoef="0" IVar="-1" Cut="0.0000000000000000e+00" cType="1" res="-1.1726381257176399e-02" rms="3.5198497772216797e-01" purity="1.5063388645648956e-01" nType="-1"/>
            <Node pos="r" depth="3" NCoef="0" IVar="4" Cut="3.7042683362960815e-01" cType="1" res="-3.3706378936767578e-01" rms="1.4116507768630981e-01" purity="2.2195760160684586e-02" nType="0">
              <Node pos="l" depth="4" NCoef="0" IVar="-1" Cut="0.0000000000000000e+00" cType="1" res="-1.0395239107310772e-02" rms="3.7566050887107849e-01" purity="1.8116600811481476e-01" nType="-1"/>
              <Node pos="r" depth="4" NCoef="0" IVar="-1" Cut="0.0000000000000000e+00" cType="1" res="-1.7115848138928413e-02" rms="1.1051844060420990e-01" purity="1.3212852180004120e-02" nType="-1"/>
            </Node>
          </Node>
        </Node>
      </Node>
    </BinaryTree>
    <BinaryTree type="DecisionTree" boostWeight="1.0000000000000000e+00" itree="17">
      <Node pos="s" depth="0" NCoef="0" IVar="3" Cut="7.2221672534942627e-01" cType="0" res="-6.3033513724803925e-02" rms="3.9247012138366699e-01" purity="4.0843936800956726e-01" nType="0">
        <Node pos="l" depth="1" NCoef="0" IVar="-1" Cut="0.0000000000000000e+00" cType="1" res="1.2997871264815331e-02" rms="3.1209090352058411e-01" purity="8.7376421689987183e-01" nType="1"/>
        <Node pos="r" depth="1" NCoef="0" IVar="5" Cut="1.7338992357254028e+00" cType="1" res="-2.6973366737365723e-01" rms="2.8747197985649109e-01" purity="1.0523334890604019e-01" nType="0">
          <Node pos="l" depth="2" NCoef="0" IVar="-1" Cut="0.0000000000000000e+00" cType="1" res="-6.4498190768063068e-03" rms="4.4078633189201355e-01" purity="2.9124906659126282e-01" nType="-1"/>
          <Node pos="r" depth="2" NCoef="0" IVar="2" Cut="1.2758320569992065e-01" cType="0" res="-3.2911273837089539e-01" rms="1.5106526017189026e-01" purity="2.5079369544982910e-02" nType="0">
            <Node pos="l" depth="3" NCoef="0" IVar="-1" Cut="0.0000000000000000e+00" cType="1" res="-8.8781081140041351e-03" rms="3.9466854929924011e-01" purity="2.0353330671787262e-01" nType="-1"/>
            <Node pos="r" depth="3" NCoef="0" IVar="1" Cut="2.1988335996866226e-02" cType="1" res="-3.3473792672157288e-01" rms="1.2965600192546844e-01" purity="1.8147878348827362e-02" nType="0">
              <Node pos="l" depth="4" NCoef="0" IVar="-1" Cut="0.0000000000000000e+00" cType="1" res="-1.5059046447277069e-02" rms="2.2376486659049988e-01" purity="6.0142580419778824e-02" nType="-1"/>
              <Node pos="r" depth="4" NCoef="0" IVar="-1" Cut="0.0000000000000000e+00" cType="1" res="-1.7398301512002945e-02" rms="9.8931580781936646e-02" purity="9.7193690016865730e-03" nType="-1"/>
            </Node>
          </Node>
        </Node>
      </Node>
    </BinaryTree>
    <BinaryTree type="DecisionTree" boostWeight="1.0000000000000000e+00" itree="18">
      <Node pos="s" depth="0" NCoef="0" IVar="3" Cut="7.4429988861083984e-01" cType="0" res="-6.1640415340662003e-02" rms="3.8828551769256592e-01" purity="4.0843936800956726e-01" nType="0">
        <Node pos="l" depth="1" NCoef="0" IVar="-1" Cut="0.0000000000000000e+00" cType="1" res="1.4143181033432484e-02" rms="2.8092402219772339e-01" purity="9.1362023353576660e-01" nType="1"/>
        <Node pos="r" depth="1" NCoef="0" IVar="4" Cut="3.3233377337455750e-01" cType="1" res="-2.4952942132949829e-01" rms="3.0533248186111450e-01" purity="1.2397187948226929e-01" nType="0">
          <Node pos="l" depth="2" NCoef="0" IVar="-1" Cut="0.0000000000000000e+00" cType="1" res="-3.8589860778301954e-03" rms="4.7168353199958801e-01" purity="3.6569634079933167e-01" nType="-1"/>
          <Node pos="r" depth="2" NCoef="0" IVar="2" Cut="9.3007311224937439e-02" cType="0" res="-3.1356751918792725e-01" rms="1.7236483097076416e-01" purity="3.3300578594207764e-02" nType="0">
            <Node pos="l" depth="3" NCoef="0" IVar="-1" Cut="0.0000000000000000e+00" cType="1" res="-1.1290002614259720e-02" rms="3.5147491097450256e-01" purity="1.5063388645648956e-01" nType="-1"/>
            <Node pos="r" depth="3" NCoef="0" IVar="4" Cut="3.8911050558090210e-01" cType="1" res="-3.2301688194274902e-01" rms="1.4070178568363190e-01" purity="2.2195760160684586e-02" nType="0">
              <Node pos="l" depth="4" NCoef="0" IVar="-1" Cut="0.0000000000000000e+00" cType="1" res="-1.1082775890827179e-02" rms="3.5137417912483215e-01" purity="1.5744751691818237e-01" nType="-1"/>
              <Node pos="r" depth="4" NCoef="0" IVar="-1" Cut="0.0000000000000000e+00" cType="1" res="-1.6803694888949394e-02" rms="1.0189587622880936e-01" purity="1.0984750464558601e-02" nType="-1"/>
            </Node>
          </Node>
        </Node>
      </Node>
    </BinaryTree>
    <BinaryTree type="DecisionTree" boostWeight="1.0000000000000000e+00" itree="19">
      <Node pos="s" depth="0" NCoef="0" IVar="3" Cut="7.0013356208801270e-01" cType="0" res="-6.0316778719425201e-02" rms="3.8409802317619324e-01" purity="4.0843936800956726e-01" nType="0">
        <Node pos="l" depth="1" NCoef="0" IVar="-1" Cut="0.0000000000000000e+00" cType="1" res="1.1956152506172657e-02" rms="3.2474198937416077e-01" purity="8.5297960042953491e-01" nType="1"/>
        <Node pos="r" depth="1" NCoef="0" IVar="2" Cut="8.0889552831649780e-02" cType="0" res="-2.6631048321723938e-01" rms="2.7361023426055908e-01" purity="9.4018667936325073e-02" nType="0">
          <Node pos="l" depth="2" NCoef="0" IVar="-1" Cut="0.0000000000000000e+00" cType="1" res="-4.0658912621438503e-03" rms="4.3282717466354370e-01" purity="3.0442798137664795e-01" nType="-1"/>
          <Node pos="r" depth="2" NCoef="0" IVar="3" Cut="6.6201931238174438e-01" cType="0" res="-3.0050054192543030e-01" rms="2.1673965454101562e-01" purity="5.6207098066806793e-02" nType="0">
            <Node pos="l" depth="3" NCoef="0" IVar="-1" Cut="0.0000000000000000e+00" cType="1" res="-9.4708688557147980e-03" rms="3.6248454451560974e-01" purity="1.8611782789230347e-01" nType="-1"/>
            <Node pos="r" depth="3" NCoef="0" IVar="1" Cut="1.5589101240038872e-02" cType="1" res="-3.1720453500747681e-01" rms="1.7991197109222412e-01" purity="3.7071999162435532e-02" nType="0">
              <Node pos="l" depth="4" NCoef="0" IVar="-1" Cut="0.0000000000000000e+00" cType="1" res="-1.2029851786792278e-02" rms="3.0226638913154602e-01" purity="1.2119504809379578e-01" nType="-1"/>
              <Node pos="r" depth="4" NCoef="0" IVar="-1" Cut="0.0000000000000000e+00" cType="1" res="-1.6749845817685127e-02" rms="1.4270776510238647e-01" purity="2.1761085838079453e-02" nType="-1"/>
            </Node>
          </Node>
        </Node>
      </Node>
    </BinaryTree>
    <BinaryTree type="DecisionTree" boostWeight="1.0000000000000000e+00" itree="20">
      <Node pos="s" depth="0" NCoef="0" IVar="3" Cut="7.4429988861083984e-01" cType="0" res="-5.9013880789279938e-02" rms="3.8020238280296326e-01" purity="4.0843936800956726e-01" nType="0">
        <Node pos="l" depth="1" NCoef="0" IVar="-1" Cut="0.0000000000000000e+00" cType="1" res="1.3733786530792713e-02" rms="2.8092402219772339e-01" purity="9.1362023353576660e-01" nType="1"/>
        <Node pos="r" depth="1" NCoef="0" IVar="5" Cut="1.7338992357254028e+00" cType="1" res="-2.3871599137783051e-01" rms="3.0310410261154175e-01" purity="1.2397187948226929e-01" nType="0">
          <Node pos="l" depth="2" NCoef="0" IVar="-1" Cut="0.0000000000000000e+00" cType="1" res="-4.3007344938814640e-03" rms="4.5010828971862793e-01" purity="3.3043703436851501e-01" nType="-1"/>
          <Node pos="r" depth="2" NCoef="0" IVar="1" Cut="3.0983563512563705e-02" cType="1" res="-3.0833619832992554e-01" rms="1.5983548760414124e-01" purity="2.8981076553463936e-02" nType="0">
            <Node pos="l" depth="3" NCoef="0" IVar="-1" Cut="0.0000000000000000e+00" cType="1" res="-1.2942417524755001e-02" rms="2.7641308307647705e-01" purity="9.8700784146785736e-02" nType="-1"/>
            <Node pos="r" depth="3" NCoef="0" IVar="4" Cut="3.8480737805366516e-01" cType="1" res="-3.2334402203559875e-01" rms="1.0749992728233337e-01" purity="1.1328905820846558e-02" nType="0">
              <Node pos="l" depth="4" NCoef="0" IVar="-1" Cut="0.0000000000000000e+00" cType="1" res="-1.8101958557963371e-02" rms="1.2768279016017914e-01" purity="1.6213607043027878e-02" nType="-1"/>
              <Node pos="r" depth="4" NCoef="0" IVar="-1" Cut="0.0000000000000000e+00" cType="1" res="-1.6501389443874359e-02" rms="1.0014140605926514e-01" purity="1.0423985309898853e-02" nType="-1"/>
            </Node>
          </Node>
        </Node>
      </Node>
    </BinaryTree>
    <BinaryTree type="DecisionTree" boostWeight="1.0000000000000000e+00" itree="21">
      <Node pos="s" depth="0" NCoef="0" IVar="3" Cut="7.0013356208801270e-01" cType="0" res="-5.7728826999664307e-02" rms="3.7627270817756653e-01" purity="4.0843936800956726e-01" nType="0">
        <Node pos="l" depth="1" NCoef="0" IVar="-1" Cut="0.0000000000000000e+00" cType="1" res="1.1578782461583614e-02" rms="3.2355070114135742e-01" purity="8.5297960042953491e-01" nType="1"/>
        <Node pos="r" depth="1" NCoef="0" IVar="2" Cut="8.0889552831649780e-02" cType="0" res="-2.5460386276245117e-01" rms="2.7224561572074890e-01" purity="9.4018667936325073e-02" nType="0">
          <Node pos="l" depth="2" NCoef="0" IVar="-1" Cut="0.0000000000000000e+00" cType="1" res="-3.7182518281042576e-03" rms="4.3146204948425293e-01" purity="3.0442798137664795e-01" nType="-1"/>
          <Node pos="r" depth="2" NCoef="0" IVar="4" Cut="1.9840076565742493e-01" cType="1" res="-2.8796112537384033e-01" rms="2.1605244278907776e-01" purity="5.6207098066806793e-02" nType="0">
            <Node pos="l" depth="3" NCoef="0" IVar="-1" Cut="0.0000000000000000e+00" cType="1" res="-8.3636101335287094e-03" rms="4.2943066358566284e-01" purity="2.5251150131225586e-01" nType="-1"/>
            <Node pos="r" depth="3" NCoef="0" IVar="3" Cut="6.8019187450408936e-01" cType="0" res="-3.0357325077056885e-01" rms="1.6169296205043793e-01" purity="2.9878161847591400e-02" nType="0">
              <Node pos="l" depth="4" NCoef="0" IVar="-1" Cut="0.0000000000000000e+00" cType="1" res="-7.8158276155591011e-03" rms="3.7227693200111389e-01" purity="2.0407406985759735e-01" nType="-1"/>
              <Node pos="r" depth="4" NCoef="0" IVar="-1" Cut="0.0000000000000000e+00" cType="1" res="-1.6118574887514114e-02" rms="1.3768060505390167e-01" purity="2.0789491012692451e-02" nType="-1"/>
            </Node>
          </Node>
        </Node>
      </Node>
    </BinaryTree>
    <BinaryTree type="DecisionTree" boostWeight="1.0000000000000000e+00" itree="22">
      <Node pos="s" depth="0" NCoef="0" IVar="3" Cut="7.4429988861083984e-01" cType="0" res="-5.6490298360586166e-02" rms="3.7262868881225586e-01" purity="4.0843936800956726e-01" nType="0">
        <Node pos="l" depth="1" NCoef="0" IVar="-1" Cut="0.0000000000000000e+00" cType="1" res="1.3346749357879162e-02" rms="2.8092402219772339e-01" purity="9.1362023353576660e-01" nType="1"/>
        <Node pos="r" depth="1" NCoef="0" IVar="4" Cut="3.3233377337455750e-01" cType="1" res="-2.2836747765541077e-01" rms="3.0099236965179443e-01" purity="1.2397187948226929e-01" nType="0">
          <Node pos="l" depth="2" NCoef="0" IVar="-1" Cut="0.0000000000000000e+00" cType="1" res="-3.2410223502665758e-03" rms="4.6672463417053223e-01" purity="3.6569634079933167e-01" nType="-1"/>
          <Node pos="r" depth="2" NCoef="0" IVar="4" Cut="4.1146418452262878e-01" cType="1" res="-2.8942677378654480e-01" rms="1.7088778316974640e-01" purity="3.3300578594207764e-02" nType="0">
            <Node pos="l" depth="3" NCoef="0" IVar="-1" Cut="0.0000000000000000e+00" cType="1" res="-9.9534122273325920e-03" rms="3.5542035102844238e-01" purity="1.6409014165401459e-01" nType="-1"/>
            <Node pos="r" depth="3" NCoef="0" IVar="6" Cut="-7.2057995796203613e+00" cType="1" res="-2.9876703023910522e-01" rms="1.3467529416084290e-01" purity="1.9641906023025513e-02" nType="0">
              <Node pos="l" depth="4" NCoef="0" IVar="-1" Cut="0.0000000000000000e+00" cType="1" res="-1.1143147945404053e-02" rms="3.0852043628692627e-01" purity="1.2025223672389984e-01" nType="-1"/>
              <Node pos="r" depth="4" NCoef="0" IVar="-1" Cut="0.0000000000000000e+00" cType="1" res="-1.6336958855390549e-02" rms="9.9684722721576691e-02" purity="9.8241940140724182e-03" nType="-1"/>
            </Node>
          </Node>
        </Node>
      </Node>
    </BinaryTree>
    <BinaryTree type="DecisionTree" boostWeight="1.0000000000000000e+00" itree="23">
      <Node pos="s" depth="0" NCoef="0" IVar="3" Cut="7.0013356208801270e-01" cType="0" res="-5.5272251367568970e-02" rms="3.6894109845161438e-01" purity="4.0843936800956726e-01" nType="0">
        <Node pos="l" depth="1" NCoef="0" IVar="-1" Cut="0.0000000000000000e+00" cType="1" res="1.1220901273190975e-02" rms="3.2236796617507935e-01" purity="8.5297960042953491e-01" nType="1"/>
        <Node pos="r" depth="1" NCoef="0" IVar="2" Cut="8.0889552831649780e-02" cType="0" res="-2.4345584213733673e-01" rms="2.7093988656997681e-01" purity="9.4018667936325073e-02" nType="0">
          <Node pos="l" depth="2" NCoef="0" IVar="-1" Cut="0.0000000000000000e+00" cType="1" res="-3.3859021496027708e-03" rms="4.3011203408241272e-01" purity="3.0442798137664795e-01" nType="-1"/>
          <Node pos="r" depth="2" NCoef="0" IVar="3" Cut="6.6201931238174438e-01" cType="0" res="-2.7601510286331177e-01" rms="2.1539795398712158e-01" purity="5.6207098066806793e-02" nType="0">
            <Node pos="l" depth="3" NCoef="0" IVar="-1" Cut="0.0000000000000000e+00" cType="1" res="-8.6985016241669655e-03" rms="3.5987412929534912e-01" purity="1.8611782789230347e-01" nType="-1"/>
            <Node pos="r" depth="3" NCoef="0" IVar="1" Cut="2.7180997654795647e-02" cType="1" res="-2.9199960827827454e-01" rms="1.7934337258338928e-01" purity="3.7071999162435532e-02" nType="0">
              <Node pos="l" depth="4" NCoef="0" IVar="-1" Cut="0.0000000000000000e+00" cType="1" res="-1.1761507019400597e-02" rms="2.9296579957008362e-01" purity="1.1433035880327225e-01" nType="-1"/>
              <Node pos="r" depth="4" NCoef="0" IVar="-1" Cut="0.0000000000000000e+00" cType="1" res="-1.6063326969742775e-02" rms="1.3951535522937775e-01" purity="2.0521961152553558e-02" nType="-1"/>
            </Node>
          </Node>
        </Node>
      </Node>
    </BinaryTree>
    <BinaryTree type="DecisionTree" boostWeight="1.0000000000000000e+00" itree="24">
      <Node pos="s" depth="0" NCoef="0" IVar="3" Cut="7.5076323747634888e-01" cType="0" res="-5.4082233458757401e-02" rms="3.6554518342018127e-01" purity="4.0843936800956726e-01" nType="0">
        <Node pos="l" depth="1" NCoef="0" IVar="-1" Cut="0.0000000000000000e+00" cType="1" res="1.3458303175866604e-02" rms="2.6876336336135864e-01" purity="9.2162334918975830e-01" nType="1"/>
        <Node pos="r" depth="1" NCoef="0" IVar="4" Cut="3.7031477689743042e-01" cType="1" res="-2.1418596804141998e-01" rms="3.0451461672782898e-01" purity="1.3453711569309235e-01" nType="0">
          <Node pos="l" depth="2" NCoef="0" IVar="-1" Cut="0.0000000000000000e+00" cType="1" res="-3.1923255883157253e-03" rms="4.5568430423736572e-01" purity="3.6714646220207214e-01" nType="-1"/>
          <Node pos="r" depth="2" NCoef="0" IVar="2" Cut="9.3007311224937439e-02" cType="0" res="-2.8445616364479065e-01" rms="1.5306147933006287e-01" purity="2.5599788874387741e-02" nType="0">
            <Node pos="l" depth="3" NCoef="0" IVar="-1" Cut="0.0000000000000000e+00" cType="1" res="-1.0357347317039967e-02" rms="3.5038128495216370e-01" purity="1.5060202777385712e-01" nType="-1"/>
            <Node pos="r" depth="3" NCoef="0" IVar="2" Cut="3.9829824119806290e-02" cType="0" res="-2.9376876354217529e-01" rms="1.1223328113555908e-01" purity="1.3177342712879181e-02" nType="0">
              <Node pos="l" depth="4" NCoef="0" IVar="-1" Cut="0.0000000000000000e+00" cType="1" res="-1.4974068850278854e-02" rms="1.5377880632877350e-01" purity="2.7718719094991684e-02" nType="-1"/>
              <Node pos="r" depth="4" NCoef="0" IVar="-1" Cut="0.0000000000000000e+00" cType="1" res="-1.6599124297499657e-02" rms="4.9293309450149536e-02" purity="5.3597090300172567e-04" nType="-1"/>
            </Node>
          </Node>
        </Node>
      </Node>
    </BinaryTree>
    <BinaryTree type="DecisionTree" boostWeight="1.0000000000000000e+00" itree="25">
      <Node pos="s" depth="0" NCoef="0" IVar="3" Cut="7.4429988861083984e-01" cType="0" res="-5.2931323647499084e-02" rms="3.6204889416694641e-01" purity="4.0843936800956726e-01" nType="0">
        <Node pos="l" depth="1" NCoef="0" IVar="-1" Cut="0.0000000000000000e+00" cType="1" res="1.2790475040674210e-02" rms="2.8064215183258057e-01" purity="9.1362023353576660e-01" nType="1"/>
        <Node pos="r" depth="1" NCoef="0" IVar="5" Cut="1.7338992357254028e+00" cType="1" res="-2.1353916823863983e-01" rms="2.9822286963462830e-01" purity="1.2397187948226929e-01" nType="0">
          <Node pos="l" depth="2" NCoef="0" IVar="-1" Cut="0.0000000000000000e+00" cType="1" res="-3.5611572675406933e-03" rms="4.4476449489593506e-01" purity="3.3043703436851501e-01" nType="-1"/>
          <Node pos="r" depth="2" NCoef="0" IVar="1" Cut="3.0983563512563705e-02" cType="1" res="-2.7904853224754333e-01" rms="1.5882298350334167e-01" purity="2.8981076553463936e-02" nType="0">
            <Node pos="l" depth="3" NCoef="0" IVar="-1" Cut="0.0000000000000000e+00" cType="1" res="-1.2110867537558079e-02" rms="2.7306380867958069e-01" purity="9.8700784146785736e-02" nType="-1"/>
            <Node pos="r" depth="3" NCoef="0" IVar="4" Cut="3.8480737805366516e-01" cType="1" res="-2.9310268163681030e-01" rms="1.0842064023017883e-01" purity="1.1328905820846558e-02" nType="0">
              <Node pos="l" depth="4" NCoef="0" IVar="-1" Cut="0.0000000000000000e+00" cType="1" res="-1.7407201230525970e-02" rms="1.2847214937210083e-01" purity="1.6213607043027878e-02" nType="-1"/>
              <Node pos="r" depth="4" NCoef="0" IVar="-1" Cut="0.0000000000000000e+00" cType="1" res="-1.5729948878288269e-02" rms="1.0031567513942719e-01" purity="1.0423985309898853e-02" nType="-1"/>
            </Node>
          </Node>
        </Node>
      </Node>
    </BinaryTree>
    <BinaryTree type="DecisionTree" boostWeight="1.0000000000000000e+00" itree="26">
      <Node pos="s" depth="0" NCoef="0" IVar="3" Cut="7.0013356208801270e-01" cType="0" res="-5.1779769361019135e-02" rms="3.5871705412864685e-01" purity="4.0843936800956726e-01" nType="0">
        <Node pos="l" depth="1" NCoef="0" IVar="-1" Cut="0.0000000000000000e+00" cType="1" res="1.0740458033978939e-02" rms="3.2001391053199768e-01" purity="8.5297960042953491e-01" nType="1"/>
        <Node pos="r" depth="1" NCoef="0" IVar="2" Cut="8.0889552831649780e-02" cType="0" res="-2.2787174582481384e-01" rms="2.6908847689628601e-01" purity="9.4018667936325073e-02" nType="0">
          <Node pos="l" depth="2" NCoef="0" IVar="-1" Cut="0.0000000000000000e+00" cType="1" res="-2.8759222477674484e-03" rms="4.2797657847404480e-01" purity="3.0442798137664795e-01" nType="-1"/>
          <Node pos="r" depth="2" NCoef="0" IVar="3" Cut="6.6201931238174438e-01" cType="0" res="-2.5944763422012329e-01" rms="2.1438311040401459e-01" purity="5.6207098066806793e-02" nType="0">
            <Node pos="l" depth="3" NCoef="0" IVar="-1" Cut="0.0000000000000000e+00" cType="1" res="-8.1774434074759483e-03" rms="3.5783693194389343e-01" purity="1.8611782789230347e-01" nType="-1"/>
            <Node pos="r" depth="3" NCoef="0" IVar="1" Cut="1.5589101240038872e-02" cType="1" res="-2.7492767572402954e-01" rms="1.7889280617237091e-01" purity="3.7071999162435532e-02" nType="0">
              <Node pos="l" depth="4" NCoef="0" IVar="-1" Cut="0.0000000000000000e+00" cType="1" res="-1.0763025842607021e-02" rms="2.9918280243873596e-01" purity="1.2119504809379578e-01" nType="-1"/>
              <Node pos="r" depth="4" NCoef="0" IVar="-1" Cut="0.0000000000000000e+00" cType="1" res="-1.5612066723406315e-02" rms="1.4299657940864563e-01" purity="2.1761085838079453e-02" nType="-1"/>
            </Node>
          </Node>
        </Node>
      </Node>
    </BinaryTree>
    <BinaryTree type="DecisionTree" boostWeight="1.0000000000000000e+00" itree="27">
      <Node pos="s" depth="0" NCoef="0" IVar="3" Cut="7.7607804536819458e-01" cType="0" res="-5.0664100795984268e-02" rms="3.5564246773719788e-01" purity="4.0843936800956726e-01" nType="0">
        <Node pos="l" depth="1" NCoef="0" IVar="-1" Cut="0.0000000000000000e+00" cType="1" res="1.4321570284664631e-02" rms="2.2618237137794495e-01" purity="9.4591653347015381e-01" nType="1"/>
        <Node pos="r" depth="1" NCoef="0" IVar="4" Cut="3.4282851219177246e-01" cType="1" res="-1.8858252465724945e-01" rms="3.1542447209358215e-01" purity="1.6527803242206573e-01" nType="0">
          <Node pos="l" depth="2" NCoef="0" IVar="-1" Cut="0.0000000000000000e+00" cType="1" res="-9.0541178360581398e-04" rms="4.5120045542716980e-01" purity="4.4202086329460144e-01" nType="-1"/>
          <Node pos="r" depth="2" NCoef="0" IVar="4" Cut="4.1740122437477112e-01" cType="1" res="-2.6538354158401489e-01" rms="1.8354782462120056e-01" purity="4.0903743356466293e-02" nType="0">
            <Node pos="l" depth="3" NCoef="0" IVar="-1" Cut="0.0000000000000000e+00" cType="1" res="-8.1286821514368057e-03" rms="3.5970476269721985e-01" purity="2.0975975692272186e-01" nType="-1"/>
            <Node pos="r" depth="3" NCoef="0" IVar="3" Cut="7.2691732645034790e-01" cType="0" res="-2.7618727087974548e-01" rms="1.4998963475227356e-01" purity="2.3340092971920967e-02" nType="0">
              <Node pos="l" depth="4" NCoef="0" IVar="-1" Cut="0.0000000000000000e+00" cType="1" res="-2.0958319306373596e-02" rms="2.7068442106246948e-01" purity="8.3788678050041199e-02" nType="-1"/>
              <Node pos="r" depth="4" NCoef="0" IVar="-1" Cut="0.0000000000000000e+00" cType="1" res="-1.5074045397341251e-02" rms="1.3442547619342804e-01" purity="2.0181939005851746e-02" nType="-1"/>
            </Node>
          </Node>
        </Node>
      </Node>
    </BinaryTree>
    <BinaryTree type="DecisionTree" boostWeight="1.0000000000000000e+00" itree="28">
      <Node pos="s" depth="0" NCoef="0" IVar="3" Cut="7.0013356208801270e-01" cType="0" res="-4.9601826816797256e-02" rms="3.5226246714591980e-01" purity="4.0843936800956726e-01" nType="0">
        <Node pos="l" depth="1" NCoef="0" IVar="-1" Cut="0.0000000000000000e+00" cType="1" res="1.0433362796902657e-02" rms="3.1793859601020813e-01" purity="8.5297960042953491e-01" nType="1"/>
        <Node pos="r" depth="1" NCoef="0" IVar="2" Cut="8.9365094900131226e-02" cType="0" res="-2.1818523108959198e-01" rms="2.6787528395652771e-01" purity="9.4018667936325073e-02" nType="0">
          <Node pos="l" depth="2" NCoef="0" IVar="-1" Cut="0.0000000000000000e+00" cType="1" res="-1.0749108623713255e-03" rms="4.4297224283218384e-01" purity="3.3997380733489990e-01" nType="-1"/>
          <Node pos="r" depth="2" NCoef="0" IVar="2" Cut="5.5630393326282501e-02" cType="0" res="-2.4492381513118744e-01" rms="2.2130386531352997e-01" purity="6.0907732695341110e-02" nType="0">
            <Node pos="l" depth="3" NCoef="0" IVar="-1" Cut="0.0000000000000000e+00" cType="1" res="-9.3487622216343880e-03" rms="3.1585505604743958e-01" purity="1.4111450314521790e-01" nType="-1"/>
            <Node pos="r" depth="3" NCoef="0" IVar="3" Cut="6.7755389213562012e-01" cType="0" res="-2.6831951737403870e-01" rms="1.7595131695270538e-01" purity="3.6116749048233032e-02" nType="0">
              <Node pos="l" depth="4" NCoef="0" IVar="-1" Cut="0.0000000000000000e+00" cType="1" res="-8.6763631552457809e-03" rms="3.5903614759445190e-01" purity="1.8563979864120483e-01" nType="-1"/>
              <Node pos="r" depth="4" NCoef="0" IVar="-1" Cut="0.0000000000000000e+00" cType="1" res="-1.5232373960316181e-02" rms="1.4886066317558289e-01" purity="2.4344200268387794e-02" nType="-1"/>
            </Node>
          </Node>
        </Node>
      </Node>
    </BinaryTree>
    <BinaryTree type="DecisionTree" boostWeight="1.0000000000000000e+00" itree="29">
      <Node pos="s" depth="0" NCoef="0" IVar="3" Cut="7.7607804536819458e-01" cType="0" res="-4.8535235226154327e-02" rms="3.4938287734985352e-01" purity="4.0843936800956726e-01" nType="0">
        <Node pos="l" depth="1" NCoef="0" IVar="-1" Cut="0.0000000000000000e+00" cType="1" res="1.4002919197082520e-02" rms="2.2618237137794495e-01" purity="9.4591653347015381e-01" nType="1"/>
        <Node pos="r" depth="1" NCoef="0" IVar="4" Cut="3.4282851219177246e-01" cType="1" res="-1.8076007068157196e-01" rms="3.1308254599571228e-01" purity="1.6527803242206573e-01" nType="0">
          <Node pos="l" depth="2" NCoef="0" IVar="-1" Cut="0.0000000000000000e+00" cType="1" res="-7.6699833152815700e-04" rms="4.4902929663658142e-01" purity="4.4202086329460144e-01" nType="-1"/>
          <Node pos="r" depth="2" NCoef="0" IVar="4" Cut="4.1740122437477112e-01" cType="1" res="-2.5529423356056213e-01" rms="1.8314245343208313e-01" purity="4.0903743356466293e-02" nType="0">
            <Node pos="l" depth="3" NCoef="0" IVar="-1" Cut="0.0000000000000000e+00" cType="1" res="-7.8964047133922577e-03" rms="3.5803225636482239e-01" purity="2.0975975692272186e-01" nType="-1"/>
            <Node pos="r" depth="3" NCoef="0" IVar="3" Cut="7.2691732645034790e-01" cType="0" res="-2.6570361852645874e-01" rms="1.5015468001365662e-01" purity="2.3340092971920967e-02" nType="0">
              <Node pos="l" depth="4" NCoef="0" IVar="-1" Cut="0.0000000000000000e+00" cType="1" res="-2.0715847611427307e-02" rms="2.7073776721954346e-01" purity="8.3788678050041199e-02" nType="-1"/>
              <Node pos="r" depth="4" NCoef="0" IVar="-1" Cut="0.0000000000000000e+00" cType="1" res="-1.4814240857958794e-02" rms="1.3418768346309662e-01" purity="2.0181939005851746e-02" nType="-1"/>
            </Node>
          </Node>
        </Node>
      </Node>
    </BinaryTree>
    <BinaryTree type="DecisionTree" boostWeight="1.0000000000000000e+00" itree="30">
      <Node pos="s" depth="0" NCoef="0" IVar="3" Cut="7.5076323747634888e-01" cType="0" res="-4.7518718987703323e-02" rms="3.4620347619056702e-01" purity="4.0843936800956726e-01" nType="0">
        <Node pos="l" depth="1" NCoef="0" IVar="-1" Cut="0.0000000000000000e+00" cType="1" res="1.2452366761863232e-02" rms="2.6659715175628662e-01" purity="9.2162334918975830e-01" nType="1"/>
        <Node pos="r" depth="1" NCoef="0" IVar="5" Cut="1.7338992357254028e+00" cType="1" res="-1.8785925209522247e-01" rms="2.9882568120956421e-01" purity="1.3453711569309235e-01" nType="0">
          <Node pos="l" depth="2" NCoef="0" IVar="-1" Cut="0.0000000000000000e+00" cType="1" res="-2.5732356589287519e-03" rms="4.3919554352760315e-01" purity="3.4933072328567505e-01" nType="-1"/>
          <Node pos="r" depth="2" NCoef="0" IVar="1" Cut="3.0983563512563705e-02" cType="1" res="-2.5317803025245667e-01" rms="1.6377875208854675e-01" purity="3.2468292862176895e-02" nType="0">
            <Node pos="l" depth="3" NCoef="0" IVar="-1" Cut="0.0000000000000000e+00" cType="1" res="-1.1001117527484894e-02" rms="2.7806121110916138e-01" purity="1.1431149393320084e-01" nType="-1"/>
            <Node pos="r" depth="3" NCoef="0" IVar="4" Cut="3.8480737805366516e-01" cType="1" res="-2.6818096637725830e-01" rms="1.1250797659158707e-01" purity="1.1282726190984249e-02" nType="0">
              <Node pos="l" depth="4" NCoef="0" IVar="-1" Cut="0.0000000000000000e+00" cType="1" res="-1.7216850072145462e-02" rms="1.3952223956584930e-01" purity="1.5812510624527931e-02" nType="-1"/>
              <Node pos="r" depth="4" NCoef="0" IVar="-1" Cut="0.0000000000000000e+00" cType="1" res="-1.5101785771548748e-02" rms="1.0061743855476379e-01" purity="1.0422142222523689e-02" nType="-1"/>
            </Node>
          </Node>
        </Node>
      </Node>
    </BinaryTree>
    <BinaryTree type="DecisionTree" boostWeight="1.0000000000000000e+00" itree="31">
      <Node pos="s" depth="0" NCoef="0" IVar="3" Cut="7.0013356208801270e-01" cType="0" res="-4.6495862305164337e-02" rms="3.4331649541854858e-01" purity="4.0843936800956726e-01" nType="0">
        <Node pos="l" depth="1" NCoef="0" IVar="-1" Cut="0.0000000000000000e+00" cType="1" res="1.0013657622039318e-02" rms="3.1491634249687195e-01" purity="8.5297960042953491e-01" nType="1"/>
        <Node pos="r" depth="1" NCoef="0" IVar="2" Cut="8.9365094900131226e-02" cType="0" res="-2.0450080931186676e-01" rms="2.6613053679466248e-01" purity="9.4018667936325073e-02" nType="0">
          <Node pos="l" depth="2" NCoef="0" IVar="-1" Cut="0.0000000000000000e+00" cType="1" res="-6.1839626869186759e-04" rms="4.4031620025634766e-01" purity="3.3997380733489990e-01" nType="-1"/>
          <Node pos="r" depth="2" NCoef="0" IVar="1" Cut="9.7931534051895142e-02" cType="1" res="-2.3053537309169769e-01" rms="2.2033435106277466e-01" purity="6.0907732695341110e-02" nType="0">
            <Node pos="l" depth="3" NCoef="0" IVar="-1" Cut="0.0000000000000000e+00" cType="1" res="-1.0026986710727215e-02" rms="2.9740372300148010e-01" purity="1.2141256779432297e-01" nType="-1"/>
            <Node pos="r" depth="3" NCoef="0" IVar="5" Cut="5.9859502315521240e-01" cType="1" res="-2.6320981979370117e-01" rms="1.4413128793239594e-01" purity="2.2996192798018456e-02" nType="0">
              <Node pos="l" depth="4" NCoef="0" IVar="-1" Cut="0.0000000000000000e+00" cType="1" res="-9.1950241476297379e-03" rms="3.7479519844055176e-01" purity="1.8909068405628204e-01" nType="-1"/>
              <Node pos="r" depth="4" NCoef="0" IVar="-1" Cut="0.0000000000000000e+00" cType="1" res="-1.5433858148753643e-02" rms="1.1240570992231369e-01" purity="1.2418843805789948e-02" nType="-1"/>
            </Node>
          </Node>
        </Node>
      </Node>
    </BinaryTree>
    <BinaryTree type="DecisionTree" boostWeight="1.0000000000000000e+00" itree="32">
      <Node pos="s" depth="0" NCoef="0" IVar="4" Cut="3.3233377337455750e-01" cType="1" res="-4.5493438839912415e-02" rms="3.4071722626686096e-01" purity="4.0843936800956726e-01" nType="0">
        <Node pos="l" depth="1" NCoef="0" IVar="-1" Cut="0.0000000000000000e+00" cType="1" res="8.0121224746108055e-03" rms="3.4157806634902954e-01" purity="7.4908798933029175e-01" nType="1"/>
        <Node pos="r" depth="1" NCoef="0" IVar="3" Cut="8.5951453447341919e-01" cType="0" res="-2.2630010545253754e-01" rms="2.2032816708087921e-01" purity="8.3701439201831818e-02" nType="0">
          <Node pos="l" depth="2" NCoef="0" IVar="-1" Cut="0.0000000000000000e+00" cType="1" res="9.3473866581916809e-03" rms="3.4487819671630859e-01" purity="8.6202079057693481e-01" nType="1"/>
          <Node pos="r" depth="2" NCoef="0" IVar="4" Cut="4.1513419151306152e-01" cType="1" res="-2.3700660467147827e-01" rms="2.0597484707832336e-01" purity="6.1246998608112335e-02" nType="0">
            <Node pos="l" depth="3" NCoef="0" IVar="-1" Cut="0.0000000000000000e+00" cType="1" res="-6.5058101899921894e-03" rms="3.6153933405876160e-01" purity="2.5127694010734558e-01" nType="-1"/>
            <Node pos="r" depth="3" NCoef="0" IVar="3" Cut="7.2699785232543945e-01" cType="0" res="-2.5028961896896362e-01" rms="1.7502883076667786e-01" purity="3.9578732103109360e-02" nType="0">
              <Node pos="l" depth="4" NCoef="0" IVar="-1" Cut="0.0000000000000000e+00" cType="1" res="-1.7725661396980286e-02" rms="4.0003210306167603e-01" purity="2.5484013557434082e-01" nType="-1"/>
              <Node pos="r" depth="4" NCoef="0" IVar="-1" Cut="0.0000000000000000e+00" cType="1" res="-1.4456135220825672e-02" rms="1.3385771214962006e-01" purity="2.0159702748060226e-02" nType="-1"/>
            </Node>
          </Node>
        </Node>
      </Node>
    </BinaryTree>
    <BinaryTree type="DecisionTree" boostWeight="1.0000000000000000e+00" itree="33">
      <Node pos="s" depth="0" NCoef="0" IVar="3" Cut="7.7607804536819458e-01" cType="0" res="-4.4548459351062775e-02" rms="3.3823180198669434e-01" purity="4.0843936800956726e-01" nType="0">
        <Node pos="l" depth="1" NCoef="0" IVar="-1" Cut="0.0000000000000000e+00" cType="1" res="1.3466160744428635e-02" rms="2.2514677047729492e-01" purity="9.4591653347015381e-01" nType="1"/>
        <Node pos="r" depth="1" NCoef="0" IVar="4" Cut="3.4282851219177246e-01" cType="1" res="-1.6694599390029907e-01" rms="3.0842941999435425e-01" purity="1.6527803242206573e-01" nType="0">
          <Node pos="l" depth="2" NCoef="0" IVar="-1" Cut="0.0000000000000000e+00" cType="1" res="-7.2279828600585461e-04" rms="4.4575586915016174e-01" purity="4.4202086329460144e-01" nType="-1"/>
          <Node pos="r" depth="2" NCoef="0" IVar="4" Cut="4.1740122437477112e-01" cType="1" res="-2.3570071160793304e-01" rms="1.8258318305015564e-01" purity="4.0903743356466293e-02" nType="0">
            <Node pos="l" depth="3" NCoef="0" IVar="-1" Cut="0.0000000000000000e+00" cType="1" res="-7.4118198826909065e-03" rms="3.5578525066375732e-01" purity="2.0975975692272186e-01" nType="-1"/>
            <Node pos="r" depth="3" NCoef="0" IVar="3" Cut="7.2691732645034790e-01" cType="0" res="-2.4540284276008606e-01" rms="1.5046072006225586e-01" purity="2.3340092971920967e-02" nType="0">
              <Node pos="l" depth="4" NCoef="0" IVar="-1" Cut="0.0000000000000000e+00" cType="1" res="-2.0170334726572037e-02" rms="2.7167442440986633e-01" purity="8.3788678050041199e-02" nType="-1"/>
              <Node pos="r" depth="4" NCoef="0" IVar="-1" Cut="0.0000000000000000e+00" cType="1" res="-1.4324412681162357e-02" rms="1.3393794000148773e-01" purity="2.0181939005851746e-02" nType="-1"/>
            </Node>
          </Node>
        </Node>
      </Node>
    </BinaryTree>
    <BinaryTree type="DecisionTree" boostWeight="1.0000000000000000e+00" itree="34">
      <Node pos="s" depth="0" NCoef="0" IVar="3" Cut="7.7607804536819458e-01" cType="0" res="-4.3617069721221924e-02" rms="3.3541703224182129e-01" purity="4.0843936800956726e-01" nType="0">
        <Node pos="l" depth="1" NCoef="0" IVar="-1" Cut="0.0000000000000000e+00" cType="1" res="1.3303071260452271e-02" rms="2.2515873610973358e-01" purity="9.4591653347015381e-01" nType="1"/>
        <Node pos="r" depth="1" NCoef="0" IVar="4" Cut="3.4282851219177246e-01" cType="1" res="-1.6315108537673950e-01" rms="3.0756518244743347e-01" purity="1.6527803242206573e-01" nType="0">
          <Node pos="l" depth="2" NCoef="0" IVar="-1" Cut="0.0000000000000000e+00" cType="1" res="-7.0540473097935319e-04" rms="4.4575741887092590e-01" purity="4.4202086329460144e-01" nType="-1"/>
          <Node pos="r" depth="2" NCoef="0" IVar="3" Cut="7.3156672716140747e-01" cType="0" res="-2.3035214841365814e-01" rms="1.8233376741409302e-01" purity="4.0903743356466293e-02" nType="0">
            <Node pos="l" depth="3" NCoef="0" IVar="-1" Cut="0.0000000000000000e+00" cType="1" res="-1.6737885773181915e-02" rms="3.5456231236457825e-01" purity="1.9169580936431885e-01" nType="-1"/>
            <Node pos="r" depth="3" NCoef="0" IVar="4" Cut="4.1148987412452698e-01" cType="1" res="-2.2349774837493896e-01" rms="1.6529262065887451e-01" purity="3.2734129577875137e-02" nType="0">
              <Node pos="l" depth="4" NCoef="0" IVar="-1" Cut="0.0000000000000000e+00" cType="1" res="-7.3836501687765121e-03" rms="3.5158383846282959e-01" purity="1.7360195517539978e-01" nType="-1"/>
              <Node pos="r" depth="4" NCoef="0" IVar="-1" Cut="0.0000000000000000e+00" cType="1" res="-1.4212829992175102e-02" rms="1.3387027382850647e-01" purity="2.0003471523523331e-02" nType="-1"/>
            </Node>
          </Node>
        </Node>
      </Node>
    </BinaryTree>
    <BinaryTree type="DecisionTree" boostWeight="1.0000000000000000e+00" itree="35">
      <Node pos="s" depth="0" NCoef="0" IVar="3" Cut="7.0013356208801270e-01" cType="0" res="-4.2703211307525635e-02" rms="3.3273547887802124e-01" purity="4.0843936800956726e-01" nType="0">
        <Node pos="l" depth="1" NCoef="0" IVar="-1" Cut="0.0000000000000000e+00" cType="1" res="9.5748053863644600e-03" rms="3.0950659513473511e-01" purity="8.5297960042953491e-01" nType="1"/>
        <Node pos="r" depth="1" NCoef="0" IVar="2" Cut="8.0889552831649780e-02" cType="0" res="-1.8908937275409698e-01" rms="2.6370206475257874e-01" purity="9.4018667936325073e-02" nType="0">
          <Node pos="l" depth="2" NCoef="0" IVar="-1" Cut="0.0000000000000000e+00" cType="1" res="-1.4913479099050164e-03" rms="4.1914975643157959e-01" purity="3.0442798137664795e-01" nType="-1"/>
          <Node pos="r" depth="2" NCoef="0" IVar="1" Cut="9.7931534051895142e-02" cType="1" res="-2.1843385696411133e-01" rms="2.1168535947799683e-01" purity="5.6207098066806793e-02" nType="0">
            <Node pos="l" depth="3" NCoef="0" IVar="-1" Cut="0.0000000000000000e+00" cType="1" res="-9.9230203777551651e-03" rms="2.8567859530448914e-01" purity="1.1293449252843857e-01" nType="-1"/>
            <Node pos="r" depth="3" NCoef="0" IVar="4" Cut="4.1879037022590637e-01" cType="1" res="-2.4821649491786957e-01" rms="1.3952985405921936e-01" purity="2.0695114508271217e-02" nType="0">
              <Node pos="l" depth="4" NCoef="0" IVar="-1" Cut="0.0000000000000000e+00" cType="1" res="-1.4869220554828644e-02" rms="2.3598927259445190e-01" purity="6.3102349638938904e-02" nType="-1"/>
              <Node pos="r" depth="4" NCoef="0" IVar="-1" Cut="0.0000000000000000e+00" cType="1" res="-1.4718947932124138e-02" rms="5.7051200419664383e-02" purity="3.0348415020853281e-03" nType="-1"/>
            </Node>
          </Node>
        </Node>
      </Node>
    </BinaryTree>
    <BinaryTree type="DecisionTree" boostWeight="1.0000000000000000e+00" itree="36">
      <Node pos="s" depth="0" NCoef="0" IVar="4" Cut="3.3233377337455750e-01" cType="1" res="-4.1783969849348068e-02" rms="3.3043873310089111e-01" purity="4.0843936800956726e-01" nType="0">
        <Node pos="l" depth="1" NCoef="0" IVar="-1" Cut="0.0000000000000000e+00" cType="1" res="7.6037975959479809e-03" rms="3.3737710118293762e-01" purity="7.4908798933029175e-01" nType="1"/>
        <Node pos="r" depth="1" NCoef="0" IVar="3" Cut="8.5951453447341919e-01" cType="0" res="-2.0906728506088257e-01" rms="2.1779376268386841e-01" purity="8.3701439201831818e-02" nType="0">
          <Node pos="l" depth="2" NCoef="0" IVar="-1" Cut="0.0000000000000000e+00" cType="1" res="8.5203964263200760e-03" rms="3.4487816691398621e-01" purity="8.6202079057693481e-01" nType="1"/>
          <Node pos="r" depth="2" NCoef="0" IVar="4" Cut="4.1513419151306152e-01" cType="1" res="-2.1875268220901489e-01" rms="2.0500195026397705e-01" purity="6.1246998608112335e-02" nType="0">
            <Node pos="l" depth="3" NCoef="0" IVar="-1" Cut="0.0000000000000000e+00" cType="1" res="-6.0530500486493111e-03" rms="3.5884130001068115e-01" purity="2.5127694010734558e-01" nType="-1"/>
            <Node pos="r" depth="3" NCoef="0" IVar="3" Cut="7.2699785232543945e-01" cType="0" res="-2.3116032779216766e-01" rms="1.7501713335514069e-01" purity="3.9578732103109360e-02" nType="0">
              <Node pos="l" depth="4" NCoef="0" IVar="-1" Cut="0.0000000000000000e+00" cType="1" res="-1.7346357926726341e-02" rms="3.9721393585205078e-01" purity="2.5484013557434082e-01" nType="-1"/>
              <Node pos="r" depth="4" NCoef="0" IVar="-1" Cut="0.0000000000000000e+00" cType="1" res="-1.3984330929815769e-02" rms="1.3378597795963287e-01" purity="2.0159702748060226e-02" nType="-1"/>
            </Node>
          </Node>
        </Node>
      </Node>
    </BinaryTree>
    <BinaryTree type="DecisionTree" boostWeight="1.0000000000000000e+00" itree="37">
      <Node pos="s" depth="0" NCoef="0" IVar="3" Cut="7.7607804536819458e-01" cType="0" res="-4.0917802602052689e-02" rms="3.2825329899787903e-01" purity="4.0843936800956726e-01" nType="0">
        <Node pos="l" depth="1" NCoef="0" IVar="-1" Cut="0.0000000000000000e+00" cType="1" res="1.2956833466887474e-02" rms="2.2421228885650635e-01" purity="9.4591653347015381e-01" nType="1"/>
        <Node pos="r" depth="1" NCoef="0" IVar="1" Cut="5.7969249784946442e-02" cType="1" res="-1.5404228866100311e-01" rms="3.0441886186599731e-01" purity="1.6527803242206573e-01" nType="0">
          <Node pos="l" depth="2" NCoef="0" IVar="-1" Cut="0.0000000000000000e+00" cType="1" res="-1.0734043316915631e-03" rms="3.8859683275222778e-01" purity="3.6258694529533386e-01" nType="-1"/>
          <Node pos="r" depth="2" NCoef="0" IVar="4" Cut="1.9840069115161896e-01" cType="1" res="-2.2183933854103088e-01" rms="2.2280792891979218e-01" purity="6.6279262304306030e-02" nType="0">
            <Node pos="l" depth="3" NCoef="0" IVar="-1" Cut="0.0000000000000000e+00" cType="1" res="-4.7184992581605911e-03" rms="4.3542200326919556e-01" purity="3.4197628498077393e-01" nType="-1"/>
            <Node pos="r" depth="3" NCoef="0" IVar="3" Cut="7.2886335849761963e-01" cType="0" res="-2.4184031784534454e-01" rms="1.5845796465873718e-01" purity="2.3856405168771744e-02" nType="0">
              <Node pos="l" depth="4" NCoef="0" IVar="-1" Cut="0.0000000000000000e+00" cType="1" res="-2.1094750612974167e-02" rms="2.1797616779804230e-01" purity="4.1396811604499817e-02" nType="-1"/>
              <Node pos="r" depth="4" NCoef="0" IVar="-1" Cut="0.0000000000000000e+00" cType="1" res="-1.4284653589129448e-02" rms="1.4663784205913544e-01" purity="2.3001343011856079e-02" nType="-1"/>
            </Node>
          </Node>
        </Node>
      </Node>
    </BinaryTree>
    <BinaryTree type="DecisionTree" boostWeight="1.0000000000000000e+00" itree="38">
      <Node pos="s" depth="0" NCoef="0" IVar="4" Cut="3.3233377337455750e-01" cType="1" res="-4.0051791816949844e-02" rms="3.2568132877349854e-01" purity="4.0843936800956726e-01" nType="0">
        <Node pos="l" depth="1" NCoef="0" IVar="-1" Cut="0.0000000000000000e+00" cType="1" res="7.3966281488537788e-03" rms="3.3551782369613647e-01" purity="7.4908798933029175e-01" nType="1"/>
        <Node pos="r" depth="1" NCoef="0" IVar="3" Cut="8.5951453447341919e-01" cType="0" res="-2.0090121030807495e-01" rms="2.1646137535572052e-01" purity="8.3701439201831818e-02" nType="0">
          <Node pos="l" depth="2" NCoef="0" IVar="-1" Cut="0.0000000000000000e+00" cType="1" res="8.1293266266584396e-03" rms="3.4487816691398621e-01" purity="8.6202079057693481e-01" nType="1"/>
          <Node pos="r" depth="2" NCoef="0" IVar="4" Cut="4.1513419151306152e-01" cType="1" res="-2.1011230349540710e-01" rms="2.0432850718498230e-01" purity="6.1246998608112335e-02" nType="0">
            <Node pos="l" depth="3" NCoef="0" IVar="-1" Cut="0.0000000000000000e+00" cType="1" res="-5.7592396624386311e-03" rms="3.5710814595222473e-01" purity="2.5127694010734558e-01" nType="-1"/>
            <Node pos="r" depth="3" NCoef="0" IVar="3" Cut="7.2699785232543945e-01" cType="0" res="-2.2227682173252106e-01" rms="1.7471051216125488e-01" purity="3.9578732103109360e-02" nType="0">
              <Node pos="l" depth="4" NCoef="0" IVar="-1" Cut="0.0000000000000000e+00" cType="1" res="-1.6873218119144440e-02" rms="3.9581277966499329e-01" purity="2.5484013557434082e-01" nType="-1"/>
              <Node pos="r" depth="4" NCoef="0" IVar="-1" Cut="0.0000000000000000e+00" cType="1" res="-1.3776330277323723e-02" rms="1.3372895121574402e-01" purity="2.0159702748060226e-02" nType="-1"/>
            </Node>
          </Node>
        </Node>
      </Node>
    </BinaryTree>
    <BinaryTree type="DecisionTree" boostWeight="1.0000000000000000e+00" itree="39">
      <Node pos="s" depth="0" NCoef="0" IVar="3" Cut="7.0013356208801270e-01" cType="0" res="-3.9222210645675659e-02" rms="3.2363653182983398e-01" purity="4.0843936800956726e-01" nType="0">
        <Node pos="l" depth="1" NCoef="0" IVar="-1" Cut="0.0000000000000000e+00" cType="1" res="9.2129167169332504e-03" rms="3.0439689755439758e-01" purity="8.5297960042953491e-01" nType="1"/>
        <Node pos="r" depth="1" NCoef="0" IVar="2" Cut="5.5632442235946655e-02" cType="0" res="-1.7588128149509430e-01" rms="2.6116430759429932e-01" purity="9.4018667936325073e-02" nType="0">
          <Node pos="l" depth="2" NCoef="0" IVar="-1" Cut="0.0000000000000000e+00" cType="1" res="-4.7186184674501419e-03" rms="3.6252990365028381e-01" purity="2.1332524716854095e-01" nType="-1"/>
          <Node pos="r" depth="2" NCoef="0" IVar="3" Cut="6.7755389213562012e-01" cType="0" res="-2.2297388315200806e-01" rms="1.7531970143318176e-01" purity="3.6116749048233032e-02" nType="0">
            <Node pos="l" depth="3" NCoef="0" IVar="-1" Cut="0.0000000000000000e+00" cType="1" res="-7.2645847685635090e-03" rms="3.5081097483634949e-01" purity="1.8563979864120483e-01" nType="-1"/>
            <Node pos="r" depth="3" NCoef="0" IVar="4" Cut="3.4232863783836365e-01" cType="1" res="-2.3098504543304443e-01" rms="1.5029329061508179e-01" purity="2.4344200268387794e-02" nType="0">
              <Node pos="l" depth="4" NCoef="0" IVar="-1" Cut="0.0000000000000000e+00" cType="1" res="-1.4129602350294590e-02" rms="2.8341698646545410e-01" purity="9.1664269566535950e-02" nType="-1"/>
              <Node pos="r" depth="4" NCoef="0" IVar="-1" Cut="0.0000000000000000e+00" cType="1" res="-1.4271056279540062e-02" rms="7.0362143218517303e-02" purity="4.9166860990226269e-03" nType="-1"/>
            </Node>
          </Node>
        </Node>
      </Node>
    </BinaryTree>
    <BinaryTree type="DecisionTree" boostWeight="1.0000000000000000e+00" itree="40">
      <Node pos="s" depth="0" NCoef="0" IVar="3" Cut="7.7607804536819458e-01" cType="0" res="-3.8372460752725601e-02" rms="3.2159292697906494e-01" purity="4.0843936800956726e-01" nType="0">
        <Node pos="l" depth="1" NCoef="0" IVar="-1" Cut="0.0000000000000000e+00" cType="1" res="1.2629291974008083e-02" rms="2.2333563864231110e-01" purity="9.4591653347015381e-01" nType="1"/>
        <Node pos="r" depth="1" NCoef="0" IVar="5" Cut="1.7338992357254028e+00" cType="1" res="-1.4545494318008423e-01" rms="3.0138579010963440e-01" purity="1.6527803242206573e-01" nType="0">
          <Node pos="l" depth="2" NCoef="0" IVar="-1" Cut="0.0000000000000000e+00" cType="1" res="-8.8928174227476120e-04" rms="4.2394185066223145e-01" purity="4.0168505907058716e-01" nType="-1"/>
          <Node pos="r" depth="2" NCoef="0" IVar="4" Cut="1.5542225539684296e-01" cType="0" res="-2.1191248297691345e-01" rms="1.7887604236602783e-01" purity="4.3318510055541992e-02" nType="0">
            <Node pos="l" depth="3" NCoef="0" IVar="1" Cut="4.1178155690431595e-02" cType="1" res="-2.0597185194492340e-01" rms="1.7743286490440369e-01" purity="4.4452935457229614e-02" nType="0">
              <Node pos="l" depth="4" NCoef="0" IVar="-1" Cut="0.0000000000000000e+00" cType="1" res="-9.1801639646291733e-03" rms="2.8253611922264099e-01" purity="1.4652746915817261e-01" nType="-1"/>
              <Node pos="r" depth="4" NCoef="0" IVar="-1" Cut="0.0000000000000000e+00" cType="1" res="-1.4536654576659203e-02" rms="1.2686412036418915e-01" purity="1.4788175001740456e-02" nType="-1"/>
            </Node>
            <Node pos="r" depth="3" NCoef="0" IVar="-1" Cut="0.0000000000000000e+00" cType="1" res="-1.8113873898983002e-02" rms="1.3714243471622467e-01" purity="1.2379257939755917e-02" nType="-1"/>
          </Node>
        </Node>
      </Node>
    </BinaryTree>
    <BinaryTree type="DecisionTree" boostWeight="1.0000000000000000e+00" itree="41">
      <Node pos="s" depth="0" NCoef="0" IVar="4" Cut="3.3233377337455750e-01" cType="1" res="-3.7559650838375092e-02" rms="3.1928691267967224e-01" purity="4.0843936800956726e-01" nType="0">
        <Node pos="l" depth="1" NCoef="0" IVar="-1" Cut="0.0000000000000000e+00" cType="1" res="7.1778460405766964e-03" rms="3.3192852139472961e-01" purity="7.4908798933029175e-01" nType="1"/>
        <Node pos="r" depth="1" NCoef="0" IVar="3" Cut="8.5951453447341919e-01" cType="0" res="-1.9031447172164917e-01" rms="2.1513929963111877e-01" purity="8.3701439201831818e-02" nType="0">
          <Node pos="l" depth="2" NCoef="0" IVar="-1" Cut="0.0000000000000000e+00" cType="1" res="7.5792646966874599e-03" rms="3.4487816691398621e-01" purity="8.6202079057693481e-01" nType="1"/>
          <Node pos="r" depth="2" NCoef="0" IVar="4" Cut="4.1513419151306152e-01" cType="1" res="-1.9889530539512634e-01" rms="2.0386998355388641e-01" purity="6.1246998608112335e-02" nType="0">
            <Node pos="l" depth="3" NCoef="0" IVar="-1" Cut="0.0000000000000000e+00" cType="1" res="-5.4540704004466534e-03" rms="3.5507142543792725e-01" purity="2.5127694010734558e-01" nType="-1"/>
            <Node pos="r" depth="3" NCoef="0" IVar="3" Cut="7.2699785232543945e-01" cType="0" res="-2.1058964729309082e-01" rms="1.7490065097808838e-01" purity="3.9578732103109360e-02" nType="0">
              <Node pos="l" depth="4" NCoef="0" IVar="-1" Cut="0.0000000000000000e+00" cType="1" res="-1.6702372580766678e-02" rms="3.9506423473358154e-01" purity="2.5484013557434082e-01" nType="-1"/>
              <Node pos="r" depth="4" NCoef="0" IVar="-1" Cut="0.0000000000000000e+00" cType="1" res="-1.3497000560164452e-02" rms="1.3354030251502991e-01" purity="2.0159702748060226e-02" nType="-1"/>
            </Node>
          </Node>
        </Node>
      </Node>
    </BinaryTree>
    <BinaryTree type="DecisionTree" boostWeight="1.0000000000000000e+00" itree="42">
      <Node pos="s" depth="0" NCoef="0" IVar="3" Cut="7.0013356208801270e-01" cType="0" res="-3.6783531308174133e-02" rms="3.1740668416023254e-01" purity="4.0843936800956726e-01" nType="0">
        <Node pos="l" depth="1" NCoef="0" IVar="-1" Cut="0.0000000000000000e+00" cType="1" res="8.9137880131602287e-03" rms="3.0157470703125000e-01" purity="8.5297960042953491e-01" nType="1"/>
        <Node pos="r" depth="1" NCoef="0" IVar="2" Cut="8.0889552831649780e-02" cType="0" res="-1.6597422957420349e-01" rms="2.5959727168083191e-01" purity="9.4018667936325073e-02" nType="0">
          <Node pos="l" depth="2" NCoef="0" IVar="-1" Cut="0.0000000000000000e+00" cType="1" res="-5.9547577984631062e-04" rms="4.1127881407737732e-01" purity="3.0442798137664795e-01" nType="-1"/>
          <Node pos="r" depth="2" NCoef="0" IVar="3" Cut="6.6201931238174438e-01" cType="0" res="-1.9401797652244568e-01" rms="2.0962168276309967e-01" purity="5.6207098066806793e-02" nType="0">
            <Node pos="l" depth="3" NCoef="0" IVar="-1" Cut="0.0000000000000000e+00" cType="1" res="-6.0363709926605225e-03" rms="3.4460771083831787e-01" purity="1.8611782789230347e-01" nType="-1"/>
            <Node pos="r" depth="3" NCoef="0" IVar="2" Cut="5.5513206869363785e-02" cType="0" res="-2.0761004090309143e-01" rms="1.7743365466594696e-01" purity="3.7071999162435532e-02" nType="0">
              <Node pos="l" depth="4" NCoef="0" IVar="-1" Cut="0.0000000000000000e+00" cType="1" res="-9.9620455875992775e-03" rms="2.5979271531105042e-01" purity="9.4959899783134460e-02" nType="-1"/>
              <Node pos="r" depth="4" NCoef="0" IVar="-1" Cut="0.0000000000000000e+00" cType="1" res="-1.4126990921795368e-02" rms="1.4498637616634369e-01" purity="2.1674288436770439e-02" nType="-1"/>
            </Node>
          </Node>
        </Node>
      </Node>
    </BinaryTree>
    <BinaryTree type="DecisionTree" boostWeight="1.0000000000000000e+00" itree="43">
      <Node pos="s" depth="0" NCoef="0" IVar="4" Cut="3.3233377337455750e-01" cType="1" res="-3.5998798906803131e-02" rms="3.1548070907592773e-01" purity="4.0843936800956726e-01" nType="0">
        <Node pos="l" depth="1" NCoef="0" IVar="-1" Cut="0.0000000000000000e+00" cType="1" res="7.0167640224099159e-03" rms="3.3011493086814880e-01" purity="7.4908798933029175e-01" nType="1"/>
        <Node pos="r" depth="1" NCoef="0" IVar="3" Cut="8.5951453447341919e-01" cType="0" res="-1.8347755074501038e-01" rms="2.1437336504459381e-01" purity="8.3701439201831818e-02" nType="0">
          <Node pos="l" depth="2" NCoef="0" IVar="-1" Cut="0.0000000000000000e+00" cType="1" res="7.2737853042781353e-03" rms="3.4487816691398621e-01" purity="8.6202079057693481e-01" nType="1"/>
          <Node pos="r" depth="2" NCoef="0" IVar="4" Cut="5.2189803123474121e-01" cType="1" res="-1.9168654084205627e-01" rms="2.0358571410179138e-01" purity="6.1246998608112335e-02" nType="0">
            <Node pos="l" depth="3" NCoef="0" IVar="-1" Cut="0.0000000000000000e+00" cType="1" res="-7.6102693565189838e-03" rms="3.1185951828956604e-01" purity="1.9659110903739929e-01" nType="-1"/>
            <Node pos="r" depth="3" NCoef="0" IVar="3" Cut="7.2699785232543945e-01" cType="0" res="-2.0911517739295959e-01" rms="1.5834589302539825e-01" purity="2.5028124451637268e-02" nType="0">
              <Node pos="l" depth="4" NCoef="0" IVar="-1" Cut="0.0000000000000000e+00" cType="1" res="-2.1860847249627113e-02" rms="3.2507792115211487e-01" purity="1.3148067891597748e-01" nType="-1"/>
              <Node pos="r" depth="4" NCoef="0" IVar="-1" Cut="0.0000000000000000e+00" cType="1" res="-1.3465147465467453e-02" rms="1.2463536113500595e-01" purity="1.7592746764421463e-02" nType="-1"/>
            </Node>
          </Node>
        </Node>
      </Node>
    </BinaryTree>
    <BinaryTree type="DecisionTree" boostWeight="1.0000000000000000e+00" itree="44">
      <Node pos="s" depth="0" NCoef="0" IVar="3" Cut="7.7607804536819458e-01" cType="0" res="-3.5255551338195801e-02" rms="3.1365752220153809e-01" purity="4.0843936800956726e-01" nType="0">
        <Node pos="l" depth="1" NCoef="0" IVar="-1" Cut="0.0000000000000000e+00" cType="1" res="1.2256167829036713e-02" rms="2.2158965468406677e-01" purity="9.4591653347015381e-01" nType="1"/>
        <Node pos="r" depth="1" NCoef="0" IVar="1" Cut="5.7969249784946442e-02" cType="1" res="-1.3537319004535675e-01" rms="2.9748308658599854e-01" purity="1.6527803242206573e-01" nType="0">
          <Node pos="l" depth="2" NCoef="0" IVar="-1" Cut="0.0000000000000000e+00" cType="1" res="-5.4362264927476645e-04" rms="3.7928047776222229e-01" purity="3.6258694529533386e-01" nType="-1"/>
          <Node pos="r" depth="2" NCoef="0" IVar="7" Cut="-5.8044271469116211e+00" cType="1" res="-1.9866006076335907e-01" rms="2.2075556218624115e-01" purity="6.6279262304306030e-02" nType="0">
            <Node pos="l" depth="3" NCoef="0" IVar="-1" Cut="0.0000000000000000e+00" cType="1" res="-4.6480111777782440e-03" rms="3.8502249121665955e-01" purity="2.7252972126007080e-01" nType="-1"/>
            <Node pos="r" depth="3" NCoef="0" IVar="3" Cut="7.2202086448669434e-01" cType="0" res="-2.1646992862224579e-01" rms="1.7654928565025330e-01" purity="3.4847542643547058e-02" nType="0">
              <Node pos="l" depth="4" NCoef="0" IVar="-1" Cut="0.0000000000000000e+00" cType="1" res="-1.7211833968758583e-02" rms="3.0437341332435608e-01" purity="1.2940356135368347e-01" nType="-1"/>
              <Node pos="r" depth="4" NCoef="0" IVar="-1" Cut="0.0000000000000000e+00" cType="1" res="-1.3702212832868099e-02" rms="1.6101622581481934e-01" purity="2.8959929943084717e-02" nType="-1"/>
            </Node>
          </Node>
        </Node>
      </Node>
    </BinaryTree>
    <BinaryTree type="DecisionTree" boostWeight="1.0000000000000000e+00" itree="45">
      <Node pos="s" depth="0" NCoef="0" IVar="4" Cut="3.3233377337455750e-01" cType="1" res="-3.4504007548093796e-02" rms="3.1150662899017334e-01" purity="4.0843936800956726e-01" nType="0">
        <Node pos="l" depth="1" NCoef="0" IVar="-1" Cut="0.0000000000000000e+00" cType="1" res="6.8456623703241348e-03" rms="3.2828029990196228e-01" purity="7.4908798933029175e-01" nType="1"/>
        <Node pos="r" depth="1" NCoef="0" IVar="3" Cut="8.5951453447341919e-01" cType="0" res="-1.7659470438957214e-01" rms="2.1316029131412506e-01" purity="8.3701439201831818e-02" nType="0">
          <Node pos="l" depth="2" NCoef="0" IVar="-1" Cut="0.0000000000000000e+00" cType="1" res="6.9089275784790516e-03" rms="3.4487816691398621e-01" purity="8.6202079057693481e-01" nType="1"/>
          <Node pos="r" depth="2" NCoef="0" IVar="4" Cut="4.1513419151306152e-01" cType="1" res="-1.8440224230289459e-01" rms="2.0283700525760651e-01" purity="6.1246998608112335e-02" nType="0">
            <Node pos="l" depth="3" NCoef="0" IVar="-1" Cut="0.0000000000000000e+00" cType="1" res="-4.9902233295142651e-03" rms="3.5225233435630798e-01" purity="2.5127694010734558e-01" nType="-1"/>
            <Node pos="r" depth="3" NCoef="0" IVar="3" Cut="7.2699785232543945e-01" cType="0" res="-1.9560357928276062e-01" rms="1.7452754080295563e-01" purity="3.9578732103109360e-02" nType="0">
              <Node pos="l" depth="4" NCoef="0" IVar="-1" Cut="0.0000000000000000e+00" cType="1" res="-1.6084125265479088e-02" rms="3.9258110523223877e-01" purity="2.5484013557434082e-01" nType="-1"/>
              <Node pos="r" depth="4" NCoef="0" IVar="-1" Cut="0.0000000000000000e+00" cType="1" res="-1.3150540180504322e-02" rms="1.3337327539920807e-01" purity="2.0159702748060226e-02" nType="-1"/>
            </Node>
          </Node>
        </Node>
      </Node>
    </BinaryTree>
    <BinaryTree type="DecisionTree" boostWeight="1.0000000000000000e+00" itree="46">
      <Node pos="s" depth="0" NCoef="0" IVar="3" Cut="7.0013356208801270e-01" cType="0" res="-3.3792525529861450e-02" rms="3.0984213948249817e-01" purity="4.0843936800956726e-01" nType="0">
        <Node pos="l" depth="1" NCoef="0" IVar="-1" Cut="0.0000000000000000e+00" cType="1" res="8.5989302024245262e-03" rms="2.9701802134513855e-01" purity="8.5297960042953491e-01" nType="1"/>
        <Node pos="r" depth="1" NCoef="0" IVar="2" Cut="5.5632442235946655e-02" cType="0" res="-1.5460775792598724e-01" rms="2.5743636488914490e-01" purity="9.4018667936325073e-02" nType="0">
          <Node pos="l" depth="2" NCoef="0" IVar="-1" Cut="0.0000000000000000e+00" cType="1" res="-3.9111920632421970e-03" rms="3.5627436637878418e-01" purity="2.1332524716854095e-01" nType="-1"/>
          <Node pos="r" depth="2" NCoef="0" IVar="3" Cut="6.7755389213562012e-01" cType="0" res="-1.9941762089729309e-01" rms="1.7518477141857147e-01" purity="3.6116749048233032e-02" nType="0">
            <Node pos="l" depth="3" NCoef="0" IVar="-1" Cut="0.0000000000000000e+00" cType="1" res="-6.6568404436111450e-03" rms="3.4581062197685242e-01" purity="1.8563979864120483e-01" nType="-1"/>
            <Node pos="r" depth="3" NCoef="0" IVar="4" Cut="3.4232863783836365e-01" cType="1" res="-2.0669762790203094e-01" rms="1.5154038369655609e-01" purity="2.4344200268387794e-02" nType="0">
              <Node pos="l" depth="4" NCoef="0" IVar="-1" Cut="0.0000000000000000e+00" cType="1" res="-1.3793809339404106e-02" rms="2.8236621618270874e-01" purity="9.1664269566535950e-02" nType="-1"/>
              <Node pos="r" depth="4" NCoef="0" IVar="-1" Cut="0.0000000000000000e+00" cType="1" res="-1.3732837513089180e-02" rms="7.0677086710929871e-02" purity="4.9166860990226269e-03" nType="-1"/>
            </Node>
          </Node>
        </Node>
      </Node>
    </BinaryTree>
    <BinaryTree type="DecisionTree" boostWeight="1.0000000000000000e+00" itree="47">
      <Node pos="s" depth="0" NCoef="0" IVar="1" Cut="5.4571051150560379e-02" cType="1" res="-3.3062003552913666e-02" rms="3.0815091729164124e-01" purity="4.0843936800956726e-01" nType="0">
        <Node pos="l" depth="1" NCoef="0" IVar="-1" Cut="0.0000000000000000e+00" cType="1" res="6.6872253082692623e-03" rms="3.0424094200134277e-01" purity="6.9951462745666504e-01" nType="1"/>
        <Node pos="r" depth="1" NCoef="0" IVar="4" Cut="2.0189894735813141e-01" cType="1" res="-1.7849475145339966e-01" rms="2.3739856481552124e-01" purity="1.0034975409507751e-01" nType="0">
          <Node pos="l" depth="2" NCoef="0" IVar="-1" Cut="0.0000000000000000e+00" cType="1" res="-1.7457253998145461e-03" rms="4.1392526030540466e-01" purity="4.5349046587944031e-01" nType="-1"/>
          <Node pos="r" depth="2" NCoef="0" IVar="3" Cut="7.0132368803024292e-01" cType="0" res="-2.0544208586215973e-01" rms="1.7457041144371033e-01" purity="3.5164412111043930e-02" nType="0">
